{"learner":{"attributes":{"scikit_learn":"{\"_estimator_type\": \"regressor\"}"},"feature_names":["BRPT_lag1","BRPT_lag2","BRPT_lag3","BRPT_lag4","BRPT_lag5","BRPT_MA3","BRPT_MA5"],"feature_types":["float","float","float","float","float","float","float"],"gradient_booster":{"model":{"cats":{"enc":[],"feature_segments":[],"sorted_idx":[]},"gbtree_model_param":{"num_parallel_tree":"1","num_trees":"300"},"iteration_indptr":[0,1,2,3,4,5,6,7,8,9,10,11,12,13,14,15,16,17,18,19,20,21,22,23,24,25,26,27,28,29,30,31,32,33,34,35,36,37,38,39,40,41,42,43,44,45,46,47,48,49,50,51,52,53,54,55,56,57,58,59,60,61,62,63,64,65,66,67,68,69,70,71,72,73,74,75,76,77,78,79,80,81,82,83,84,85,86,87,88,89,90,91,92,93,94,95,96,97,98,99,100,101,102,103,104,105,106,107,108,109,110,111,112,113,114,115,116,117,118,119,120,121,122,123,124,125,126,127,128,129,130,131,132,133,134,135,136,137,138,139,140,141,142,143,144,145,146,147,148,149,150,151,152,153,154,155,156,157,158,159,160,161,162,163,164,165,166,167,168,169,170,171,172,173,174,175,176,177,178,179,180,181,182,183,184,185,186,187,188,189,190,191,192,193,194,195,196,197,198,199,200,201,202,203,204,205,206,207,208,209,210,211,212,213,214,215,216,217,218,219,220,221,222,223,224,225,226,227,228,229,230,231,232,233,234,235,236,237,238,239,240,241,242,243,244,245,246,247,248,249,250,251,252,253,254,255,256,257,258,259,260,261,262,263,264,265,266,267,268,269,270,271,272,273,274,275,276,277,278,279,280,281,282,283,284,285,286,287,288,289,290,291,292,293,294,295,296,297,298,299,300],"tree_info":[0,0,0,0,0,0,0,0,0,0,0,0,0,0,0,0,0,0,0,0,0,0,0,0,0,0,0,0,0,0,0,0,0,0,0,0,0,0,0,0,0,0,0,0,0,0,0,0,0,0,0,0,0,0,0,0,0,0,0,0,0,0,0,0,0,0,0,0,0,0,0,0,0,0,0,0,0,0,0,0,0,0,0,0,0,0,0,0,0,0,0,0,0,0,0,0,0,0,0,0,0,0,0,0,0,0,0,0,0,0,0,0,0,0,0,0,0,0,0,0,0,0,0,0,0,0,0,0,0,0,0,0,0,0,0,0,0,0,0,0,0,0,0,0,0,0,0,0,0,0,0,0,0,0,0,0,0,0,0,0,0,0,0,0,0,0,0,0,0,0,0,0,0,0,0,0,0,0,0,0,0,0,0,0,0,0,0,0,0,0,0,0,0,0,0,0,0,0,0,0,0,0,0,0,0,0,0,0,0,0,0,0,0,0,0,0,0,0,0,0,0,0,0,0,0,0,0,0,0,0,0,0,0,0,0,0,0,0,0,0,0,0,0,0,0,0,0,0,0,0,0,0,0,0,0,0,0,0,0,0,0,0,0,0,0,0,0,0,0,0,0,0,0,0,0,0,0,0,0,0,0,0,0,0,0,0,0,0,0,0,0,0,0,0,0,0,0,0,0,0],"trees":[{"base_weights":[4.7163647E-1,-9.183068E1,2.589024E2,-1.595662E2,5.2042065E0,1.4780298E2,1.8007414E1,-1.0952283E1,-6.009659E0,-2.0519574E0,1.1229072E0,7.961076E0,2.262439E0],"categories":[],"categories_nodes":[],"categories_segments":[],"categories_sizes":[],"default_left":[0,0,0,0,0,0,0,0,0,0,0,0,0],"id":0,"left_children":[1,3,5,7,9,11,-1,-1,-1,-1,-1,-1,-1],"loss_changes":[5.4384995E6,1.1058758E6,5.6844E5,1.79191E5,5.8492805E4,2.3063375E4,0E0,0E0,0E0,0E0,0E0,0E0,0E0],"parents":[2147483647,0,0,1,1,2,2,3,3,4,4,5,5],"right_children":[2,4,6,8,10,12,-1,-1,-1,-1,-1,-1,-1],"split_conditions":[1.0416666E3,8.86E2,1.2063334E3,7.803333E2,9.26E2,1.369E3,1.8007414E1,-1.0952283E1,-6.009659E0,-2.0519574E0,1.1229072E0,7.961076E0,2.262439E0],"split_indices":[5,5,5,5,5,4,0,0,0,0,0,0,0],"split_type":[0,0,0,0,0,0,0,0,0,0,0,0,0],"sum_hessian":[2.24E2,1.66E2,5.8E1,9.7E1,6.9E1,3E1,2.8E1,3.5E1,6.2E1,1.8E1,5.1E1,2.6E1,4E0],"tree_param":{"num_deleted":"0","num_feature":"7","num_nodes":"13","size_leaf_vector":"1"}},{"base_weights":[-2.905085E0,-9.3632416E1,2.1353409E2,-1.4625262E2,-5.864416E-1,1.3042252E2,1.723239E1,-1.0343587E1,-5.483712E0,-2.0175571E0,9.6626157E-1,6.8691063E0,1.1288356E0],"categories":[],"categories_nodes":[],"categories_segments":[],"categories_sizes":[],"default_left":[0,0,0,0,0,0,0,0,0,0,0,0,0],"id":1,"left_children":[1,3,5,7,9,11,-1,-1,-1,-1,-1,-1,-1],"loss_changes":[4.320842E6,7.5872375E5,6.1840975E5,1.7414075E5,4.7482934E4,2.6071E4,0E0,0E0,0E0,0E0,0E0,0E0,0E0],"parents":[2147483647,0,0,1,1,2,2,3,3,4,4,5,5],"right_children":[2,4,6,8,10,12,-1,-1,-1,-1,-1,-1,-1],"split_conditions":[1.0123333E3,8.86E2,1.2063334E3,7.803333E2,9.266667E2,1.34E3,1.723239E1,-1.0343587E1,-5.483712E0,-2.0175571E0,9.6626157E-1,6.8691063E0,1.1288356E0],"split_indices":[5,5,5,5,5,2,0,0,0,0,0,0,0],"split_type":[0,0,0,0,0,0,0,0,0,0,0,0,0],"sum_hessian":[2.16E2,1.53E2,6.3E1,9.7E1,5.6E1,4.1E1,2.2E1,3.3E1,6.4E1,1.8E1,3.8E1,3.8E1,3E0],"tree_param":{"num_deleted":"0","num_feature":"7","num_nodes":"13","size_leaf_vector":"1"}},{"base_weights":[1.0731754E0,-9.6789764E1,2.0669608E2,-1.5606247E2,-1.6895792E1,1.2200715E2,1.5432894E1,-1.0225774E1,-5.9655523E0,-2.7295074E0,3.4563786E-1,9.483619E0,4.845944E0],"categories":[],"categories_nodes":[],"categories_segments":[],"categories_sizes":[],"default_left":[0,0,0,0,0,0,0,0,0,0,0,0,0],"id":2,"left_children":[1,3,5,7,9,11,-1,-1,-1,-1,-1,-1,-1],"loss_changes":[4.306059E6,6.813785E5,5.2050025E5,9.8997625E4,5.8191406E4,3.2836062E4,0E0,0E0,0E0,0E0,0E0,0E0,0E0],"parents":[2147483647,0,0,1,1,2,2,3,3,4,4,5,5],"right_children":[2,4,6,8,10,12,-1,-1,-1,-1,-1,-1,-1],"split_conditions":[1.0126667E3,8.676667E2,1.2063334E3,7.786667E2,9.26E2,9.91E2,1.5432894E1,-1.0225774E1,-5.9655523E0,-2.7295074E0,3.4563786E-1,9.483619E0,4.845944E0],"split_indices":[5,5,5,5,5,1,0,0,0,0,0,0,0],"split_type":[0,0,0,0,0,0,0,0,0,0,0,0,0],"sum_hessian":[2.1E2,1.43E2,6.7E1,8.1E1,6.2E1,3.9E1,2.8E1,3.1E1,5E1,2.3E1,3.9E1,7E0,3.2E1],"tree_param":{"num_deleted":"0","num_feature":"7","num_nodes":"13","size_leaf_vector":"1"}},{"base_weights":[1.9235404E0,-7.800874E1,2.2810735E2,-1.3969714E2,9.336053E0,1.1829908E2,1.5372665E1,-9.430944E0,-5.0482593E0,-1.8041531E0,1.1930499E0,8.177687E0,3.749249E0],"categories":[],"categories_nodes":[],"categories_segments":[],"categories_sizes":[],"default_left":[0,0,0,0,0,0,0,0,0,0,0,0,0],"id":3,"left_children":[1,3,5,7,9,11,-1,-1,-1,-1,-1,-1,-1],"loss_changes":[4.0853715E6,9.024313E5,4.4131475E5,1.47606E5,4.8561375E4,3.0356469E4,0E0,0E0,0E0,0E0,0E0,0E0,0E0],"parents":[2147483647,0,0,1,1,2,2,3,3,4,4,5,5],"right_children":[2,4,6,8,10,12,-1,-1,-1,-1,-1,-1,-1],"split_conditions":[1.0416666E3,8.86E2,1.195E3,7.803333E2,9.266667E2,1.001E3,1.5372665E1,-9.430944E0,-5.0482593E0,-1.8041531E0,1.1930499E0,8.177687E0,3.749249E0],"split_indices":[5,5,5,5,5,2,0,0,0,0,0,0,0],"split_type":[0,0,0,0,0,0,0,0,0,0,0,0,0],"sum_hessian":[2.22E2,1.65E2,5.7E1,9.6E1,6.9E1,2.6E1,3.1E1,3.9E1,5.7E1,1.6E1,5.3E1,1E1,1.6E1],"tree_param":{"num_deleted":"0","num_feature":"7","num_nodes":"13","size_leaf_vector":"1"}},{"base_weights":[1.0455731E0,-5.9353794E1,2.6318622E2,-1.2830293E2,2.087363E1,7.9533153E0,1.615167E1,-9.089848E0,-4.9535956E0,-4.8222238E-1,2.8105347E0],"categories":[],"categories_nodes":[],"categories_segments":[],"categories_sizes":[],"default_left":[0,0,0,0,0,0,0,0,0,0,0],"id":4,"left_children":[1,3,5,7,9,-1,-1,-1,-1,-1,-1],"loss_changes":[3.7203612E6,1.061894E6,1.71409E5,1.2503775E5,9.814197E4,0E0,0E0,0E0,0E0,0E0,0E0],"parents":[2147483647,0,0,1,1,2,2,3,3,4,4],"right_children":[2,4,6,8,10,-1,-1,-1,-1,-1,-1],"split_conditions":[1.1233334E3,8.91E2,1.2216666E3,7.803333E2,9.843333E2,7.9533153E0,1.615167E1,-9.089848E0,-4.9535956E0,-4.8222238E-1,2.8105347E0],"split_indices":[5,5,5,5,5,0,0,0,0,0,0],"split_type":[0,0,0,0,0,0,0,0,0,0,0],"sum_hessian":[2.31E2,1.89E2,4.2E1,1.01E2,8.8E1,1.8E1,2.4E1,3.2E1,6.9E1,4.8E1,4E1],"tree_param":{"num_deleted":"0","num_feature":"7","num_nodes":"11","size_leaf_vector":"1"}},{"base_weights":[8.010852E0,-7.2263954E1,1.7891212E2,-1.3555711E2,-1.3177971E1,1.0292127E2,1.3102439E1,-9.332549E0,-5.700363E0,-2.6182892E0,7.22945E-1,3.6633756E0,8.004056E0],"categories":[],"categories_nodes":[],"categories_segments":[],"categories_sizes":[],"default_left":[0,0,0,0,0,0,0,0,0,0,0,0,0],"id":5,"left_children":[1,3,5,7,9,11,-1,-1,-1,-1,-1,-1,-1],"loss_changes":[3.2635575E6,6.0226494E5,4.2619875E5,4.3323875E4,9.4654766E4,4.9427656E4,0E0,0E0,0E0,0E0,0E0,0E0,0E0],"parents":[2147483647,0,0,1,1,2,2,3,3,4,4,5,5],"right_children":[2,4,6,8,10,12,-1,-1,-1,-1,-1,-1,-1],"split_conditions":[1.0076E3,8.46E2,1.195E3,7.458E2,9.01E2,1.1292E3,1.3102439E1,-9.332549E0,-5.700363E0,-2.6182892E0,7.22945E-1,3.6633756E0,8.004056E0],"split_indices":[6,0,0,6,0,6,0,0,0,0,0,0,0],"split_type":[0,0,0,0,0,0,0,0,0,0,0,0,0],"sum_hessian":[2.34E2,1.6E2,7.4E1,7.6E1,8.4E1,4.1E1,3.3E1,1.8E1,5.8E1,3.4E1,5E1,3E1,1.1E1],"tree_param":{"num_deleted":"0","num_feature":"7","num_nodes":"13","size_leaf_vector":"1"}},{"base_weights":[-2.3439662E0,-7.5108894E1,1.746029E2,-1.3595554E2,-1.5398463E1,1.0567486E2,1.456412E1,-9.928648E0,-5.5275607E0,-2.3992105E0,4.8412234E-1,8.3471365E0,3.891737E0],"categories":[],"categories_nodes":[],"categories_segments":[],"categories_sizes":[],"default_left":[0,0,0,0,0,0,0,0,0,0,0,0,0],"id":6,"left_children":[1,3,5,7,9,11,-1,-1,-1,-1,-1,-1,-1],"loss_changes":[2.8717198E6,5.698553E5,4.6119938E5,8.017375E4,6.794617E4,4.9063156E4,0E0,0E0,0E0,0E0,0E0,0E0,0E0],"parents":[2147483647,0,0,1,1,2,2,3,3,4,4,5,5],"right_children":[2,4,6,8,10,12,-1,-1,-1,-1,-1,-1,-1],"split_conditions":[1.0166667E3,8.493333E2,1.25E3,7.456667E2,9.266667E2,9.61E2,1.456412E1,-9.928648E0,-5.5275607E0,-2.3992105E0,4.8412234E-1,8.3471365E0,3.891737E0],"split_indices":[5,5,5,5,5,3,0,0,0,0,0,0,0],"split_type":[0,0,0,0,0,0,0,0,0,0,0,0,0],"sum_hessian":[2.19E2,1.56E2,6.3E1,7.6E1,8E1,4.2E1,2.1E1,1.8E1,5.8E1,3.4E1,4.6E1,1E1,3.2E1],"tree_param":{"num_deleted":"0","num_feature":"7","num_nodes":"13","size_leaf_vector":"1"}},{"base_weights":[6.8613715E0,-6.2653404E1,1.8260623E2,-1.089693E2,6.2711954E0,1.0664328E2,1.3079401E1,-9.715561E0,-4.7912493E0,-1.4769148E0,8.868472E-1,7.254894E0,3.9057717E0],"categories":[],"categories_nodes":[],"categories_segments":[],"categories_sizes":[],"default_left":[0,0,0,0,0,0,0,0,0,0,0,0,0],"id":7,"left_children":[1,3,5,7,9,11,-1,-1,-1,-1,-1,-1,-1],"loss_changes":[2.7594595E6,5.1852012E5,3.28187E5,7.1571125E4,2.8556873E4,1.6824188E4,0E0,0E0,0E0,0E0,0E0,0E0,0E0],"parents":[2147483647,0,0,1,1,2,2,3,3,4,4,5,5],"right_children":[2,4,6,8,10,12,-1,-1,-1,-1,-1,-1,-1],"split_conditions":[1.0416666E3,8.86E2,1.2033334E3,7.12E2,9.266667E2,9.56E2,1.3079401E1,-9.715561E0,-4.7912493E0,-1.4769148E0,8.868472E-1,7.254894E0,3.9057717E0],"split_indices":[5,5,5,5,5,3,0,0,0,0,0,0,0],"split_type":[0,0,0,0,0,0,0,0,0,0,0,0,0],"sum_hessian":[2.22E2,1.6E2,6.2E1,9.5E1,6.5E1,3.4E1,2.8E1,9E0,8.6E1,1.5E1,5E1,1.1E1,2.3E1],"tree_param":{"num_deleted":"0","num_feature":"7","num_nodes":"13","size_leaf_vector":"1"}},{"base_weights":[-1.8667786E0,-6.978458E1,1.4550047E2,-1.1937921E2,-1.574326E1,8.378236E1,2.2910722E2,-8.483761E0,-4.847902E0,-2.1793067E0,4.4358698E-1,2.751664E0,6.1484084E0,7.752393E0,1.3877812E1],"categories":[],"categories_nodes":[],"categories_segments":[],"categories_sizes":[],"default_left":[0,0,0,0,0,0,0,0,0,0,0,0,0,0,0],"id":8,"left_children":[1,3,5,7,9,11,13,-1,-1,-1,-1,-1,-1,-1,-1],"loss_changes":[2.252283E6,4.0898575E5,3.2797312E5,5.7312875E4,5.286015E4,3.6033812E4,1.7986125E4,0E0,0E0,0E0,0E0,0E0,0E0,0E0,0E0],"parents":[2147483647,0,0,1,1,2,2,3,3,4,4,5,5,6,6],"right_children":[2,4,6,8,10,12,14,-1,-1,-1,-1,-1,-1,-1,-1],"split_conditions":[1.0126667E3,8.493333E2,1.2063334E3,7.466667E2,9.266667E2,1.1233334E3,1.3146666E3,-8.483761E0,-4.847902E0,-2.1793067E0,4.4358698E-1,2.751664E0,6.1484084E0,7.752393E0,1.3877812E1],"split_indices":[5,5,5,5,5,5,5,0,0,0,0,0,0,0,0],"split_type":[0,0,0,0,0,0,0,0,0,0,0,0,0,0,0],"sum_hessian":[2.21E2,1.52E2,6.9E1,7.8E1,7.4E1,4.2E1,2.7E1,2E1,5.8E1,3.4E1,4E1,2.7E1,1.5E1,1.4E1,1.3E1],"tree_param":{"num_deleted":"0","num_feature":"7","num_nodes":"15","size_leaf_vector":"1"}},{"base_weights":[-3.487046E-1,-5.668808E1,1.7371217E2,-1.080551E2,-3.427456E0,1.1230613E2,2.4087117E2,-8.875014E0,-4.7300296E0,-1.9786625E0,7.07863E-1,7.658452E0,3.8975112E0,1.4055101E1,6.9279413E0],"categories":[],"categories_nodes":[],"categories_segments":[],"categories_sizes":[],"default_left":[0,0,0,0,0,0,0,0,0,0,0,0,0,0,0],"id":9,"left_children":[1,3,5,7,9,11,13,-1,-1,-1,-1,-1,-1,-1,-1],"loss_changes":[2.245766E6,4.725595E5,1.7683975E5,4.8639625E4,5.641887E4,2.2448969E4,2.50045E4,0E0,0E0,0E0,0E0,0E0,0E0,0E0,0E0],"parents":[2147483647,0,0,1,1,2,2,3,3,4,4,5,5,6,6],"right_children":[2,4,6,8,10,12,14,-1,-1,-1,-1,-1,-1,-1,-1],"split_conditions":[1.054E3,8.676667E2,1.2216666E3,7.12E2,9.266667E2,1.021E3,1.2E3,-8.875014E0,-4.7300296E0,-1.9786625E0,7.07863E-1,7.658452E0,3.8975112E0,1.4055101E1,6.9279413E0],"split_indices":[5,5,5,5,5,2,4,0,0,0,0,0,0,0,0],"split_type":[0,0,0,0,0,0,0,0,0,0,0,0,0,0,0],"sum_hessian":[2.25E2,1.71E2,5.4E1,8.6E1,8.5E1,3.1E1,2.3E1,1E1,7.6E1,2.7E1,5.8E1,1.1E1,2E1,1.4E1,9E0],"tree_param":{"num_deleted":"0","num_feature":"7","num_nodes":"15","size_leaf_vector":"1"}},{"base_weights":[-1.1217208E0,-5.9282444E1,1.4516838E2,-1.0960552E2,-1.2633464E1,5.7382523E1,2.0017944E2,-8.659167E0,-4.6303644E0,-1.9264727E0,5.0712126E-1,5.6050315E0,1.293064E0,1.0452914E1,2.631424E0],"categories":[],"categories_nodes":[],"categories_segments":[],"categories_sizes":[],"default_left":[0,0,0,0,0,0,0,0,0,0,0,0,0,0,0],"id":10,"left_children":[1,3,5,7,9,11,13,-1,-1,-1,-1,-1,-1,-1,-1],"loss_changes":[2.033688E6,3.9865656E5,3.0541138E5,5.6542188E4,5.4453742E4,4.422058E4,3.17085E4,0E0,0E0,0E0,0E0,0E0,0E0,0E0,0E0],"parents":[2147483647,0,0,1,1,2,2,3,3,4,4,5,5,6,6],"right_children":[2,4,6,8,10,12,14,-1,-1,-1,-1,-1,-1,-1,-1],"split_conditions":[1.0166667E3,8.493333E2,1.1266666E3,7.12E2,9.266667E2,1.021E3,1.499E3,-8.659167E0,-4.6303644E0,-1.9264727E0,5.0712126E-1,5.6050315E0,1.293064E0,1.0452914E1,2.631424E0],"split_indices":[5,5,5,5,5,2,4,0,0,0,0,0,0,0,0],"split_type":[0,0,0,0,0,0,0,0,0,0,0,0,0,0,0],"sum_hessian":[2.35E2,1.69E2,6.6E1,8E1,8.9E1,2.7E1,3.9E1,1.3E1,6.7E1,4.1E1,4.8E1,8E0,1.9E1,3.6E1,3E0],"tree_param":{"num_deleted":"0","num_feature":"7","num_nodes":"15","size_leaf_vector":"1"}},{"base_weights":[-3.184675E0,-6.0345493E1,1.3234048E2,-1.0851639E2,-1.186638E1,7.247232E1,1.1428796E1,-7.3461123E0,-4.443349E0,2.8792694E0,-9.0577143E-1,4.6733456E0,1.646398E0],"categories":[],"categories_nodes":[],"categories_segments":[],"categories_sizes":[],"default_left":[0,0,0,0,0,0,0,0,0,0,0,0,0],"id":11,"left_children":[1,3,5,7,9,11,-1,-1,-1,-1,-1,-1,-1],"loss_changes":[1.6970126E6,3.5705806E5,3.4136262E5,3.199525E4,3.6372957E4,2.9544031E4,0E0,0E0,0E0,0E0,0E0,0E0,0E0],"parents":[2147483647,0,0,1,1,2,2,3,3,4,4,5,5],"right_children":[2,4,6,8,10,12,-1,-1,-1,-1,-1,-1,-1],"split_conditions":[1.0006667E3,8.493333E2,1.25E3,7.456667E2,8.09E2,1.16E3,1.1428796E1,-7.3461123E0,-4.443349E0,2.8792694E0,-9.0577143E-1,4.6733456E0,1.646398E0],"split_indices":[5,5,5,5,1,1,0,0,0,0,0,0,0],"split_type":[0,0,0,0,0,0,0,0,0,0,0,0,0],"sum_hessian":[2.15E2,1.52E2,6.3E1,7.5E1,7.7E1,4.1E1,2.2E1,2.1E1,5.4E1,5E0,7.2E1,2.5E1,1.6E1],"tree_param":{"num_deleted":"0","num_feature":"7","num_nodes":"13","size_leaf_vector":"1"}},{"base_weights":[3.6508093E0,-5.016174E1,1.1640627E2,-8.7233055E1,-7.0631323E0,7.304149E1,1.8751001E2,-6.546136E0,-3.622514E0,3.5305507E0,-8.132073E-1,6.902393E0,1.7563304E0,1.3376216E1,5.683801E0],"categories":[],"categories_nodes":[],"categories_segments":[],"categories_sizes":[],"default_left":[0,0,0,0,0,0,0,0,0,0,0,0,0,0,0],"id":12,"left_children":[1,3,5,7,9,11,13,-1,-1,-1,-1,-1,-1,-1,-1],"loss_changes":[1.3526309E6,2.4002372E5,1.9461262E5,3.3343438E4,5.375388E4,1.086077E5,9.278E4,0E0,0E0,0E0,0E0,0E0,0E0,0E0,0E0],"parents":[2147483647,0,0,1,1,2,2,3,3,4,4,5,5,6,6],"right_children":[2,4,6,8,10,12,14,-1,-1,-1,-1,-1,-1,-1,-1],"split_conditions":[1.024E3,8.634E2,1.1948E3,7.458E2,8.09E2,1.035E3,1.2E3,-6.546136E0,-3.622514E0,3.5305507E0,-8.132073E-1,6.902393E0,1.7563304E0,1.3376216E1,5.683801E0],"split_indices":[6,6,6,6,3,2,3,0,0,0,0,0,0,0,0],"split_type":[0,0,0,0,0,0,0,0,0,0,0,0,0,0,0],"sum_hessian":[2.19E2,1.49E2,7E1,7.9E1,7E1,4.6E1,2.4E1,1.6E1,6.3E1,6E0,6.4E1,1.5E1,3.1E1,9E0,1.5E1],"tree_param":{"num_deleted":"0","num_feature":"7","num_nodes":"15","size_leaf_vector":"1"}},{"base_weights":[4.0944104E0,-5.959385E1,9.882817E1,-9.9967834E1,-1.6235754E1,4.3536522E1,1.5723827E2,-6.730709E0,-4.2679067E0,-1.2852212E0,4.2930314E-1,3.7123723E0,8.6180305E-1,1.0080094E1,5.458416E0],"categories":[],"categories_nodes":[],"categories_segments":[],"categories_sizes":[],"default_left":[0,0,0,0,0,0,0,0,0,0,0,0,0,0,0],"id":13,"left_children":[1,3,5,7,9,11,13,-1,-1,-1,-1,-1,-1,-1,-1],"loss_changes":[1.3512001E6,2.3132616E5,2.7697206E5,1.19450625E4,1.6188381E4,3.70184E4,4.7682875E4,0E0,0E0,0E0,0E0,0E0,0E0,0E0,0E0],"parents":[2147483647,0,0,1,1,2,2,3,3,4,4,5,5,6,6],"right_children":[2,4,6,8,10,12,14,-1,-1,-1,-1,-1,-1,-1,-1],"split_conditions":[9.66E2,8.4E2,1.1204E3,7.482E2,9.51E2,9.91E2,1.215E3,-6.730709E0,-4.2679067E0,-1.2852212E0,4.2930314E-1,3.7123723E0,8.6180305E-1,1.0080094E1,5.458416E0],"split_indices":[0,0,6,6,6,1,3,0,0,0,0,0,0,0,0],"split_type":[0,0,0,0,0,0,0,0,0,0,0,0,0,0,0],"sum_hessian":[2.2E2,1.32E2,8.8E1,6.7E1,6.5E1,4.7E1,4.1E1,1.5E1,5.2E1,4.7E1,1.8E1,2E1,2.7E1,1.8E1,2.3E1],"tree_param":{"num_deleted":"0","num_feature":"7","num_nodes":"15","size_leaf_vector":"1"}},{"base_weights":[3.9066155E0,-5.411198E1,1.0882872E2,-9.282588E1,-9.902122E0,4.284574E1,1.5936765E2,-5.59794E0,-3.0554867E0,1.4687287E0,-1.095013E0,4.6392384E0,5.7261133E-1,1.009913E1,4.9195323E0],"categories":[],"categories_nodes":[],"categories_segments":[],"categories_sizes":[],"default_left":[0,0,0,0,0,0,0,0,0,0,0,0,0,0,0],"id":14,"left_children":[1,3,5,7,9,11,13,-1,-1,-1,-1,-1,-1,-1,-1],"loss_changes":[1.3510131E6,2.4291128E5,2.4978556E5,3.2434938E4,3.3802684E4,5.5881984E4,7.4589E4,0E0,0E0,0E0,0E0,0E0,0E0,0E0,0E0],"parents":[2147483647,0,0,1,1,2,2,3,3,4,4,5,5,6,6],"right_children":[2,4,6,8,10,12,14,-1,-1,-1,-1,-1,-1,-1,-1],"split_conditions":[1.0076E3,8.41E2,1.1204E3,7.82E2,8.36E2,1.021E3,1.205E3,-5.59794E0,-3.0554867E0,1.4687287E0,-1.095013E0,4.6392384E0,5.7261133E-1,1.009913E1,4.9195323E0],"split_indices":[6,0,6,0,4,2,4,0,0,0,0,0,0,0,0],"split_type":[0,0,0,0,0,0,0,0,0,0,0,0,0,0,0],"sum_hessian":[2.18E2,1.41E2,7.7E1,7.4E1,6.7E1,3.5E1,4.2E1,4.3E1,3.1E1,1.5E1,5.2E1,1.2E1,2.3E1,2.2E1,2E1],"tree_param":{"num_deleted":"0","num_feature":"7","num_nodes":"15","size_leaf_vector":"1"}},{"base_weights":[6.635433E-1,-4.52286E1,1.4437616E2,-7.156361E1,1.204266E1,8.824633E1,2.0991537E2,-5.4993844E0,-2.587789E0,2.4242918E0,-9.388279E-2,5.593227E0,2.5322533E0,1.1140621E1,3.718052E0],"categories":[],"categories_nodes":[],"categories_segments":[],"categories_sizes":[],"default_left":[0,0,0,0,0,0,0,0,0,0,0,0,0,0,0],"id":15,"left_children":[1,3,5,7,9,11,13,-1,-1,-1,-1,-1,-1,-1,-1],"loss_changes":[1.4442355E6,2.5209131E5,1.5792288E5,7.5380125E4,2.7576309E4,1.7087594E4,7.072625E3,0E0,0E0,0E0,0E0,0E0,0E0,0E0,0E0],"parents":[2147483647,0,0,1,1,2,2,3,3,4,4,5,5,6,6],"right_children":[2,4,6,8,10,12,14,-1,-1,-1,-1,-1,-1,-1,-1],"split_conditions":[1.054E3,9.266667E2,1.2216666E3,7.803333E2,9.26E2,1.16E3,1.419E3,-5.4993844E0,-2.587789E0,2.4242918E0,-9.388279E-2,5.593227E0,2.5322533E0,1.1140621E1,3.718052E0],"split_indices":[5,5,5,5,3,1,2,0,0,0,0,0,0,0,0],"split_type":[0,0,0,0,0,0,0,0,0,0,0,0,0,0,0],"sum_hessian":[2.15E2,1.64E2,5.1E1,1.12E2,5.2E1,3E1,2.1E1,3.5E1,7.7E1,1.3E1,3.9E1,1.6E1,1.4E1,1.8E1,3E0],"tree_param":{"num_deleted":"0","num_feature":"7","num_nodes":"15","size_leaf_vector":"1"}},{"base_weights":[-1.8377343E0,-5.2632103E1,8.660539E1,-8.5487656E1,-1.9203314E1,6.2753292E1,9.718838E0,-6.6397376E0,-3.572626E0,1.0553068E0,-1.2976635E0,5.3118973E0,2.0326812E0],"categories":[],"categories_nodes":[],"categories_segments":[],"categories_sizes":[],"default_left":[0,0,0,0,0,0,0,0,0,0,0,0,0],"id":16,"left_children":[1,3,5,7,9,11,-1,-1,-1,-1,-1,-1,-1],"loss_changes":[9.480306E5,1.4389178E5,1.7353856E5,2.5508406E4,1.9869545E4,5.478786E4,0E0,0E0,0E0,0E0,0E0,0E0,0E0],"parents":[2147483647,0,0,1,1,2,2,3,3,4,4,5,5],"right_children":[2,4,6,8,10,12,-1,-1,-1,-1,-1,-1,-1],"split_conditions":[9.843333E2,8.4E2,1.3146666E3,7.12E2,7.92E2,9.61E2,9.718838E0,-6.6397376E0,-3.572626E0,1.0553068E0,-1.2976635E0,5.3118973E0,2.0326812E0],"split_indices":[5,0,5,5,3,3,0,0,0,0,0,0,0],"split_type":[0,0,0,0,0,0,0,0,0,0,0,0,0],"sum_hessian":[2.07E2,1.32E2,7.5E1,6.5E1,6.7E1,6.4E1,1.1E1,1.1E1,5.4E1,9E0,5.8E1,1.9E1,4.5E1],"tree_param":{"num_deleted":"0","num_feature":"7","num_nodes":"13","size_leaf_vector":"1"}},{"base_weights":[2.2380002E0,-4.125857E1,9.81205E1,-8.4396126E1,-3.427526E0,5.4963345E1,1.49122E2,-5.983472E0,-3.4283109E0,1.8734592E0,-8.050319E-1,6.800129E0,7.422419E-1,1.0245219E1,4.1179237E0],"categories":[],"categories_nodes":[],"categories_segments":[],"categories_sizes":[],"default_left":[0,0,0,0,0,0,0,0,0,0,0,0,0,0,0],"id":17,"left_children":[1,3,5,7,9,11,13,-1,-1,-1,-1,-1,-1,-1,-1],"loss_changes":[9.089376E5,2.442123E5,1.3328088E5,2.2675562E4,4.3706215E4,1.2600904E5,7.7975625E4,0E0,0E0,0E0,0E0,0E0,0E0,0E0,0E0],"parents":[2147483647,0,0,1,1,2,2,3,3,4,4,5,5,6,6],"right_children":[2,4,6,8,10,12,14,-1,-1,-1,-1,-1,-1,-1,-1],"split_conditions":[1.024E3,8.51E2,1.188E3,7.482E2,8.55E2,1.035E3,1.215E3,-5.983472E0,-3.4283109E0,1.8734592E0,-8.050319E-1,6.800129E0,7.422419E-1,1.0245219E1,4.1179237E0],"split_indices":[6,0,6,6,4,2,3,0,0,0,0,0,0,0,0],"split_type":[0,0,0,0,0,0,0,0,0,0,0,0,0,0,0],"sum_hessian":[2.14E2,1.48E2,6.6E1,6.8E1,8E1,3.8E1,2.8E1,1.7E1,5.1E1,1.8E1,6.2E1,1.1E1,2.7E1,1.3E1,1.5E1],"tree_param":{"num_deleted":"0","num_feature":"7","num_nodes":"15","size_leaf_vector":"1"}},{"base_weights":[5.2379727E0,-3.4272587E1,1.2428813E2,-6.678451E1,4.457052E0,8.075725E1,1.7559953E2,-4.8871837E0,-2.3507414E0,9.3307877E-1,-6.337868E-1,5.773363E0,1.3637537E0,1.2403907E1,6.520636E0],"categories":[],"categories_nodes":[],"categories_segments":[],"categories_sizes":[],"default_left":[0,0,0,0,0,0,0,0,0,0,0,0,0,0,0],"id":18,"left_children":[1,3,5,7,9,11,13,-1,-1,-1,-1,-1,-1,-1,-1],"loss_changes":[1.0574531E6,2.1339589E5,9.672144E4,4.7118062E4,1.9698781E4,5.6817734E4,1.389675E4,0E0,0E0,0E0,0E0,0E0,0E0,0E0,0E0],"parents":[2147483647,0,0,1,1,2,2,3,3,4,4,5,5,6,6],"right_children":[2,4,6,8,10,12,14,-1,-1,-1,-1,-1,-1,-1,-1],"split_conditions":[1.054E3,8.86E2,1.25E3,7.803333E2,9.76E2,1.16E3,1.225E3,-4.8871837E0,-2.3507414E0,9.3307877E-1,-6.337868E-1,5.773363E0,1.3637537E0,1.2403907E1,6.520636E0],"split_indices":[5,5,5,5,1,1,1,0,0,0,0,0,0,0,0],"split_type":[0,0,0,0,0,0,0,0,0,0,0,0,0,0,0],"sum_hessian":[2.21E2,1.67E2,5.4E1,9E1,7.7E1,3.2E1,2.2E1,3.2E1,5.8E1,4.2E1,3.5E1,1.8E1,1.4E1,5E0,1.7E1],"tree_param":{"num_deleted":"0","num_feature":"7","num_nodes":"15","size_leaf_vector":"1"}},{"base_weights":[4.136078E0,-3.9841667E1,1.092908E2,-7.6912796E1,-3.6071444E0,5.418261E1,1.6801408E2,-6.691439E0,-3.1254508E0,2.9739075E0,-4.6242395E-1,5.578385E0,1.23323E0,1.1677135E1,6.245672E0],"categories":[],"categories_nodes":[],"categories_segments":[],"categories_sizes":[],"default_left":[0,0,0,0,0,0,0,0,0,0,0,0,0,0,0],"id":19,"left_children":[1,3,5,7,9,11,13,-1,-1,-1,-1,-1,-1,-1,-1],"loss_changes":[1.03534044E6,2.1167934E5,1.9537794E5,4.721378E4,3.0282754E4,5.7170523E4,2.9208875E4,0E0,0E0,0E0,0E0,0E0,0E0,0E0,0E0],"parents":[2147483647,0,0,1,1,2,2,3,3,4,4,5,5,6,6],"right_children":[2,4,6,8,10,12,14,-1,-1,-1,-1,-1,-1,-1,-1],"split_conditions":[1.0166667E3,8.493333E2,1.2033334E3,7.19E2,8.09E2,1.02E3,1.205E3,-6.691439E0,-3.1254508E0,2.9739075E0,-4.6242395E-1,5.578385E0,1.23323E0,1.1677135E1,6.245672E0],"split_indices":[5,5,5,5,1,1,1,0,0,0,0,0,0,0,0],"split_type":[0,0,0,0,0,0,0,0,0,0,0,0,0,0,0],"sum_hessian":[2.2E2,1.56E2,6.4E1,7.6E1,8E1,3.5E1,2.9E1,1.2E1,6.4E1,5E0,7.5E1,1E1,2.5E1,8E0,2.1E1],"tree_param":{"num_deleted":"0","num_feature":"7","num_nodes":"15","size_leaf_vector":"1"}},{"base_weights":[-1.8209055E-1,-4.1235302E1,9.84736E1,-7.3284164E1,-1.2983764E1,5.035085E1,1.5110963E2,-5.770192E0,-3.036496E0,-1.4395256E0,3.270292E-1,5.348719E0,1.1243567E0,1.1595945E1,5.6580954E0],"categories":[],"categories_nodes":[],"categories_segments":[],"categories_sizes":[],"default_left":[0,0,0,0,0,0,0,0,0,0,0,0,0,0,0],"id":20,"left_children":[1,3,5,7,9,11,13,-1,-1,-1,-1,-1,-1,-1,-1],"loss_changes":[9.234512E5,1.4387116E5,1.5449344E5,2.5641656E4,2.753486E4,5.51431E4,4.2573562E4,0E0,0E0,0E0,0E0,0E0,0E0,0E0,0E0],"parents":[2147483647,0,0,1,1,2,2,3,3,4,4,5,5,6,6],"right_children":[2,4,6,8,10,12,14,-1,-1,-1,-1,-1,-1,-1,-1],"split_conditions":[1.0126667E3,8.416667E2,1.1783334E3,7.12E2,9.266667E2,1.02E3,1.145E3,-5.770192E0,-3.036496E0,-1.4395256E0,3.270292E-1,5.348719E0,1.1243567E0,1.1595945E1,5.6580954E0],"split_indices":[5,5,5,5,5,1,1,0,0,0,0,0,0,0,0],"split_type":[0,0,0,0,0,0,0,0,0,0,0,0,0,0,0],"sum_hessian":[2.24E2,1.59E2,6.5E1,7.3E1,8.6E1,3.6E1,2.9E1,1.3E1,6E1,4.7E1,3.9E1,1E1,2.6E1,6E0,2.3E1],"tree_param":{"num_deleted":"0","num_feature":"7","num_nodes":"15","size_leaf_vector":"1"}},{"base_weights":[5.3265314E0,-2.9924406E1,1.10882065E2,-6.75557E1,1.6818699E0,6.2724976E1,1.703351E2,-5.714424E0,-2.7883904E0,2.7542634E0,-1.7221062E-1,6.196244E0,1.2670124E0,1.1068874E1,5.2948394E0],"categories":[],"categories_nodes":[],"categories_segments":[],"categories_sizes":[],"default_left":[0,0,0,0,0,0,0,0,0,0,0,0,0,0,0],"id":21,"left_children":[1,3,5,7,9,11,13,-1,-1,-1,-1,-1,-1,-1,-1],"loss_changes":[8.029155E5,1.9290766E5,1.3323806E5,2.8017969E4,2.5016969E4,6.9221516E4,2.8762688E4,0E0,0E0,0E0,0E0,0E0,0E0,0E0,0E0],"parents":[2147483647,0,0,1,1,2,2,3,3,4,4,5,5,6,6],"right_children":[2,4,6,8,10,12,14,-1,-1,-1,-1,-1,-1,-1,-1],"split_conditions":[1.054E3,8.493333E2,1.25E3,7.12E2,8.09E2,1.021E3,1.2E3,-5.714424E0,-2.7883904E0,2.7542634E0,-1.7221062E-1,6.196244E0,1.2670124E0,1.1068874E1,5.2948394E0],"split_indices":[5,5,5,5,2,2,3,0,0,0,0,0,0,0,0],"split_type":[0,0,0,0,0,0,0,0,0,0,0,0,0,0,0],"sum_hessian":[2.12E2,1.6E2,5.2E1,7.2E1,8.8E1,3.1E1,2.1E1,1.1E1,6.1E1,6E0,8.2E1,1E1,2.1E1,9E0,1.2E1],"tree_param":{"num_deleted":"0","num_feature":"7","num_nodes":"15","size_leaf_vector":"1"}},{"base_weights":[3.3530717E0,-2.5572664E1,1.2416283E2,-5.6233234E1,1.3092207E1,7.423088E1,7.6510515E0,-4.643587E0,-2.229252E0,1.0172724E0,-1.9041357E0,4.1133337E0,1.4029236E0],"categories":[],"categories_nodes":[],"categories_segments":[],"categories_sizes":[],"default_left":[0,0,0,0,0,0,0,0,0,0,0,0,0],"id":22,"left_children":[1,3,5,7,9,11,-1,-1,-1,-1,-1,-1,-1],"loss_changes":[7.961099E5,2.1960206E5,4.0683812E4,3.5676156E4,3.235789E4,2.804086E3,0E0,0E0,0E0,0E0,0E0,0E0,0E0],"parents":[2147483647,0,0,1,1,2,2,3,3,4,4,5,5],"right_children":[2,4,6,8,10,12,-1,-1,-1,-1,-1,-1,-1],"split_conditions":[1.1233334E3,8.91E2,1.2216666E3,7.456667E2,1.165E3,1.25E3,7.6510515E0,-4.643587E0,-2.229252E0,1.0172724E0,-1.9041357E0,4.1133337E0,1.4029236E0],"split_indices":[5,5,5,5,2,2,0,0,0,0,0,0,0],"split_type":[0,0,0,0,0,0,0,0,0,0,0,0,0],"sum_hessian":[2.24E2,1.82E2,4.2E1,1.01E2,8.1E1,1.8E1,2.4E1,2.1E1,8E1,7.2E1,9E0,1.4E1,4E0],"tree_param":{"num_deleted":"0","num_feature":"7","num_nodes":"13","size_leaf_vector":"1"}},{"base_weights":[-5.219164E0,-4.008442E1,6.751997E1,-6.91036E1,-1.7409025E1,4.3882244E1,7.0111403E0,-5.204635E0,-2.8296669E0,-1.5691297E0,1.774099E-1,3.848227E0,8.0013555E-1],"categories":[],"categories_nodes":[],"categories_segments":[],"categories_sizes":[],"default_left":[0,0,0,0,0,0,0,0,0,0,0,0,0],"id":23,"left_children":[1,3,5,7,9,11,-1,-1,-1,-1,-1,-1,-1],"loss_changes":[5.7095625E5,9.76132E4,1.13146125E5,1.7107781E4,2.5993258E4,5.103121E4,0E0,0E0,0E0,0E0,0E0,0E0,0E0],"parents":[2147483647,0,0,1,1,2,2,3,3,4,4,5,5],"right_children":[2,4,6,8,10,12,-1,-1,-1,-1,-1,-1,-1],"split_conditions":[9.966667E2,8.156667E2,1.291E3,7.12E2,9.266667E2,1.035E3,7.0111403E0,-5.204635E0,-2.8296669E0,-1.5691297E0,1.774099E-1,3.848227E0,8.0013555E-1],"split_indices":[5,5,5,5,5,2,0,0,0,0,0,0,0],"split_type":[0,0,0,0,0,0,0,0,0,0,0,0,0],"sum_hessian":[2.21E2,1.5E2,7.1E1,6.4E1,8.6E1,5.6E1,1.5E1,1.3E1,5.1E1,5.1E1,3.5E1,2.4E1,3.2E1],"tree_param":{"num_deleted":"0","num_feature":"7","num_nodes":"13","size_leaf_vector":"1"}},{"base_weights":[2.901775E0,-3.664323E1,6.070127E1,-5.6081375E1,-1.3444026E1,3.2986393E1,1.1855107E2,-4.2619066E0,-2.2642515E0,-1.0979363E0,3.446532E-1,4.5421543E0,1.0438056E0,8.203948E0,3.2216115E0],"categories":[],"categories_nodes":[],"categories_segments":[],"categories_sizes":[],"default_left":[0,0,0,0,0,0,0,0,0,0,0,0,0,0,0],"id":24,"left_children":[1,3,5,7,9,11,13,-1,-1,-1,-1,-1,-1,-1,-1],"loss_changes":[5.347266E5,6.1174047E4,1.4449234E5,1.58889375E4,1.17315625E4,4.3151375E4,5.2773562E4,0E0,0E0,0E0,0E0,0E0,0E0,0E0,0E0],"parents":[2147483647,0,0,1,1,2,2,3,3,4,4,5,5,6,6],"right_children":[2,4,6,8,10,12,14,-1,-1,-1,-1,-1,-1,-1,-1],"split_conditions":[9.66E2,8.4E2,1.188E3,7.482E2,9.54E2,8.56E2,1.205E3,-4.2619066E0,-2.2642515E0,-1.0979363E0,3.446532E-1,4.5421543E0,1.0438056E0,8.203948E0,3.2216115E0],"split_indices":[0,0,6,6,6,4,4,0,0,0,0,0,0,0,0],"split_type":[0,0,0,0,0,0,0,0,0,0,0,0,0,0,0],"sum_hessian":[2.3E2,1.37E2,9.3E1,7.3E1,6.4E1,6.5E1,2.8E1,1.6E1,5.7E1,4.5E1,1.9E1,9E0,5.6E1,1.3E1,1.5E1],"tree_param":{"num_deleted":"0","num_feature":"7","num_nodes":"15","size_leaf_vector":"1"}},{"base_weights":[6.660905E-1,-3.0214226E1,8.65941E1,-6.143841E1,-1.1086373E1,4.9945618E1,7.0603633E0,-5.247391E0,-2.4099023E0,1.6689395E0,-8.206777E-1,3.3384838E0,3.0126154E-1],"categories":[],"categories_nodes":[],"categories_segments":[],"categories_sizes":[],"default_left":[0,0,0,0,0,0,0,0,0,0,0,0,0],"id":25,"left_children":[1,3,5,7,9,11,-1,-1,-1,-1,-1,-1,-1],"loss_changes":[6.022667E5,9.837878E4,1.0598394E5,2.6176516E4,2.620436E4,2.801325E4,0E0,0E0,0E0,0E0,0E0,0E0,0E0],"parents":[2147483647,0,0,1,1,2,2,3,3,4,4,5,5],"right_children":[2,4,6,8,10,12,-1,-1,-1,-1,-1,-1,-1],"split_conditions":[1.0416666E3,8.28E2,1.25E3,7.19E2,8.09E2,1.195E3,7.0603633E0,-5.247391E0,-2.4099023E0,1.6689395E0,-8.206777E-1,3.3384838E0,3.0126154E-1],"split_indices":[5,5,5,5,2,2,0,0,0,0,0,0,0],"split_type":[0,0,0,0,0,0,0,0,0,0,0,0,0],"sum_hessian":[2.23E2,1.65E2,5.8E1,6.1E1,1.04E2,3.7E1,2.1E1,1.1E1,5E1,1E1,9.4E1,2.6E1,1.1E1],"tree_param":{"num_deleted":"0","num_feature":"7","num_nodes":"13","size_leaf_vector":"1"}},{"base_weights":[6.7148376E-1,-2.0402271E1,9.212966E1,-4.4148373E1,9.124504E0,1.0854289E1,7.083914E1,-3.0287206E0,-1.3802994E0,1.5993611E0,-7.9545707E-1,4.3972617E-1,4.7732563E0],"categories":[],"categories_nodes":[],"categories_segments":[],"categories_sizes":[],"default_left":[0,0,0,0,0,0,0,0,0,0,0,0,0],"id":26,"left_children":[1,3,5,7,9,-1,11,-1,-1,-1,-1,-1,-1],"loss_changes":[4.2199797E5,1.25609625E5,7.831928E4,2.3556422E4,4.737709E4,0E0,5.6381438E4,0E0,0E0,0E0,0E0,0E0,0E0],"parents":[2147483647,0,0,1,1,2,2,3,3,4,4,6,6],"right_children":[2,4,6,8,10,-1,12,-1,-1,-1,-1,-1,-1],"split_conditions":[1.1102E3,8.95E2,1.016E3,7.97E2,9.81E2,1.0854289E1,1.175E3,-3.0287206E0,-1.3802994E0,1.5993611E0,-7.9545707E-1,4.3972617E-1,4.7732563E0],"split_indices":[6,0,1,0,1,0,0,0,0,0,0,0,0],"split_type":[0,0,0,0,0,0,0,0,0,0,0,0,0],"sum_hessian":[2.15E2,1.76E2,3.9E1,9.7E1,7.9E1,3E0,3.6E1,4.6E1,5.1E1,4.1E1,3.8E1,1.1E1,2.5E1],"tree_param":{"num_deleted":"0","num_feature":"7","num_nodes":"13","size_leaf_vector":"1"}},{"base_weights":[-1.3753523E0,-2.9202305E1,5.6145466E1,-4.9906406E1,-9.540663E0,3.1841728E1,8.7573E1,-4.1173577E0,-2.1833935E0,1.067034E0,-9.070817E-1,2.5600345E0,-9.860857E-1,5.079223E0,1.0071236E0],"categories":[],"categories_nodes":[],"categories_segments":[],"categories_sizes":[],"default_left":[0,0,0,0,0,0,0,0,0,0,0,0,0,0,0],"id":27,"left_children":[1,3,5,7,9,11,13,-1,-1,-1,-1,-1,-1,-1,-1],"loss_changes":[3.7302447E5,6.295875E4,5.2472344E4,8.18925E3,2.2819902E4,4.793741E4,2.6141297E4,0E0,0E0,0E0,0E0,0E0,0E0,0E0,0E0],"parents":[2147483647,0,0,1,1,2,2,3,3,4,4,5,5,6,6],"right_children":[2,4,6,8,10,12,14,-1,-1,-1,-1,-1,-1,-1,-1],"split_conditions":[1.01E3,8.4E2,1.188E3,6.72E2,8.36E2,1.165E3,1.419E3,-4.1173577E0,-2.1833935E0,1.067034E0,-9.070817E-1,2.5600345E0,-9.860857E-1,5.079223E0,1.0071236E0],"split_indices":[6,0,6,0,4,2,4,0,0,0,0,0,0,0,0],"split_type":[0,0,0,0,0,0,0,0,0,0,0,0,0,0,0],"sum_hessian":[2.29E2,1.55E2,7.4E1,7.4E1,8.1E1,4.4E1,3E1,8E0,6.6E1,1.7E1,6.4E1,3.2E1,1.2E1,2.4E1,6E0],"tree_param":{"num_deleted":"0","num_feature":"7","num_nodes":"15","size_leaf_vector":"1"}},{"base_weights":[-6.067218E-1,-2.1897387E1,9.7688995E1,-4.32507E1,4.0998807E0,6.429292E1,7.4070067E0,-5.234868E0,-1.8149693E0,-5.05192E-1,9.5714515E-1,4.0196495E0,-2.3383442E-1],"categories":[],"categories_nodes":[],"categories_segments":[],"categories_sizes":[],"default_left":[0,0,0,0,0,0,0,0,0,0,0,0,0],"id":28,"left_children":[1,3,5,7,9,11,-1,-1,-1,-1,-1,-1,-1],"loss_changes":[4.5841178E5,1.00277664E5,4.6661188E4,3.4685484E4,1.8121184E4,3.0733156E4,0E0,0E0,0E0,0E0,0E0,0E0,0E0],"parents":[2147483647,0,0,1,1,2,2,3,3,4,4,5,5],"right_children":[2,4,6,8,10,12,-1,-1,-1,-1,-1,-1,-1],"split_conditions":[1.1266666E3,8.91E2,1.3096666E3,6.72E2,9.843333E2,1.2666666E3,7.4070067E0,-5.234868E0,-1.8149693E0,-5.05192E-1,9.5714515E-1,4.0196495E0,-2.3383442E-1],"split_indices":[5,5,5,0,5,5,0,0,0,0,0,0,0],"split_type":[0,0,0,0,0,0,0,0,0,0,0,0,0],"sum_hessian":[2.15E2,1.78E2,3.7E1,9.7E1,8.1E1,2.5E1,1.2E1,7E0,9E1,4.2E1,3.9E1,2E1,5E0],"tree_param":{"num_deleted":"0","num_feature":"7","num_nodes":"13","size_leaf_vector":"1"}},{"base_weights":[-5.073069E-1,-3.3858803E1,3.9087597E1,-4.9996975E1,-1.9721737E1,1.5533874E1,6.849516E1,-2.1369398E0,-4.9327474E0,9.755341E-1,-1.302307E0,1.2917674E0,-2.1600428E0,5.99719E0,1.844106E0],"categories":[],"categories_nodes":[],"categories_segments":[],"categories_sizes":[],"default_left":[0,0,0,0,0,0,0,0,0,0,0,0,0,0,0],"id":29,"left_children":[1,3,5,7,9,11,13,-1,-1,-1,-1,-1,-1,-1,-1],"loss_changes":[3.0901434E5,2.7002547E4,7.1986375E4,1.2050969E4,1.8632994E4,3.9745582E4,6.75955E4,0E0,0E0,0E0,0E0,0E0,0E0,0E0,0E0],"parents":[2147483647,0,0,1,1,2,2,3,3,4,4,5,5,6,6],"right_children":[2,4,6,8,10,12,14,-1,-1,-1,-1,-1,-1,-1,-1],"split_conditions":[9.54E2,8.12E2,1.1102E3,8.75E2,8.09E2,1.155E3,1.08E3,-2.1369398E0,-4.9327474E0,9.755341E-1,-1.302307E0,1.2917674E0,-2.1600428E0,5.99719E0,1.844106E0],"split_indices":[6,0,6,2,1,2,4,0,0,0,0,0,0,0,0],"split_type":[0,0,0,0,0,0,0,0,0,0,0,0,0,0,0],"sum_hessian":[2.3E2,1.25E2,1.05E2,5.6E1,6.9E1,6E1,4.5E1,5.2E1,4E0,9E0,6E1,5.2E1,8E0,1.5E1,3E1],"tree_param":{"num_deleted":"0","num_feature":"7","num_nodes":"15","size_leaf_vector":"1"}},{"base_weights":[-5.620035E-1,-3.2896652E1,4.4996742E1,-3.8883088E0,-2.6198315E1,2.6124432E1,1.0721376E2,8.614213E-1,-1.5978987E0,3.024286E0,6.027343E-1,6.0758147E0,1.5476003E0],"categories":[],"categories_nodes":[],"categories_segments":[],"categories_sizes":[],"default_left":[0,0,0,0,0,0,0,0,0,0,0,0,0],"id":30,"left_children":[1,3,5,-1,7,9,11,-1,-1,-1,-1,-1,-1],"loss_changes":[3.2999447E5,3.529753E4,1.03596875E5,0E0,3.0365586E4,3.4317363E4,1.5383094E4,0E0,0E0,0E0,0E0,0E0,0E0],"parents":[2147483647,0,0,1,1,2,2,4,4,5,5,6,6],"right_children":[2,4,6,-1,8,10,12,-1,-1,-1,-1,-1,-1],"split_conditions":[9.633333E2,7.12E2,1.25E3,-3.8883088E0,7.51E2,9.91E2,1.444E3,8.614213E-1,-1.5978987E0,3.024286E0,6.027343E-1,6.0758147E0,1.5476003E0],"split_indices":[5,5,5,0,2,1,2,0,0,0,0,0,0],"split_type":[0,0,0,0,0,0,0,0,0,0,0,0,0],"sum_hessian":[2.2E2,1.29E2,9.1E1,1.4E1,1.15E2,7.2E1,1.9E1,1.3E1,1.02E2,1.9E1,5.3E1,1.5E1,4E0],"tree_param":{"num_deleted":"0","num_feature":"7","num_nodes":"13","size_leaf_vector":"1"}},{"base_weights":[-1.7064552E0,-2.4378176E1,6.636858E1,-5.583128E1,-1.42392845E1,4.606837E1,1.2213802E2,-4.2623343E0,-2.1766903E0,-1.175073E0,-2.1324722E-1,5.308511E0,1.6623566E0,6.806122E0,2.1258557E0],"categories":[],"categories_nodes":[],"categories_segments":[],"categories_sizes":[],"default_left":[0,0,0,0,0,0,0,0,0,0,0,0,0,0,0],"id":31,"left_children":[1,3,5,7,9,11,13,-1,-1,-1,-1,-1,-1,-1,-1],"loss_changes":[3.5203934E5,5.2941844E4,5.327808E4,7.408922E3,1.199423E4,2.7616398E4,4.0132656E3,0E0,0E0,0E0,0E0,0E0,0E0,0E0,0E0],"parents":[2147483647,0,0,1,1,2,2,3,3,4,4,5,5,6,6],"right_children":[2,4,6,8,10,12,14,-1,-1,-1,-1,-1,-1,-1,-1],"split_conditions":[1.0416666E3,7.803333E2,1.3146666E3,6.816667E2,8.91E2,1.035E3,1.42E3,-4.2623343E0,-2.1766903E0,-1.175073E0,-2.1324722E-1,5.308511E0,1.6623566E0,6.806122E0,2.1258557E0],"split_indices":[5,5,5,5,5,0,2,0,0,0,0,0,0,0,0],"split_type":[0,0,0,0,0,0,0,0,0,0,0,0,0,0,0],"sum_hessian":[2.24E2,1.69E2,5.5E1,3.9E1,1.3E2,4.3E1,1.2E1,8E0,3.1E1,6.6E1,6.4E1,5E0,3.8E1,9E0,3E0],"tree_param":{"num_deleted":"0","num_feature":"7","num_nodes":"15","size_leaf_vector":"1"}},{"base_weights":[2.1091988E0,-1.1252755E1,8.9266685E1,-3.0745255E1,9.692458E0,9.51681E0,6.393776E1,-3.0747936E0,-1.1345824E0,1.5042104E0,-2.6576883E-1,1.8767146E0,5.420187E0],"categories":[],"categories_nodes":[],"categories_segments":[],"categories_sizes":[],"default_left":[0,0,0,0,0,0,0,0,0,0,0,0,0],"id":32,"left_children":[1,3,5,7,9,-1,11,-1,-1,-1,-1,-1,-1],"loss_changes":[2.6287812E5,8.061781E4,5.2460125E4,2.2469758E4,2.969927E4,0E0,2.3561805E4,0E0,0E0,0E0,0E0,0E0,0E0],"parents":[2147483647,0,0,1,1,2,2,3,3,4,4,6,6],"right_children":[2,4,6,8,10,-1,12,-1,-1,-1,-1,-1,-1],"split_conditions":[1.188E3,8.95E2,1.145E3,7.482E2,9.61E2,9.51681E0,1.353E3,-3.0747936E0,-1.1345824E0,1.5042104E0,-2.6576883E-1,1.8767146E0,5.420187E0],"split_indices":[6,0,1,6,3,0,6,0,0,0,0,0,0],"split_type":[0,0,0,0,0,0,0,0,0,0,0,0,0],"sum_hessian":[2.22E2,1.94E2,2.8E1,1E2,9.4E1,3E0,2.5E1,1.8E1,8.2E1,3.9E1,5.5E1,1.8E1,7E0],"tree_param":{"num_deleted":"0","num_feature":"7","num_nodes":"13","size_leaf_vector":"1"}},{"base_weights":[-1.1697352E0,-2.7815922E1,6.2100163E1,-6.163294E1,-1.6549564E1,4.0654247E1,9.959198E1,-4.952089E0,-2.3629823E0,-1.2918518E0,5.4449745E-2,2.5775335E0,-1.1995705E0,2.153677E0,5.94673E0],"categories":[],"categories_nodes":[],"categories_segments":[],"categories_sizes":[],"default_left":[0,0,0,0,0,0,0,0,0,0,0,0,0,0,0],"id":33,"left_children":[1,3,5,7,9,11,13,-1,-1,-1,-1,-1,-1,-1,-1],"loss_changes":[3.8109666E5,5.8538133E4,4.5773438E4,1.1608484E4,2.004202E4,3.4876227E4,1.48980625E4,0E0,0E0,0E0,0E0,0E0,0E0,0E0,0E0],"parents":[2147483647,0,0,1,1,2,2,3,3,4,4,5,5,6,6],"right_children":[2,4,6,8,10,12,14,-1,-1,-1,-1,-1,-1,-1,-1],"split_conditions":[1.0126667E3,7.803333E2,1.25E3,6.57E2,9.266667E2,1.369E3,1.035E3,-4.952089E0,-2.3629823E0,-1.2918518E0,5.4449745E-2,2.5775335E0,-1.1995705E0,2.153677E0,5.94673E0],"split_indices":[5,5,5,0,5,4,4,0,0,0,0,0,0,0,0],"split_type":[0,0,0,0,0,0,0,0,0,0,0,0,0,0,0],"sum_hessian":[2.22E2,1.57E2,6.5E1,3.7E1,1.2E2,4.4E1,2.1E1,7E0,3E1,7.8E1,4.2E1,3.8E1,6E0,7E0,1.4E1],"tree_param":{"num_deleted":"0","num_feature":"7","num_nodes":"15","size_leaf_vector":"1"}},{"base_weights":[2.8097036E0,-1.5993692E1,8.045967E1,-6.4336205E1,-6.3686094E0,1.3531729E2,4.5838295E1,-4.2559495E0,-2.3661363E0,-9.203563E-1,7.381927E-1,3.8872335E0,8.6726885E0,4.921287E-1,4.569769E0],"categories":[],"categories_nodes":[],"categories_segments":[],"categories_sizes":[],"default_left":[0,0,0,0,0,0,0,0,0,0,0,0,0,0,0],"id":34,"left_children":[1,3,5,7,9,11,13,-1,-1,-1,-1,-1,-1,-1,-1],"loss_changes":[3.296323E5,8.3865266E4,7.116144E4,2.5514922E3,3.972166E4,8.1596562E3,4.7396664E4,0E0,0E0,0E0,0E0,0E0,0E0,0E0,0E0],"parents":[2147483647,0,0,1,1,2,2,3,3,4,4,5,5,6,6],"right_children":[2,4,6,8,10,12,14,-1,-1,-1,-1,-1,-1,-1,-1],"split_conditions":[1.1233334E3,7.803333E2,1.205E3,7.19E2,9.633333E2,1.215E3,1.3146666E3,-4.2559495E0,-2.3661363E0,-9.203563E-1,7.381927E-1,3.8872335E0,8.6726885E0,4.921287E-1,4.569769E0],"split_indices":[5,5,1,5,5,5,5,0,0,0,0,0,0,0,0],"split_type":[0,0,0,0,0,0,0,0,0,0,0,0,0,0,0],"sum_hessian":[2.22E2,1.8E2,4.2E1,2.8E1,1.52E2,1.4E1,2.8E1,9E0,1.9E1,9.7E1,5.5E1,8E0,6E0,1.7E1,1.1E1],"tree_param":{"num_deleted":"0","num_feature":"7","num_nodes":"15","size_leaf_vector":"1"}},{"base_weights":[2.6447637E0,-2.5466272E1,4.0554623E1,-4.725376E1,-1.7165306E1,2.398725E1,8.634967E1,-1.6099504E0,-3.2618015E0,-6.1816585E-1,-2.6448402E0,2.7914925E0,4.1840392E-1,8.83065E0,2.8992653E0],"categories":[],"categories_nodes":[],"categories_segments":[],"categories_sizes":[],"default_left":[0,0,0,0,0,0,0,0,0,0,0,0,0,0,0],"id":35,"left_children":[1,3,5,7,9,11,13,-1,-1,-1,-1,-1,-1,-1,-1],"loss_changes":[2.4291045E5,2.2070047E4,6.945167E4,5.274086E3,1.5507105E4,3.5869895E4,4.3524625E4,0E0,0E0,0E0,0E0,0E0,0E0,0E0,0E0],"parents":[2147483647,0,0,1,1,2,2,3,3,4,4,5,5,6,6],"right_children":[2,4,6,8,10,12,14,-1,-1,-1,-1,-1,-1,-1,-1],"split_conditions":[9.633333E2,7.803333E2,1.25E3,7.588E2,9.75E2,9.91E2,1.145E3,-1.6099504E0,-3.2618015E0,-6.1816585E-1,-2.6448402E0,2.7914925E0,4.1840392E-1,8.83065E0,2.8992653E0],"split_indices":[5,5,5,6,1,1,1,0,0,0,0,0,0,0,0],"split_type":[0,0,0,0,0,0,0,0,0,0,0,0,0,0,0],"sum_hessian":[2.24E2,1.29E2,9.5E1,3.3E1,9.6E1,7.2E1,2.3E1,2.1E1,1.2E1,8.7E1,9E0,2.2E1,5E1,3E0,2E1],"tree_param":{"num_deleted":"0","num_feature":"7","num_nodes":"15","size_leaf_vector":"1"}},{"base_weights":[1.3226162E0,-1.691438E1,4.244833E1,-1.4139932E1,-4.8078246E0,1.1525375E2,2.7927736E1,-1.2541125E0,1.7721842E-1,2.2147644E0,7.1572824E0,7.5498384E-1,4.516545E0],"categories":[],"categories_nodes":[],"categories_segments":[],"categories_sizes":[],"default_left":[0,0,0,0,0,0,0,0,0,0,0,0,0],"id":36,"left_children":[1,3,5,7,-1,9,11,-1,-1,-1,-1,-1,-1],"loss_changes":[1.7093812E5,3.2017492E4,6.75649E4,3.017142E4,0E0,9.089484E3,4.6103254E4,0E0,0E0,0E0,0E0,0E0,0E0],"parents":[2147483647,0,0,1,1,2,2,3,3,5,5,6,6],"right_children":[2,4,6,8,-1,10,12,-1,-1,-1,-1,-1,-1],"split_conditions":[1.025E3,1.19E3,1.02E3,8.95E2,-4.8078246E0,1.0724E3,1.354E3,-1.2541125E0,1.7721842E-1,2.2147644E0,7.1572824E0,7.5498384E-1,4.516545E0],"split_indices":[6,4,1,0,0,6,6,0,0,0,0,0,0],"split_type":[0,0,0,0,0,0,0,0,0,0,0,0,0],"sum_hessian":[2.24E2,1.56E2,6.8E1,1.53E2,3E0,9E0,5.9E1,9.4E1,5.9E1,4E0,5E0,5.1E1,8E0],"tree_param":{"num_deleted":"0","num_feature":"7","num_nodes":"13","size_leaf_vector":"1"}},{"base_weights":[7.0318E0,-1.3397841E1,4.9707195E1,-3.0396143E1,5.13179E0,2.7564165E1,7.090778E1,-1.6519966E0,1.070959E0,8.5177946E-1,-9.543177E-1,3.5274103E0,3.586783E-1,1.0371583E-1,3.861564E0],"categories":[],"categories_nodes":[],"categories_segments":[],"categories_sizes":[],"default_left":[0,0,0,0,0,0,0,0,0,0,0,0,0,0,0],"id":37,"left_children":[1,3,5,7,9,11,13,-1,-1,-1,-1,-1,-1,-1,-1],"loss_changes":[1.9139373E5,4.7242844E4,2.9421578E4,1.2100508E4,2.1695314E4,3.2293709E4,1.4913984E4,0E0,0E0,0E0,0E0,0E0,0E0,0E0,0E0],"parents":[2147483647,0,0,1,1,2,2,3,3,4,4,5,5,6,6],"right_children":[2,4,6,8,10,12,14,-1,-1,-1,-1,-1,-1,-1,-1],"split_conditions":[1.015E3,8.55E2,1.175E3,9.26E2,9.81E2,9.91E2,9.45E2,-1.6519966E0,1.070959E0,8.5177946E-1,-9.543177E-1,3.5274103E0,3.586783E-1,1.0371583E-1,3.861564E0],"split_indices":[0,0,0,3,1,1,3,0,0,0,0,0,0,0,0],"split_type":[0,0,0,0,0,0,0,0,0,0,0,0,0,0,0],"sum_hessian":[2.16E2,1.47E2,6.9E1,7.6E1,7.1E1,3.6E1,3.3E1,7.3E1,3E0,4.8E1,2.3E1,1E1,2.6E1,3E0,3E1],"tree_param":{"num_deleted":"0","num_feature":"7","num_nodes":"15","size_leaf_vector":"1"}},{"base_weights":[1.483367E0,-1.3939561E1,5.2061153E1,-3.1084808E1,-1.8017062E0,1.3051967E2,3.4447044E1,-1.2599176E0,-3.5938432E0,4.726038E-1,-1.2763633E0,2.5433295E0,8.694776E0,1.0510329E0,3.9288952E0],"categories":[],"categories_nodes":[],"categories_segments":[],"categories_sizes":[],"default_left":[0,0,0,0,0,0,0,0,0,0,0,0,0,0,0],"id":38,"left_children":[1,3,5,7,9,11,13,-1,-1,-1,-1,-1,-1,-1,-1],"loss_changes":[1.7696438E5,3.609852E4,6.4252734E4,1.3666328E4,2.8250805E4,1.3404219E4,2.3952309E4,0E0,0E0,0E0,0E0,0E0,0E0,0E0,0E0],"parents":[2147483647,0,0,1,1,2,2,3,3,4,4,5,5,6,6],"right_children":[2,4,6,8,10,12,14,-1,-1,-1,-1,-1,-1,-1,-1],"split_conditions":[1.072E3,8.41E2,1.02E3,8.91E2,9.81E2,1.0756E3,1.354E3,-1.2599176E0,-3.5938432E0,4.726038E-1,-1.2763633E0,2.5433295E0,8.694776E0,1.0510329E0,3.9288952E0],"split_indices":[6,0,1,2,1,6,6,0,0,0,0,0,0,0,0],"split_type":[0,0,0,0,0,0,0,0,0,0,0,0,0,0,0],"sum_hessian":[2.23E2,1.72E2,5.1E1,7E1,1.02E2,7E0,4.4E1,6.4E1,6E0,7E1,3.2E1,4E0,3E0,3.6E1,8E0],"tree_param":{"num_deleted":"0","num_feature":"7","num_nodes":"15","size_leaf_vector":"1"}},{"base_weights":[1.4121768E0,-1.1955902E1,6.5946106E1,-5.808637E1,-7.5095115E0,1.1418564E2,2.8751093E1,-3.552939E0,-1.4485409E0,-1.8092678E-1,-2.2449605E0,6.6027102E0,2.1682365E0,-1.070436E0,3.914952E0],"categories":[],"categories_nodes":[],"categories_segments":[],"categories_sizes":[],"default_left":[0,0,0,0,0,0,0,0,0,0,0,0,0,0,0],"id":39,"left_children":[1,3,5,7,9,11,13,-1,-1,-1,-1,-1,-1,-1,-1],"loss_changes":[1.8101738E5,3.481744E4,5.8027797E4,1.5482227E3,2.309773E4,7.5290312E3,6.0514836E4,0E0,0E0,0E0,0E0,0E0,0E0,0E0,0E0],"parents":[2147483647,0,0,1,1,2,2,3,3,4,4,5,5,6,6],"right_children":[2,4,6,8,10,12,14,-1,-1,-1,-1,-1,-1,-1,-1],"split_conditions":[1.1233334E3,7.12E2,1.225E3,6.816667E2,1.155E3,1.215E3,1.3146666E3,-3.552939E0,-1.4485409E0,-1.8092678E-1,-2.2449605E0,6.6027102E0,2.1682365E0,-1.070436E0,3.914952E0],"split_indices":[5,5,1,5,2,2,5,0,0,0,0,0,0,0,0],"split_type":[0,0,0,0,0,0,0,0,0,0,0,0,0,0,0],"sum_hessian":[2.06E2,1.72E2,3.4E1,1.3E1,1.59E2,1.3E1,2.1E1,7E0,6E0,1.46E2,1.3E1,9E0,4E0,1.1E1,1E1],"tree_param":{"num_deleted":"0","num_feature":"7","num_nodes":"15","size_leaf_vector":"1"}},{"base_weights":[-4.757343E0,-2.3491888E1,2.577068E1,-4.9343647E1,-1.374918E1,5.5329212E1,1.6177961E1,-1.7509615E0,-3.5200577E0,7.2036135E-1,-9.825016E-1,3.911982E0,1.3507825E0,-2.0420639E-1,1.746834E0],"categories":[],"categories_nodes":[],"categories_segments":[],"categories_sizes":[],"default_left":[0,0,0,0,0,0,0,0,0,0,0,0,0,0,0],"id":40,"left_children":[1,3,5,7,9,11,13,-1,-1,-1,-1,-1,-1,-1,-1],"loss_changes":[1.2760702E5,3.3400656E4,2.231123E4,6.229758E3,1.7679328E4,8.746133E3,2.5751459E4,0E0,0E0,0E0,0E0,0E0,0E0,0E0,0E0],"parents":[2147483647,0,0,1,1,2,2,3,3,4,4,5,5,6,6],"right_children":[2,4,6,8,10,12,14,-1,-1,-1,-1,-1,-1,-1,-1],"split_conditions":[9.633333E2,7.803333E2,9.91E2,7.97E2,7.92E2,9.45E2,1.1233334E3,-1.7509615E0,-3.5200577E0,7.2036135E-1,-9.825016E-1,3.911982E0,1.3507825E0,-2.0420639E-1,1.746834E0],"split_indices":[5,5,1,3,2,2,5,0,0,0,0,0,0,0,0],"split_type":[0,0,0,0,0,0,0,0,0,0,0,0,0,0,0],"sum_hessian":[2.19E2,1.36E2,8.3E1,3.5E1,1.01E2,1.8E1,6.5E1,2.4E1,1.1E1,1.7E1,8.4E1,8E0,1E1,3.2E1,3.3E1],"tree_param":{"num_deleted":"0","num_feature":"7","num_nodes":"15","size_leaf_vector":"1"}},{"base_weights":[1.1341258E0,-1.489662E1,3.9143383E1,-1.0901475E1,-6.666739E1,2.6135565E1,8.075242E1,-9.7556496E-1,5.363626E-1,-1.9736145E-1,-4.4600325E0,2.0211961E0,-1.5305496E0,5.3428235E0,1.0194397E0],"categories":[],"categories_nodes":[],"categories_segments":[],"categories_sizes":[],"default_left":[0,0,0,0,0,0,0,0,0,0,0,0,0,0,0],"id":41,"left_children":[1,3,5,7,9,11,13,-1,-1,-1,-1,-1,-1,-1,-1],"loss_changes":[1.3765316E5,3.1432707E4,3.2042234E4,2.8351535E4,1.4841992E4,4.6258844E4,1.927868E4,0E0,0E0,0E0,0E0,0E0,0E0,0E0,0E0],"parents":[2147483647,0,0,1,1,2,2,3,3,4,4,5,5,6,6],"right_children":[2,4,6,8,10,12,14,-1,-1,-1,-1,-1,-1,-1,-1],"split_conditions":[1.0126667E3,1.08E3,1.3146666E3,9.193333E2,9.66E2,1.235E3,1.419E3,-9.7556496E-1,5.363626E-1,-1.9736145E-1,-4.4600325E0,2.0211961E0,-1.5305496E0,5.3428235E0,1.0194397E0],"split_indices":[5,3,5,5,1,1,1,0,0,0,0,0,0,0,0],"split_type":[0,0,0,0,0,0,0,0,0,0,0,0,0,0,0],"sum_hessian":[2.22E2,1.57E2,6.5E1,1.48E2,9E0,5.2E1,1.3E1,1.06E2,4.2E1,3E0,6E0,4.2E1,1E1,8E0,5E0],"tree_param":{"num_deleted":"0","num_feature":"7","num_nodes":"15","size_leaf_vector":"1"}},{"base_weights":[4.4047074E0,-1.3768426E1,4.4667095E1,-2.9866724E1,-2.6970215E0,1.1612093E2,2.6505629E1,-3.1373067E0,-1.1525227E0,2.5392895E0,-3.669766E-1,2.2327688E0,6.7888045E0,4.012866E-1,3.6152349E0],"categories":[],"categories_nodes":[],"categories_segments":[],"categories_sizes":[],"default_left":[0,0,0,0,0,0,0,0,0,0,0,0,0,0,0],"id":42,"left_children":[1,3,5,7,9,11,13,-1,-1,-1,-1,-1,-1,-1,-1],"loss_changes":[1.6951956E5,2.835582E4,8.727914E4,1.1674824E4,2.4830057E4,7.539078E3,4.962112E4,0E0,0E0,0E0,0E0,0E0,0E0,0E0,0E0],"parents":[2147483647,0,0,1,1,2,2,3,3,4,4,5,5,6,6],"right_children":[2,4,6,8,10,12,14,-1,-1,-1,-1,-1,-1,-1,-1],"split_conditions":[1.0166667E3,8.166667E2,1.02E3,6.816667E2,8.09E2,9.35E2,1.3146666E3,-3.1373067E0,-1.1525227E0,2.5392895E0,-3.669766E-1,2.2327688E0,6.7888045E0,4.012866E-1,3.6152349E0],"split_indices":[5,5,1,5,1,3,5,0,0,0,0,0,0,0,0],"split_type":[0,0,0,0,0,0,0,0,0,0,0,0,0,0,0],"sum_hessian":[2.28E2,1.58E2,7E1,6.3E1,9.5E1,1.2E1,5.8E1,8E0,5.5E1,6E0,8.9E1,4E0,8E0,4.3E1,1.5E1],"tree_param":{"num_deleted":"0","num_feature":"7","num_nodes":"15","size_leaf_vector":"1"}},{"base_weights":[-7.764119E-1,-1.4006474E1,6.0888687E1,-2.7450172E1,8.572111E-1,1.1484805E2,3.3414055E1,-1.012032E0,-4.1620584E0,8.669657E-1,-9.4820863E-1,1.8732208E0,7.2086883E0,-3.9349746E-2,3.3863766E0],"categories":[],"categories_nodes":[],"categories_segments":[],"categories_sizes":[],"default_left":[0,0,0,0,0,0,0,0,0,0,0,0,0,0,0],"id":43,"left_children":[1,3,5,7,9,11,13,-1,-1,-1,-1,-1,-1,-1,-1],"loss_changes":[1.7547812E5,3.541571E4,4.8660438E4,3.4037406E4,2.8753686E4,1.6429188E4,3.2966195E4,0E0,0E0,0E0,0E0,0E0,0E0,0E0,0E0],"parents":[2147483647,0,0,1,1,2,2,3,3,4,4,5,5,6,6],"right_children":[2,4,6,8,10,12,14,-1,-1,-1,-1,-1,-1,-1,-1],"split_conditions":[1.1233334E3,8.91E2,1.155E3,9.11E2,9.91E2,1.1733334E3,1.3146666E3,-1.012032E0,-4.1620584E0,8.669657E-1,-9.4820863E-1,1.8732208E0,7.2086883E0,-3.9349746E-2,3.3863766E0],"split_indices":[5,5,1,2,1,5,5,0,0,0,0,0,0,0,0],"split_type":[0,0,0,0,0,0,0,0,0,0,0,0,0,0,0],"sum_hessian":[2.11E2,1.75E2,3.6E1,9.1E1,8.4E1,1E1,2.6E1,8.3E1,8E0,4.6E1,3.8E1,4E0,6E0,1.4E1,1.2E1],"tree_param":{"num_deleted":"0","num_feature":"7","num_nodes":"15","size_leaf_vector":"1"}},{"base_weights":[2.5544188E0,-1.3027084E1,3.92372E1,-2.5675657E0,-8.672608E0,1.06615074E2,1.9587883E1,2.7878516E0,-5.714038E-1,2.7887177E0,7.076013E0,-6.246068E-1,1.8653126E0],"categories":[],"categories_nodes":[],"categories_segments":[],"categories_sizes":[],"default_left":[0,0,0,0,0,0,0,0,0,0,0,0,0],"id":44,"left_children":[1,3,5,-1,7,9,11,-1,-1,-1,-1,-1,-1],"loss_changes":[1.2276732E5,2.430847E4,8.055476E4,0E0,2.577405E4,9.0580625E3,3.0489162E4,0E0,0E0,0E0,0E0,0E0,0E0],"parents":[2147483647,0,0,1,1,2,2,4,4,5,5,6,6],"right_children":[2,4,6,-1,8,10,12,-1,-1,-1,-1,-1,-1],"split_conditions":[1.0126667E3,7.12E2,1.02E3,-2.5675657E0,7.23E2,1.09E3,1.1266666E3,2.7878516E0,-5.714038E-1,2.7887177E0,7.076013E0,-6.246068E-1,1.8653126E0],"split_indices":[5,5,1,0,0,5,5,0,0,0,0,0,0],"split_type":[0,0,0,0,0,0,0,0,0,0,0,0,0],"sum_hessian":[2.11E2,1.49E2,6.2E1,1.3E1,1.36E2,1.2E1,5E1,4E0,1.32E2,7E0,5E0,1.8E1,3.2E1],"tree_param":{"num_deleted":"0","num_feature":"7","num_nodes":"13","size_leaf_vector":"1"}},{"base_weights":[-3.9879552E-1,-1.8641878E1,2.3229593E1,-3.88959E0,-1.4817021E1,1.7506235E1,5.1145325E0,-1.3640815E0,-3.3341455E-1,2.220107E0,5.514678E-1],"categories":[],"categories_nodes":[],"categories_segments":[],"categories_sizes":[],"default_left":[0,0,0,0,0,0,0,0,0,0,0],"id":45,"left_children":[1,3,5,-1,7,9,-1,-1,-1,-1,-1],"loss_changes":[9.39739E4,2.5522238E4,3.9405547E4,0E0,1.1621506E4,1.4872887E4,0E0,0E0,0E0,0E0,0E0],"parents":[2147483647,0,0,1,1,2,2,4,4,5,5],"right_children":[2,4,6,-1,8,10,-1,-1,-1,-1,-1],"split_conditions":[9.54E2,6.57E2,1.494E3,-3.88959E0,8.07E2,9.61E2,5.1145325E0,-1.3640815E0,-3.3341455E-1,2.220107E0,5.514678E-1],"split_indices":[6,0,0,0,0,3,0,0,0,0,0],"split_type":[0,0,0,0,0,0,0,0,0,0,0],"sum_hessian":[2.14E2,1.21E2,9.3E1,5E0,1.16E2,8.9E1,4E0,4.4E1,7.2E1,1.5E1,7.4E1],"tree_param":{"num_deleted":"0","num_feature":"7","num_nodes":"11","size_leaf_vector":"1"}},{"base_weights":[-3.1613752E-1,-1.1146333E1,3.3135555E1,-2.6561071E1,-4.432142E0,8.269664E1,1.4733572E1,-1.5473197E0,1.3958282E0,-8.1215344E-2,-2.9789712E0,2.1960444E0,7.133989E0,1.09344564E-1,2.8477454E0],"categories":[],"categories_nodes":[],"categories_segments":[],"categories_sizes":[],"default_left":[0,0,0,0,0,0,0,0,0,0,0,0,0,0,0],"id":46,"left_children":[1,3,5,7,9,11,13,-1,-1,-1,-1,-1,-1,-1,-1],"loss_changes":[8.442729E4,1.7980117E4,4.9548434E4,1.4389633E4,1.9162006E4,2.2355133E4,2.3059348E4,0E0,0E0,0E0,0E0,0E0,0E0,0E0,0E0],"parents":[2147483647,0,0,1,1,2,2,3,3,4,4,5,5,6,6],"right_children":[2,4,6,8,10,12,14,-1,-1,-1,-1,-1,-1,-1,-1],"split_conditions":[1.0664E3,8.07E2,1.145E3,9.26E2,1.095E3,1.176E3,1.354E3,-1.5473197E0,1.3958282E0,-8.1215344E-2,-2.9789712E0,2.1960444E0,7.133989E0,1.09344564E-1,2.8477454E0],"split_indices":[6,0,1,3,3,6,6,0,0,0,0,0,0,0,0],"split_type":[0,0,0,0,0,0,0,0,0,0,0,0,0,0,0],"sum_hessian":[2.29E2,1.74E2,5.5E1,5.1E1,1.23E2,1.3E1,4.2E1,4.8E1,3E0,1.19E2,4E0,1E1,3E0,3.4E1,8E0],"tree_param":{"num_deleted":"0","num_feature":"7","num_nodes":"15","size_leaf_vector":"1"}},{"base_weights":[4.8974037E0,-7.806624E0,5.4648914E1,-1.6342644E1,7.0446415E0,8.772782E1,2.1167564E1,-6.316224E-1,-3.9148502E0,9.921836E-1,-8.50365E-1,2.6666422E0,5.9167614E0,-1.1042964E0,2.6474006E0],"categories":[],"categories_nodes":[],"categories_segments":[],"categories_sizes":[],"default_left":[0,0,0,0,0,0,0,0,0,0,0,0,0,0,0],"id":47,"left_children":[1,3,5,7,9,11,13,-1,-1,-1,-1,-1,-1,-1,-1],"loss_changes":[1.3990305E5,2.2668672E4,4.6124734E4,2.3996342E4,2.0992512E4,1.0537984E4,3.6704195E4,0E0,0E0,0E0,0E0,0E0,0E0,0E0,0E0],"parents":[2147483647,0,0,1,1,2,2,3,3,4,4,5,5,6,6],"right_children":[2,4,6,8,10,12,14,-1,-1,-1,-1,-1,-1,-1,-1],"split_conditions":[1.1266666E3,9.266667E2,1.225E3,9.31E2,1.021E3,1.218E3,1.3096666E3,-6.316224E-1,-3.9148502E0,9.921836E-1,-8.50365E-1,2.6666422E0,5.9167614E0,-1.1042964E0,2.6474006E0],"split_indices":[5,5,1,1,1,5,5,0,0,0,0,0,0,0,0],"split_type":[0,0,0,0,0,0,0,0,0,0,0,0,0,0,0],"sum_hessian":[2.18E2,1.75E2,4.3E1,1.11E2,6.4E1,2E1,2.3E1,1.07E2,4E0,4.2E1,2.2E1,1.2E1,8E0,1E1,1.3E1],"tree_param":{"num_deleted":"0","num_feature":"7","num_nodes":"15","size_leaf_vector":"1"}},{"base_weights":[1.2221135E0,-1.3176036E1,3.587153E1,-1.0070017E1,-5.744171E1,2.7125996E1,5.09168E0,-2.4790227E0,-3.282295E-1,-4.2221184E0,-1.0871805E0,4.393657E0,7.9984033E-1],"categories":[],"categories_nodes":[],"categories_segments":[],"categories_sizes":[],"default_left":[0,0,0,0,0,0,0,0,0,0,0,0,0],"id":48,"left_children":[1,3,5,7,9,11,-1,-1,-1,-1,-1,-1,-1],"loss_changes":[1.121972E5,2.0704035E4,3.2548977E4,2.02627E4,5.9665586E3,3.8428688E4,0E0,0E0,0E0,0E0,0E0,0E0,0E0],"parents":[2147483647,0,0,1,1,2,2,3,3,4,4,5,5],"right_children":[2,4,6,8,10,12,-1,-1,-1,-1,-1,-1,-1],"split_conditions":[1.0166667E3,1.085E3,1.439E3,7.12E2,9.06E2,1.016E3,5.09168E0,-2.4790227E0,-3.282295E-1,-4.2221184E0,-1.0871805E0,4.393657E0,7.9984033E-1],"split_indices":[5,3,5,5,5,0,0,0,0,0,0,0,0],"split_type":[0,0,0,0,0,0,0,0,0,0,0,0,0],"sum_hessian":[2.21E2,1.57E2,6.4E1,1.49E2,8E0,5.9E1,5E0,1E1,1.39E2,3E0,5E0,7E0,5.2E1],"tree_param":{"num_deleted":"0","num_feature":"7","num_nodes":"13","size_leaf_vector":"1"}},{"base_weights":[1.7845831E0,-7.226243E0,4.13073E1,-1.9260132E1,1.2082341E0,8.587104E1,1.8516756E1,-7.735122E-1,-3.420221E0,5.0618696E-1,-1.2657088E0,1.5855612E0,5.0596366E0,-6.123864E-1,2.6482618E0],"categories":[],"categories_nodes":[],"categories_segments":[],"categories_sizes":[],"default_left":[0,0,0,0,0,0,0,0,0,0,0,0,0,0,0],"id":49,"left_children":[1,3,5,7,9,11,13,-1,-1,-1,-1,-1,-1,-1,-1],"loss_changes":[8.250743E4,1.9229959E4,4.0492062E4,1.2411143E4,2.7232602E4,5.199586E3,3.415089E4,0E0,0E0,0E0,0E0,0E0,0E0,0E0,0E0],"parents":[2147483647,0,0,1,1,2,2,3,3,4,4,5,5,6,6],"right_children":[2,4,6,8,10,12,14,-1,-1,-1,-1,-1,-1,-1,-1],"split_conditions":[1.1266666E3,8.493333E2,1.205E3,9.11E2,1.021E3,1.1733334E3,1.3146666E3,-7.735122E-1,-3.420221E0,5.0618696E-1,-1.2657088E0,1.5855612E0,5.0596366E0,-6.123864E-1,2.6482618E0],"split_indices":[5,5,1,2,1,5,5,0,0,0,0,0,0,0,0],"split_type":[0,0,0,0,0,0,0,0,0,0,0,0,0,0,0],"sum_hessian":[2.28E2,1.87E2,4.1E1,7.6E1,1.11E2,1.2E1,2.9E1,7.3E1,3E0,8.4E1,2.7E1,4E0,8E0,1.6E1,1.3E1],"tree_param":{"num_deleted":"0","num_feature":"7","num_nodes":"15","size_leaf_vector":"1"}},{"base_weights":[-2.7346858E-1,-9.84549E0,4.4164555E1,-1.9845299E1,5.492454E0,7.332742E1,1.4963479E1,-7.9093593E-1,-3.7286956E0,7.5052875E-1,-1.2629266E0,2.065546E0,6.4463105E0,1.937656E-1,2.1620078E0],"categories":[],"categories_nodes":[],"categories_segments":[],"categories_sizes":[],"default_left":[0,0,0,0,0,0,0,0,0,0,0,0,0,0,0],"id":50,"left_children":[1,3,5,7,9,11,13,-1,-1,-1,-1,-1,-1,-1,-1],"loss_changes":[9.359849E4,2.7979148E4,3.101743E4,2.1881277E4,2.2124773E4,2.3169375E4,6.5626655E3,0E0,0E0,0E0,0E0,0E0,0E0,0E0,0E0],"parents":[2147483647,0,0,1,1,2,2,3,3,4,4,5,5,6,6],"right_children":[2,4,6,8,10,12,14,-1,-1,-1,-1,-1,-1,-1,-1],"split_conditions":[1.1233334E3,9.193333E2,1.2E3,1.03E3,1.0594E3,1.155E3,1.354E3,-7.9093593E-1,-3.7286956E0,7.5052875E-1,-1.2629266E0,2.065546E0,6.4463105E0,1.937656E-1,2.1620078E0],"split_indices":[5,5,3,4,6,3,6,0,0,0,0,0,0,0,0],"split_type":[0,0,0,0,0,0,0,0,0,0,0,0,0,0,0],"sum_hessian":[2.16E2,1.79E2,3.7E1,1.08E2,7.1E1,1.7E1,2E1,1.03E2,5E0,5.5E1,1.6E1,1.3E1,4E0,1.6E1,4E0],"tree_param":{"num_deleted":"0","num_feature":"7","num_nodes":"15","size_leaf_vector":"1"}},{"base_weights":[2.2104352E0,-1.2363343E1,2.5085808E1,-2.626307E0,-9.459645E0,5.9617268E1,9.733916E0,1.0798274E0,-7.3481035E-1,1.7172139E0,6.1006584E0,-2.62915E-1,2.5900803E0],"categories":[],"categories_nodes":[],"categories_segments":[],"categories_sizes":[],"default_left":[0,0,0,0,0,0,0,0,0,0,0,0,0],"id":51,"left_children":[1,3,5,-1,7,9,11,-1,-1,-1,-1,-1,-1],"loss_changes":[7.6297695E4,1.5333127E4,4.602035E4,0E0,2.2264254E4,3.4196234E4,4.09088E4,0E0,0E0,0E0,0E0,0E0,0E0],"parents":[2147483647,0,0,1,1,2,2,4,4,5,5,6,6],"right_children":[2,4,6,-1,8,10,12,-1,-1,-1,-1,-1,-1],"split_conditions":[9.743333E2,6.816667E2,1.02E3,-2.626307E0,7.33E2,1.09E3,1.3146666E3,1.0798274E0,-7.3481035E-1,1.7172139E0,6.1006584E0,-2.62915E-1,2.5900803E0],"split_indices":[5,5,1,0,2,5,5,0,0,0,0,0,0],"split_type":[0,0,0,0,0,0,0,0,0,0,0,0,0],"sum_hessian":[2.25E2,1.38E2,8.7E1,7E0,1.31E2,2.5E1,6.2E1,1.8E1,1.13E2,2E1,5E0,4.7E1,1.5E1],"tree_param":{"num_deleted":"0","num_feature":"7","num_nodes":"13","size_leaf_vector":"1"}},{"base_weights":[3.5637887E0,-6.876629E0,4.470305E1,-1.6472672E1,5.021662E0,5.6250443E1,-1.2162532E0,-2.3975387E0,-6.129645E-1,1.6208397E0,-1.6340971E-1,5.184249E0,2.192041E0,1.2343979E0,-2.1088245E0],"categories":[],"categories_nodes":[],"categories_segments":[],"categories_sizes":[],"default_left":[0,0,0,0,0,0,0,0,0,0,0,0,0,0,0],"id":52,"left_children":[1,3,5,7,9,11,13,-1,-1,-1,-1,-1,-1,-1,-1],"loss_changes":[9.553676E4,2.048886E4,2.3998E4,1.1954615E4,1.8607127E4,1.2099953E4,1.3753971E4,0E0,0E0,0E0,0E0,0E0,0E0,0E0,0E0],"parents":[2147483647,0,0,1,1,2,2,3,3,4,4,5,5,6,6],"right_children":[2,4,6,8,10,12,14,-1,-1,-1,-1,-1,-1,-1,-1],"split_conditions":[1.1266666E3,8.833333E2,1.41E3,7.056667E2,8.91E2,1.145E3,1.34E3,-2.3975387E0,-6.129645E-1,1.6208397E0,-1.6340971E-1,5.184249E0,2.192041E0,1.2343979E0,-2.1088245E0],"split_indices":[5,5,3,5,3,0,0,0,0,0,0,0,0,0,0],"split_type":[0,0,0,0,0,0,0,0,0,0,0,0,0,0,0],"sum_hessian":[2.19E2,1.76E2,4.3E1,9.7E1,7.9E1,3.4E1,9E0,9E0,8.8E1,1.7E1,6.2E1,4E0,3E1,6E0,3E0],"tree_param":{"num_deleted":"0","num_feature":"7","num_nodes":"15","size_leaf_vector":"1"}},{"base_weights":[4.066379E0,-1.015787E1,1.9958387E1,-7.7696385E0,-3.0750854E0,2.7765863E1,1.6823578E-1,7.574487E-1,-5.869798E-1,7.1020025E-1,2.798311E0,-1.9807526E0,5.23498E-1],"categories":[],"categories_nodes":[],"categories_segments":[],"categories_sizes":[],"default_left":[0,0,0,0,0,0,0,0,0,0,0,0,0],"id":53,"left_children":[1,3,5,7,-1,9,11,-1,-1,-1,-1,-1,-1],"loss_changes":[5.0815047E4,1.3636208E4,1.6368832E4,1.0910051E4,0E0,2.7476262E4,1.3944303E4,0E0,0E0,0E0,0E0,0E0,0E0],"parents":[2147483647,0,0,1,1,2,2,3,3,5,5,6,6],"right_children":[2,4,6,8,-1,10,12,-1,-1,-1,-1,-1,-1],"split_conditions":[9.55E2,1.03E3,1.2E3,7.33E2,-3.0750854E0,1.1102E3,1.0664E3,7.574487E-1,-5.869798E-1,7.1020025E-1,2.798311E0,-1.9807526E0,5.23498E-1],"split_indices":[6,4,4,1,0,6,6,0,0,0,0,0,0],"split_type":[0,0,0,0,0,0,0,0,0,0,0,0,0],"sum_hessian":[2.21E2,1.17E2,1.04E2,1.14E2,3E0,7.4E1,3E1,1.6E1,9.8E1,5.2E1,2.2E1,5E0,2.5E1],"tree_param":{"num_deleted":"0","num_feature":"7","num_nodes":"13","size_leaf_vector":"1"}},{"base_weights":[-8.50991E-1,-1.174421E1,3.205358E1,-2.0573551E1,-1.8747015E0,5.163908E0,2.2602531E1,-6.9629896E-1,-4.2199364E0,1.5449402E0,-2.637605E-1,-1.5981995E-1,1.5683047E0],"categories":[],"categories_nodes":[],"categories_segments":[],"categories_sizes":[],"default_left":[0,0,0,0,0,0,0,0,0,0,0,0,0],"id":54,"left_children":[1,3,5,7,9,-1,11,-1,-1,-1,-1,-1,-1],"loss_changes":[8.068427E4,1.4649734E4,3.302754E4,3.541047E4,9.464615E3,0E0,1.1957223E4,0E0,0E0,0E0,0E0,0E0,0E0],"parents":[2147483647,0,0,1,1,2,2,3,3,4,4,6,6],"right_children":[2,4,6,8,10,-1,12,-1,-1,-1,-1,-1,-1],"split_conditions":[1.054E3,8.676667E2,1.016E3,8.96E2,8.09E2,5.163908E0,1.1266666E3,-6.9629896E-1,-4.2199364E0,1.5449402E0,-2.637605E-1,-1.5981995E-1,1.5683047E0],"split_indices":[5,5,0,2,2,0,5,0,0,0,0,0,0],"split_type":[0,0,0,0,0,0,0,0,0,0,0,0,0],"sum_hessian":[2.21E2,1.67E2,5.4E1,8.7E1,8E1,4E0,5E1,8.1E1,6E0,6E0,7.4E1,1.3E1,3.7E1],"tree_param":{"num_deleted":"0","num_feature":"7","num_nodes":"13","size_leaf_vector":"1"}},{"base_weights":[-1.3193011E0,-9.0450735E0,3.5345898E1,-3.4932427E0,-6.50891E0,4.8925488E1,-1.2462049E1,-1.9292773E-1,-2.0933242E0,8.57614E-1,3.27575E0,-1.9078553E0,8.693512E-1],"categories":[],"categories_nodes":[],"categories_segments":[],"categories_sizes":[],"default_left":[0,0,0,0,0,0,0,0,0,0,0,0,0],"id":55,"left_children":[1,3,5,-1,7,9,11,-1,-1,-1,-1,-1,-1],"loss_changes":[6.182508E4,2.685531E4,2.5889488E4,0E0,1.6076187E4,1.3565602E4,8.996613E3,0E0,0E0,0E0,0E0,0E0,0E0],"parents":[2147483647,0,0,1,1,2,2,4,4,5,5,6,6],"right_children":[2,4,6,-1,8,10,12,-1,-1,-1,-1,-1,-1],"split_conditions":[1.173E3,6.57E2,1.414E3,-3.4932427E0,1.155E3,1.16E3,1.354E3,-1.9292773E-1,-2.0933242E0,8.57614E-1,3.27575E0,-1.9078553E0,8.693512E-1],"split_indices":[6,0,3,0,2,3,6,0,0,0,0,0,0],"split_type":[0,0,0,0,0,0,0,0,0,0,0,0,0],"sum_hessian":[2.14E2,1.78E2,3.6E1,5E0,1.73E2,2.8E1,8E0,1.63E2,1E1,1.1E1,1.7E1,4E0,4E0],"tree_param":{"num_deleted":"0","num_feature":"7","num_nodes":"13","size_leaf_vector":"1"}},{"base_weights":[3.5660536E0,-8.693195E0,2.6112553E1,-4.6717396E0,-3.55841E1,7.350648E1,1.2137934E1,-5.038824E-1,7.616031E-1,-2.3676126E0,-2.6216215E-1,2.1499348E0,6.171206E0,-5.809383E-1,1.2626488E0],"categories":[],"categories_nodes":[],"categories_segments":[],"categories_sizes":[],"default_left":[0,0,0,0,0,0,0,0,0,0,0,0,0,0,0],"id":56,"left_children":[1,3,5,7,9,11,13,-1,-1,-1,-1,-1,-1,-1,-1],"loss_changes":[5.6563844E4,1.4050218E4,4.590203E4,1.3003586E4,5.5733887E3,1.3751875E4,1.8657883E4,0E0,0E0,0E0,0E0,0E0,0E0,0E0,0E0],"parents":[2147483647,0,0,1,1,2,2,3,3,4,4,5,5,6,6],"right_children":[2,4,6,8,10,12,14,-1,-1,-1,-1,-1,-1,-1,-1],"split_conditions":[9.993333E2,9.76E2,1.02E3,9.126667E2,9.8E2,1.155E3,1.1266666E3,-5.038824E-1,7.616031E-1,-2.3676126E0,-2.6216215E-1,2.1499348E0,6.171206E0,-5.809383E-1,1.2626488E0],"split_indices":[5,1,1,5,5,3,5,0,0,0,0,0,0,0,0],"split_type":[0,0,0,0,0,0,0,0,0,0,0,0,0,0,0],"sum_hessian":[2.01E2,1.31E2,7E1,1.16E2,1.5E1,1.4E1,5.6E1,9.2E1,2.4E1,1E1,5E0,1.1E1,3E0,2E1,3.6E1],"tree_param":{"num_deleted":"0","num_feature":"7","num_nodes":"15","size_leaf_vector":"1"}},{"base_weights":[3.8109918E0,-8.449213E0,1.970942E1,-3.0082514E0,-2.475411E1,1.1463341E1,3.791118E1,-2.581139E-1,1.9776179E0,-2.729023E0,-6.0181487E-1,2.4658518E0,2.890968E-1,3.9777477E0,6.2435913E-1],"categories":[],"categories_nodes":[],"categories_segments":[],"categories_sizes":[],"default_left":[0,0,0,0,0,0,0,0,0,0,0,0,0,0,0],"id":57,"left_children":[1,3,5,7,9,11,13,-1,-1,-1,-1,-1,-1,-1,-1],"loss_changes":[4.438452E4,1.1295214E4,1.3990043E4,9.484351E3,1.0824537E4,1.469912E4,2.97757E4,0E0,0E0,0E0,0E0,0E0,0E0,0E0,0E0],"parents":[2147483647,0,0,1,1,2,2,3,3,4,4,5,5,6,6],"right_children":[2,4,6,8,10,12,14,-1,-1,-1,-1,-1,-1,-1,-1],"split_conditions":[9.55E2,8.91E2,1.1948E3,9.01E2,8.76E2,9.26E2,1.2E3,-2.581139E-1,1.9776179E0,-2.729023E0,-6.0181487E-1,2.4658518E0,2.890968E-1,3.9777477E0,6.2435913E-1],"split_indices":[6,2,6,3,6,3,3,0,0,0,0,0,0,0,0],"split_type":[0,0,0,0,0,0,0,0,0,0,0,0,0,0,0],"sum_hessian":[2.24E2,1.27E2,9.7E1,9.7E1,3E1,6.9E1,2.8E1,9.4E1,3E0,7E0,2.3E1,7E0,6.2E1,9E0,1.9E1],"tree_param":{"num_deleted":"0","num_feature":"7","num_nodes":"15","size_leaf_vector":"1"}},{"base_weights":[3.819197E0,-6.3758483E0,2.7913078E1,-4.038866E0,-3.094806E0,4.408828E1,2.4812667E0,-1.1606947E0,-5.133627E-2,1.4630941E0,4.711255E0,-6.13568E-1,2.9102957E0],"categories":[],"categories_nodes":[],"categories_segments":[],"categories_sizes":[],"default_left":[0,0,0,0,0,0,0,0,0,0,0,0,0],"id":58,"left_children":[1,3,5,7,-1,9,11,-1,-1,-1,-1,-1,-1],"loss_changes":[5.292252E4,1.9221996E4,2.6108547E4,8.500498E3,0E0,2.347618E4,2.3624822E4,0E0,0E0,0E0,0E0,0E0,0E0],"parents":[2147483647,0,0,1,1,2,2,3,3,5,5,6,6],"right_children":[2,4,6,8,-1,10,12,-1,-1,-1,-1,-1,-1],"split_conditions":[1.025E3,1.08E3,1.215E3,7.458E2,-3.094806E0,1.218E3,1.414E3,-1.1606947E0,-5.133627E-2,1.4630941E0,4.711255E0,-6.13568E-1,2.9102957E0],"split_indices":[6,3,2,6,0,6,0,0,0,0,0,0,0],"split_type":[0,0,0,0,0,0,0,0,0,0,0,0,0],"sum_hessian":[2.12E2,1.5E2,6.2E1,1.46E2,4E0,3.7E1,2.5E1,1.8E1,1.28E2,3.1E1,6E0,2.1E1,4E0],"tree_param":{"num_deleted":"0","num_feature":"7","num_nodes":"13","size_leaf_vector":"1"}},{"base_weights":[-6.6686535E-1,-8.289392E0,1.6636806E1,-5.0601335E0,-5.140472E1,4.8846165E1,8.429947E0,-1.9289541E0,-1.4549261E-1,1.8239136E-1,-3.6480691E0,3.2878778E0,6.573452E-1,-3.4394804E-2,1.8917786E0],"categories":[],"categories_nodes":[],"categories_segments":[],"categories_sizes":[],"default_left":[0,0,0,0,0,0,0,0,0,0,0,0,0,0,0],"id":59,"left_children":[1,3,5,7,9,11,13,-1,-1,-1,-1,-1,-1,-1,-1],"loss_changes":[3.0612291E4,2.1895889E4,1.7944432E4,1.0730906E4,1.3586543E4,6.723121E3,1.587089E4,0E0,0E0,0E0,0E0,0E0,0E0,0E0,0E0],"parents":[2147483647,0,0,1,1,2,2,3,3,4,4,5,5,6,6],"right_children":[2,4,6,8,10,12,14,-1,-1,-1,-1,-1,-1,-1,-1],"split_conditions":[1.0126667E3,1.08E3,1.02E3,6.816667E2,9.66E2,1.08E3,1.3146666E3,-1.9289541E0,-1.4549261E-1,1.8239136E-1,-3.6480691E0,3.2878778E0,6.573452E-1,-3.4394804E-2,1.8917786E0],"split_indices":[5,3,1,5,1,0,5,0,0,0,0,0,0,0,0],"split_type":[0,0,0,0,0,0,0,0,0,0,0,0,0,0,0],"sum_hessian":[2.28E2,1.59E2,6.9E1,1.5E2,9E0,1.2E1,5.7E1,7E0,1.43E2,3E0,6E0,7E0,5E0,4.5E1,1.2E1],"tree_param":{"num_deleted":"0","num_feature":"7","num_nodes":"15","size_leaf_vector":"1"}},{"base_weights":[3.0281065E0,-6.673352E0,2.9929562E1,-4.1956925E0,-4.473346E1,8.313949E1,1.5961997E1,-1.6243552E0,-8.2696885E-2,1.7692016E-1,-3.3216188E0,1.5806938E0,6.206357E0,4.420487E-1,3.261792E0],"categories":[],"categories_nodes":[],"categories_segments":[],"categories_sizes":[],"default_left":[0,0,0,0,0,0,0,0,0,0,0,0,0,0,0],"id":60,"left_children":[1,3,5,7,9,11,13,-1,-1,-1,-1,-1,-1,-1,-1],"loss_changes":[5.9120707E4,1.5372719E4,4.1938637E4,1.13262E4,1.09446E4,1.7494688E4,1.6390512E4,0E0,0E0,0E0,0E0,0E0,0E0,0E0,0E0],"parents":[2147483647,0,0,1,1,2,2,3,3,4,4,5,5,6,6],"right_children":[2,4,6,8,10,12,14,-1,-1,-1,-1,-1,-1,-1,-1],"split_conditions":[1.0416666E3,1.095E3,1.016E3,7.12E2,9.66E2,1.09E3,1.439E3,-1.6243552E0,-8.2696885E-2,1.7692016E-1,-3.3216188E0,1.5806938E0,6.206357E0,4.420487E-1,3.261792E0],"split_indices":[5,3,1,5,1,5,5,0,0,0,0,0,0,0,0],"split_type":[0,0,0,0,0,0,0,0,0,0,0,0,0,0,0],"sum_hessian":[2.23E2,1.65E2,5.8E1,1.57E2,8E0,1E1,4.8E1,1.1E1,1.46E2,3E0,5E0,6E0,4E0,4.4E1,4E0],"tree_param":{"num_deleted":"0","num_feature":"7","num_nodes":"15","size_leaf_vector":"1"}},{"base_weights":[-4.985829E-1,-5.0634437E0,2.9510576E1,-1.7133984E1,-1.4691076E-1,6.0870007E1,7.74386E0,-4.2130312E-1,-1.3434174E0,2.2626188E0,-1.5856767E-1,3.8656487E0,1.3517805E0,-7.395181E-1,2.262139E0],"categories":[],"categories_nodes":[],"categories_segments":[],"categories_sizes":[],"default_left":[0,0,0,0,0,0,0,0,0,0,0,0,0,0,0],"id":61,"left_children":[1,3,5,7,9,11,13,-1,-1,-1,-1,-1,-1,-1,-1],"loss_changes":[3.1121066E4,1.1685971E4,1.9535018E4,4.378879E3,1.9784691E4,2.4956445E3,1.8238494E4,0E0,0E0,0E0,0E0,0E0,0E0,0E0,0E0],"parents":[2147483647,0,0,1,1,2,2,3,3,4,4,5,5,6,6],"right_children":[2,4,6,8,10,12,14,-1,-1,-1,-1,-1,-1,-1,-1],"split_conditions":[1.1948E3,8.12E2,1.3E3,7.8E2,8.09E2,1.215E3,1.353E3,-4.2130312E-1,-1.3434174E0,2.2626188E0,-1.5856767E-1,3.8656487E0,1.3517805E0,-7.395181E-1,2.262139E0],"split_indices":[6,6,1,3,1,2,6,0,0,0,0,0,0,0,0],"split_type":[0,0,0,0,0,0,0,0,0,0,0,0,0,0,0],"sum_hessian":[2.23E2,1.95E2,2.8E1,5.5E1,1.4E2,1E1,1.8E1,3.1E1,2.4E1,7E0,1.33E2,5E0,5E0,1.2E1,6E0],"tree_param":{"num_deleted":"0","num_feature":"7","num_nodes":"15","size_leaf_vector":"1"}},{"base_weights":[4.0937963E-1,-1.1723569E1,1.5854306E1,-7.6401925E0,-5.5521008E1,3.426821E1,1.8064706E0,-1.7218294E0,-2.1849644E-1,-4.347233E0,-8.6062014E-1,9.346383E-1,4.692187E0,-3.3033514E-1,1.6877946E0],"categories":[],"categories_nodes":[],"categories_segments":[],"categories_sizes":[],"default_left":[0,0,0,0,0,0,0,0,0,0,0,0,0,0,0],"id":62,"left_children":[1,3,5,7,9,11,13,-1,-1,-1,-1,-1,-1,-1,-1],"loss_changes":[4.047373E4,2.0791432E4,2.4450367E4,9.601364E3,9.044906E3,3.4536125E4,1.5498605E4,0E0,0E0,0E0,0E0,0E0,0E0,0E0,0E0],"parents":[2147483647,0,0,1,1,2,2,3,3,4,4,5,5,6,6],"right_children":[2,4,6,8,10,12,14,-1,-1,-1,-1,-1,-1,-1,-1],"split_conditions":[9.526667E2,9.56E2,1.021E3,7.12E2,9.193333E2,1.0716666E3,1.3146666E3,-1.7218294E0,-2.1849644E-1,-4.347233E0,-8.6062014E-1,9.346383E-1,4.692187E0,-3.3033514E-1,1.6877946E0],"split_indices":[5,1,1,5,5,5,5,0,0,0,0,0,0,0,0],"split_type":[0,0,0,0,0,0,0,0,0,0,0,0,0,0,0],"sum_hessian":[2.12E2,1.19E2,9.3E1,1.11E2,8E0,3.9E1,5.4E1,1E1,1.01E2,3E0,5E0,3.3E1,6E0,4.4E1,1E1],"tree_param":{"num_deleted":"0","num_feature":"7","num_nodes":"15","size_leaf_vector":"1"}},{"base_weights":[-2.8470075E0,-8.642435E0,1.0731809E1,-6.635039E0,-3.330589E0,5.165528E1,-2.027421E0,-2.1744294E0,-2.65906E-1,2.8245696E-1,3.302457E0,-3.5791087E-1,1.4311432E0],"categories":[],"categories_nodes":[],"categories_segments":[],"categories_sizes":[],"default_left":[0,0,0,0,0,0,0,0,0,0,0,0,0],"id":63,"left_children":[1,3,5,7,-1,9,11,-1,-1,-1,-1,-1,-1],"loss_changes":[1.7577104E4,1.7269375E4,3.5193637E4,6.963014E3,0E0,9.849051E3,8.744576E3,0E0,0E0,0E0,0E0,0E0,0E0],"parents":[2147483647,0,0,1,1,2,2,3,3,5,5,6,6],"right_children":[2,4,6,8,-1,10,12,-1,-1,-1,-1,-1,-1],"split_conditions":[1.01E3,1.07E3,1.021E3,6.05E2,-3.330589E0,9.76E2,1.354E3,-2.1744294E0,-2.65906E-1,2.8245696E-1,3.302457E0,-3.5791087E-1,1.4311432E0],"split_indices":[6,3,1,0,0,1,6,0,0,0,0,0,0],"split_type":[0,0,0,0,0,0,0,0,0,0,0,0,0],"sum_hessian":[2.19E2,1.54E2,6.5E1,1.51E2,3E0,1.4E1,5.1E1,3E0,1.48E2,4E0,1E1,4.5E1,6E0],"tree_param":{"num_deleted":"0","num_feature":"7","num_nodes":"13","size_leaf_vector":"1"}},{"base_weights":[-3.3856913E-1,-1.2734062E1,6.5049934E0,-9.099395E0,-4.317122E1,3.1376938E1,1.5461589E0,-7.0242643E-1,1.4883121E0,-2.948511E0,-5.0518674E-1,8.128447E-1,2.0834882E0,-4.5830917E-2,3.0017176E0],"categories":[],"categories_nodes":[],"categories_segments":[],"categories_sizes":[],"default_left":[0,0,0,0,0,0,0,0,0,0,0,0,0,0,0],"id":64,"left_children":[1,3,5,7,9,11,13,-1,-1,-1,-1,-1,-1,-1,-1],"loss_changes":[1.9082611E4,8.0646514E3,1.7786674E4,1.5070334E4,2.9878262E3,2.3802285E3,1.7827393E4,0E0,0E0,0E0,0E0,0E0,0E0,0E0,0E0],"parents":[2147483647,0,0,1,1,2,2,3,3,4,4,5,5,6,6],"right_children":[2,4,6,8,10,12,14,-1,-1,-1,-1,-1,-1,-1,-1],"split_conditions":[8.55E2,8.95E2,8.56E2,8.71E2,7.8E2,9.45E2,1.494E3,-7.0242643E-1,1.4883121E0,-2.948511E0,-5.0518674E-1,8.128447E-1,2.0834882E0,-4.5830917E-2,3.0017176E0],"split_indices":[0,2,4,4,0,0,0,0,0,0,0,0,0,0,0],"split_type":[0,0,0,0,0,0,0,0,0,0,0,0,0,0,0],"sum_hessian":[2.21E2,7.8E1,1.43E2,7.2E1,6E0,2.2E1,1.21E2,6.5E1,7E0,3E0,3E0,1.1E1,1.1E1,1.18E2,3E0],"tree_param":{"num_deleted":"0","num_feature":"7","num_nodes":"15","size_leaf_vector":"1"}},{"base_weights":[4.577028E0,-1.5133268E0,2.9717016E1,-1.7236584E0,4.3184906E-1,4.0226925E1,-8.171253E0,1.4181354E0,-1.5098871E-1,9.34998E-1,2.762674E0,8.5042983E-1,-1.7411997E0],"categories":[],"categories_nodes":[],"categories_segments":[],"categories_sizes":[],"default_left":[0,0,0,0,0,0,0,0,0,0,0,0,0],"id":65,"left_children":[1,3,5,-1,7,9,11,-1,-1,-1,-1,-1,-1],"loss_changes":[3.377446E4,1.1505946E4,1.778011E4,0E0,1.665686E4,8.931715E3,8.566848E3,0E0,0E0,0E0,0E0,0E0,0E0],"parents":[2147483647,0,0,1,1,2,2,4,4,5,5,6,6],"right_children":[2,4,6,-1,8,10,12,-1,-1,-1,-1,-1,-1],"split_conditions":[1.1266666E3,6.816667E2,1.414E3,-1.7236584E0,7.33E2,1.16E3,1.34E3,1.4181354E0,-1.5098871E-1,9.34998E-1,2.762674E0,8.5042983E-1,-1.7411997E0],"split_indices":[5,5,3,0,2,3,0,0,0,0,0,0,0],"split_type":[0,0,0,0,0,0,0,0,0,0,0,0,0],"sum_hessian":[2.18E2,1.77E2,4.1E1,8E0,1.69E2,3.2E1,9E0,1.7E1,1.52E2,1.5E1,1.7E1,5E0,4E0],"tree_param":{"num_deleted":"0","num_feature":"7","num_nodes":"13","size_leaf_vector":"1"}},{"base_weights":[1.3160462E0,-6.8024073E0,1.8517801E1,-4.834204E0,-3.1957405E0,5.5973045E1,7.732726E0,-3.744318E-1,3.4703517E-1,1.4741497E0,5.122898E0,1.0742223E-1,1.913954E0],"categories":[],"categories_nodes":[],"categories_segments":[],"categories_sizes":[],"default_left":[0,0,0,0,0,0,0,0,0,0,0,0,0],"id":66,"left_children":[1,3,5,7,-1,9,11,-1,-1,-1,-1,-1,-1],"loss_changes":[3.1813203E4,1.6805404E4,2.8623262E4,4.8548164E3,0E0,1.3660672E4,9.899706E3,0E0,0E0,0E0,0E0,0E0,0E0],"parents":[2147483647,0,0,1,1,2,2,3,3,5,5,6,6],"right_children":[2,4,6,8,-1,10,12,-1,-1,-1,-1,-1,-1],"split_conditions":[1.0168E3,1.07E3,1.02E3,9.55E2,-3.1957405E0,1.0756E3,1.354E3,-3.744318E-1,3.4703517E-1,1.4741497E0,5.122898E0,1.0742223E-1,1.913954E0],"split_indices":[6,3,1,6,0,6,6,0,0,0,0,0,0],"split_type":[0,0,0,0,0,0,0,0,0,0,0,0,0],"sum_hessian":[2.24E2,1.53E2,7.1E1,1.5E2,3E0,1.4E1,5.7E1,1.23E2,2.7E1,1.1E1,3E0,5E1,7E0],"tree_param":{"num_deleted":"0","num_feature":"7","num_nodes":"13","size_leaf_vector":"1"}},{"base_weights":[5.3130835E-1,-1.000393E1,1.2422387E1,-5.0746827E0,-4.202586E1,3.6966476E1,1.46279E-1,-4.9184036E-1,4.6170077E-1,-3.7782128E0,-6.521091E-1,8.13894E-1,3.357586E0,-6.99873E-1,7.926709E-1],"categories":[],"categories_nodes":[],"categories_segments":[],"categories_sizes":[],"default_left":[0,0,0,0,0,0,0,0,0,0,0,0,0,0,0],"id":67,"left_children":[1,3,5,7,9,11,13,-1,-1,-1,-1,-1,-1,-1,-1],"loss_changes":[2.8811326E4,1.8830434E4,3.253022E4,7.5407646E3,1.3582008E4,2.0295469E4,1.688348E4,0E0,0E0,0E0,0E0,0E0,0E0,0E0,0E0],"parents":[2147483647,0,0,1,1,2,2,3,3,4,4,5,5,6,6],"right_children":[2,4,6,8,10,12,14,-1,-1,-1,-1,-1,-1,-1,-1],"split_conditions":[9.266667E2,9.11E2,9.9E2,8.71E2,8.676667E2,9.973333E2,1.1233334E3,-4.9184036E-1,4.6170077E-1,-3.7782128E0,-6.521091E-1,8.13894E-1,3.357586E0,-6.99873E-1,7.926709E-1],"split_indices":[5,2,1,4,5,5,5,0,0,0,0,0,0,0,0],"split_type":[0,0,0,0,0,0,0,0,0,0,0,0,0,0,0],"sum_hessian":[2.26E2,1.2E2,1.06E2,1.06E2,1.4E1,3.4E1,7.2E1,8E1,2.6E1,5E0,9E0,2.2E1,1.2E1,3.8E1,3.4E1],"tree_param":{"num_deleted":"0","num_feature":"7","num_nodes":"15","size_leaf_vector":"1"}},{"base_weights":[1.3326107E0,-6.4157677E0,1.1821071E1,-3.2542048E0,-3.2824165E1,4.6867744E1,4.8640604E0,-1.8176383E0,-7.506078E-2,-8.535536E-1,-2.1849906E0,1.0489582E0,3.3755767E0,-1.1014264E0,4.7599444E-1],"categories":[],"categories_nodes":[],"categories_segments":[],"categories_sizes":[],"default_left":[0,0,0,0,0,0,0,0,0,0,0,0,0,0,0],"id":68,"left_children":[1,3,5,7,9,11,13,-1,-1,-1,-1,-1,-1,-1,-1],"loss_changes":[1.8762184E4,1.0890779E4,2.3438434E4,6.9114453E3,9.065449E2,5.7183477E3,1.093683E4,0E0,0E0,0E0,0E0,0E0,0E0,0E0,0E0],"parents":[2147483647,0,0,1,1,2,2,3,3,4,4,5,5,6,6],"right_children":[2,4,6,8,10,12,14,-1,-1,-1,-1,-1,-1,-1,-1],"split_conditions":[9.55E2,9.51E2,9.61E2,6.17E2,9.45E2,1.025E3,9.91E2,-1.8176383E0,-7.506078E-2,-8.535536E-1,-2.1849906E0,1.0489582E0,3.3755767E0,-1.1014264E0,4.7599444E-1],"split_indices":[6,1,3,0,2,6,3,0,0,0,0,0,0,0,0],"split_type":[0,0,0,0,0,0,0,0,0,0,0,0,0,0,0],"sum_hessian":[2.27E2,1.31E2,9.6E1,1.19E2,1.2E1,1.4E1,8.2E1,4E0,1.15E2,7E0,5E0,8E0,6E0,1.1E1,7.1E1],"tree_param":{"num_deleted":"0","num_feature":"7","num_nodes":"15","size_leaf_vector":"1"}},{"base_weights":[2.9142182E0,-3.0997713E0,2.5771502E1,-1.6869522E0,-1.5858331E0,3.6964276E0,1.605544E1,1.3960087E0,-2.5527045E-1,3.3064649E-1,2.6086128E0],"categories":[],"categories_nodes":[],"categories_segments":[],"categories_sizes":[],"default_left":[0,0,0,0,0,0,0,0,0,0,0],"id":69,"left_children":[1,3,5,-1,7,-1,9,-1,-1,-1,-1],"loss_changes":[2.9714412E4,7.871377E3,1.868145E4,0E0,1.752396E4,0E0,1.2951314E4,0E0,0E0,0E0,0E0],"parents":[2147483647,0,0,1,1,2,2,4,4,6,6],"right_children":[2,4,6,-1,8,-1,10,-1,-1,-1,-1],"split_conditions":[1.1266666E3,6.816667E2,1.145E3,-1.6869522E0,7.33E2,3.6964276E0,1.439E3,1.3960087E0,-2.5527045E-1,3.3064649E-1,2.6086128E0],"split_indices":[5,5,0,0,2,0,5,0,0,0,0],"split_type":[0,0,0,0,0,0,0,0,0,0,0],"sum_hessian":[2.13E2,1.7E2,4.3E1,6E0,1.64E2,5E0,3.8E1,1.6E1,1.48E2,3.2E1,6E0],"tree_param":{"num_deleted":"0","num_feature":"7","num_nodes":"11","size_leaf_vector":"1"}},{"base_weights":[2.854085E0,-4.7022686E0,2.1773846E1,-2.8699737E0,-2.553995E0,7.685798E1,1.1159758E1,-5.2715898E-2,-1.1409825E0,5.138765E0,1.8193095E0,2.5949628E0,2.565212E-1],"categories":[],"categories_nodes":[],"categories_segments":[],"categories_sizes":[],"default_left":[0,0,0,0,0,0,0,0,0,0,0,0,0],"id":70,"left_children":[1,3,5,7,-1,9,11,-1,-1,-1,-1,-1,-1],"loss_changes":[3.2085838E4,1.338818E4,3.5703316E4,5.638696E3,0E0,3.009996E3,1.3222863E4,0E0,0E0,0E0,0E0,0E0,0E0],"parents":[2147483647,0,0,1,1,2,2,3,3,5,5,6,6],"right_children":[2,4,6,8,-1,10,12,-1,-1,-1,-1,-1,-1],"split_conditions":[1.025E3,1.08E3,1.02E3,1.011E3,-2.553995E0,1.041E3,9.61E2,-5.2715898E-2,-1.1409825E0,5.138765E0,1.8193095E0,2.5949628E0,2.565212E-1],"split_indices":[6,3,1,1,0,4,3,0,0,0,0,0,0],"split_type":[0,0,0,0,0,0,0,0,0,0,0,0,0],"sum_hessian":[2.21E2,1.59E2,6.2E1,1.55E2,4E0,8E0,5.4E1,1.44E2,1.1E1,3E0,5E0,5E0,4.9E1],"tree_param":{"num_deleted":"0","num_feature":"7","num_nodes":"13","size_leaf_vector":"1"}},{"base_weights":[8.2108516E-1,-7.821675E0,1.7383648E1,2.3311641E0,-1.2735143E1,2.6013508E1,-4.0141683E0,-1.621714E0,4.421073E-1,-1.826085E0,-3.7142274E-1,7.501612E-1,3.056572E0,-1.2635732E0,1.1885209E0],"categories":[],"categories_nodes":[],"categories_segments":[],"categories_sizes":[],"default_left":[0,0,0,0,0,0,0,0,0,0,0,0,0,0,0],"id":71,"left_children":[1,3,5,7,9,11,13,-1,-1,-1,-1,-1,-1,-1,-1],"loss_changes":[3.0905236E4,7.1431367E3,1.3873695E4,1.1438722E4,1.1575272E4,1.8658562E4,1.4785805E4,0E0,0E0,0E0,0E0,0E0,0E0,0E0,0E0],"parents":[2147483647,0,0,1,1,2,2,3,3,4,4,5,5,6,6],"right_children":[2,4,6,8,10,12,14,-1,-1,-1,-1,-1,-1,-1,-1],"split_conditions":[9.843333E2,7.95E2,1.225E3,6.816667E2,8E2,1.215E3,1.291E3,-1.621714E0,4.421073E-1,-1.826085E0,-3.7142274E-1,7.501612E-1,3.056572E0,-1.2635732E0,1.1885209E0],"split_indices":[5,2,2,5,5,5,5,0,0,0,0,0,0,0,0],"split_type":[0,0,0,0,0,0,0,0,0,0,0,0,0,0,0],"sum_hessian":[2.12E2,1.4E2,7.2E1,4.6E1,9.4E1,5.1E1,2.1E1,6E0,4E1,1.5E1,7.9E1,4.1E1,1E1,1.2E1,9E0],"tree_param":{"num_deleted":"0","num_feature":"7","num_nodes":"15","size_leaf_vector":"1"}},{"base_weights":[-2.924418E0,-4.450924E0,2.7265556E0,-1.8783218E1,2.6610607E-1,-2.9096723E-1,-1.5002334E0,2.0269187E-1,-6.733003E-1],"categories":[],"categories_nodes":[],"categories_segments":[],"categories_sizes":[],"default_left":[0,0,0,0,0,0,0,0,0],"id":72,"left_children":[1,3,-1,5,7,-1,-1,-1,-1],"loss_changes":[2.0307027E4,1.5018498E4,0E0,7.651824E3,8.899468E3,0E0,0E0,0E0,0E0],"parents":[2147483647,0,0,1,1,3,3,4,4],"right_children":[2,4,-1,6,8,-1,-1,-1,-1],"split_conditions":[1.494E3,8.07E2,2.7265556E0,7.95E2,1.12E3,-2.9096723E-1,-1.5002334E0,2.0269187E-1,-6.733003E-1],"split_indices":[0,0,0,4,4,0,0,0,0],"split_type":[0,0,0,0,0,0,0,0,0],"sum_hessian":[2.24E2,2.2E2,4E0,5.3E1,1.67E2,2.6E1,2.7E1,1.32E2,3.5E1],"tree_param":{"num_deleted":"0","num_feature":"7","num_nodes":"9","size_leaf_vector":"1"}},{"base_weights":[1.0069246E0,-5.372755E-1,2.8517294E0,2.8346977E0,-1.6747711E1,1.8420858E-2,1.520396E0,-1.3800595E0,-8.107469E-2],"categories":[],"categories_nodes":[],"categories_segments":[],"categories_sizes":[],"default_left":[0,0,0,0,0,0,0,0,0],"id":73,"left_children":[1,3,-1,5,7,-1,-1,-1,-1],"loss_changes":[1.9354781E4,1.2065742E4,0E0,1.2422198E4,6.1490293E3,0E0,0E0,0E0,0E0],"parents":[2147483647,0,0,1,1,3,3,4,4],"right_children":[2,4,-1,6,8,-1,-1,-1,-1],"split_conditions":[1.3724E3,1.14E3,2.8517294E0,1.1102E3,1.3E3,1.8420858E-2,1.520396E0,-1.3800595E0,-8.107469E-2],"split_indices":[6,4,0,6,4,0,0,0,0],"split_type":[0,0,0,0,0,0,0,0,0],"sum_hessian":[2.21E2,2.17E2,4E0,1.81E2,3.6E1,1.68E2,1.3E1,2E1,1.6E1],"tree_param":{"num_deleted":"0","num_feature":"7","num_nodes":"9","size_leaf_vector":"1"}},{"base_weights":[9.3735084E-2,-5.7386813E0,1.3964976E1,-8.378637E-1,-2.6429619E1,5.6463737E1,2.4295576E0,-2.644385E-1,1.0067452E0,-6.6609335E-1,-3.7210004E0,5.0283065E0,9.354779E-1,6.995274E-1,-7.1846074E-1],"categories":[],"categories_nodes":[],"categories_segments":[],"categories_sizes":[],"default_left":[0,0,0,0,0,0,0,0,0,0,0,0,0,0,0],"id":74,"left_children":[1,3,5,7,9,11,13,-1,-1,-1,-1,-1,-1,-1,-1],"loss_changes":[1.8039812E4,1.5875906E4,3.2081541E4,1.2254849E4,1.6888555E4,1.9547598E4,1.088943E4,0E0,0E0,0E0,0E0,0E0,0E0,0E0,0E0],"parents":[2147483647,0,0,1,1,2,2,3,3,4,4,5,5,6,6],"right_children":[2,4,6,8,10,12,14,-1,-1,-1,-1,-1,-1,-1,-1],"split_conditions":[1.0166667E3,9.66E2,1.02E3,9.16E2,1.11E3,1.035E3,1.235E3,-2.644385E-1,1.0067452E0,-6.6609335E-1,-3.7210004E0,5.0283065E0,9.354779E-1,6.995274E-1,-7.1846074E-1],"split_indices":[5,1,1,5,4,0,1,0,0,0,0,0,0,0,0],"split_type":[0,0,0,0,0,0,0,0,0,0,0,0,0,0,0],"sum_hessian":[2.19E2,1.55E2,6.4E1,1.27E2,2.8E1,1.2E1,5.2E1,1.06E2,2.1E1,2.4E1,4E0,4E0,8E0,3.1E1,2.1E1],"tree_param":{"num_deleted":"0","num_feature":"7","num_nodes":"15","size_leaf_vector":"1"}},{"base_weights":[2.634966E0,-4.767829E0,1.54855385E1,-1.5395315E0,-2.6864033E1,4.598288E1,4.2176948E0,-4.1643158E-1,4.350569E-1,-2.4548426E0,-7.194517E-1,1.5230372E0,4.4839134E0,-1.5430896E-1,1.348579E0],"categories":[],"categories_nodes":[],"categories_segments":[],"categories_sizes":[],"default_left":[0,0,0,0,0,0,0,0,0,0,0,0,0,0,0],"id":75,"left_children":[1,3,5,7,9,11,13,-1,-1,-1,-1,-1,-1,-1,-1],"loss_changes":[2.2408121E4,1.061725E4,2.9165094E4,9.391753E3,3.8568213E3,1.013632E4,1.0968927E4,0E0,0E0,0E0,0E0,0E0,0E0,0E0,0E0],"parents":[2147483647,0,0,1,1,2,2,3,3,4,4,5,5,6,6],"right_children":[2,4,6,8,10,12,14,-1,-1,-1,-1,-1,-1,-1,-1],"split_conditions":[9.843333E2,9.75E2,1.02E3,8.56E2,9.45E2,1.1733334E3,1.3146666E3,-4.1643158E-1,4.350569E-1,-2.4548426E0,-7.194517E-1,1.5230372E0,4.4839134E0,-1.5430896E-1,1.348579E0],"split_indices":[5,1,1,5,5,5,5,0,0,0,0,0,0,0,0],"split_type":[0,0,0,0,0,0,0,0,0,0,0,0,0,0,0],"sum_hessian":[2.32E2,1.48E2,8.4E1,1.31E2,1.7E1,2.1E1,6.3E1,7.9E1,5.2E1,4E0,1.3E1,1.8E1,3E0,4.9E1,1.4E1],"tree_param":{"num_deleted":"0","num_feature":"7","num_nodes":"15","size_leaf_vector":"1"}},{"base_weights":[-1.568887E-1,-3.2967143E0,3.0508732E1,-9.641503E0,3.4274545E0,4.431816E1,-1.5704359E0,-2.6056585E-1,-2.5564516E0,1.2911228E0,-1.3698836E-1,2.4818726E-1,2.7426589E0],"categories":[],"categories_nodes":[],"categories_segments":[],"categories_sizes":[],"default_left":[0,0,0,0,0,0,0,0,0,0,0,0,0],"id":76,"left_children":[1,3,5,7,9,11,-1,-1,-1,-1,-1,-1,-1],"loss_changes":[2.1768928E4,8.812095E3,2.0739893E4,1.8949633E4,1.40911045E4,6.9182305E3,0E0,0E0,0E0,0E0,0E0,0E0,0E0],"parents":[2147483647,0,0,1,1,2,2,3,3,4,4,5,5],"right_children":[2,4,6,8,10,12,-1,-1,-1,-1,-1,-1,-1],"split_conditions":[1.25E3,8.95E2,1.444E3,9.11E2,8.75E2,1.035E3,-1.5704359E0,-2.6056585E-1,-2.5564516E0,1.2911228E0,-1.3698836E-1,2.4818726E-1,2.7426589E0],"split_indices":[5,5,2,2,4,4,0,0,0,0,0,0,0],"split_type":[0,0,0,0,0,0,0,0,0,0,0,0,0],"sum_hessian":[2.22E2,2.03E2,1.9E1,1.04E2,9.9E1,1.6E1,3E0,9.6E1,8E0,2E1,7.9E1,4E0,1.2E1],"tree_param":{"num_deleted":"0","num_feature":"7","num_nodes":"13","size_leaf_vector":"1"}},{"base_weights":[-1.2514152E-1,-2.6501477E0,3.3346832E1,2.7520934E-1,-4.406237E1,4.691112E1,1.251927E-1,-1.9544965E-1,2.027336E0,-1.1926956E0,-2.6627617E0,8.301717E-1,2.9742982E0],"categories":[],"categories_nodes":[],"categories_segments":[],"categories_sizes":[],"default_left":[0,0,0,0,0,0,0,0,0,0,0,0,0],"id":77,"left_children":[1,3,5,7,9,11,-1,-1,-1,-1,-1,-1,-1],"loss_changes":[1.9277576E4,2.5707105E4,6.4588926E3,3.4017816E4,6.013867E1,2.216916E3,0E0,0E0,0E0,0E0,0E0,0E0,0E0],"parents":[2147483647,0,0,1,1,2,2,3,3,4,4,5,5],"right_children":[2,4,6,8,10,12,-1,-1,-1,-1,-1,-1,-1],"split_conditions":[1.3096666E3,1.235E3,1.419E3,1.1266666E3,1.2216666E3,1.409E3,1.251927E-1,-1.9544965E-1,2.027336E0,-1.1926956E0,-2.6627617E0,8.301717E-1,2.9742982E0],"split_indices":[5,1,1,5,5,0,0,0,0,0,0,0,0],"split_type":[0,0,0,0,0,0,0,0,0,0,0,0,0],"sum_hessian":[2.24E2,2.1E2,1.4E1,1.98E2,1.2E1,9E0,5E0,1.81E2,1.7E1,6E0,6E0,4E0,5E0],"tree_param":{"num_deleted":"0","num_feature":"7","num_nodes":"13","size_leaf_vector":"1"}},{"base_weights":[1.3194925E0,-7.2662606E0,9.961347E0,-2.4330678E0,-3.6585434E1,3.3926785E1,5.2653565E0,-2.6417428E-1,2.056711E0,-2.954633E0,-4.2244568E-1,2.092287E0,7.2782594E-1,1.1516052E-1,2.7646496E0],"categories":[],"categories_nodes":[],"categories_segments":[],"categories_sizes":[],"default_left":[0,0,0,0,0,0,0,0,0,0,0,0,0,0,0],"id":78,"left_children":[1,3,5,7,9,11,13,-1,-1,-1,-1,-1,-1,-1,-1],"loss_changes":[1.5800295E4,1.4984428E4,1.1572122E4,1.2108049E4,8.500588E3,1.3894121E3,1.3230514E4,0E0,0E0,0E0,0E0,0E0,0E0,0E0,0E0],"parents":[2147483647,0,0,1,1,2,2,3,3,4,4,5,5,6,6],"right_children":[2,4,6,8,10,12,14,-1,-1,-1,-1,-1,-1,-1,-1],"split_conditions":[9.193333E2,9.11E2,8.56E2,9.5E2,8.676667E2,1.035E3,1.494E3,-2.6417428E-1,2.056711E0,-2.954633E0,-4.2244568E-1,2.092287E0,7.2782594E-1,1.1516052E-1,2.7646496E0],"split_indices":[5,2,4,3,5,0,0,0,0,0,0,0,0,0,0],"split_type":[0,0,0,0,0,0,0,0,0,0,0,0,0,0,0],"sum_hessian":[2.09E2,1.05E2,1.04E2,9.2E1,1.3E1,1.5E1,8.9E1,8.8E1,4E0,6E0,7E0,9E0,6E0,8.6E1,3E0],"tree_param":{"num_deleted":"0","num_feature":"7","num_nodes":"15","size_leaf_vector":"1"}},{"base_weights":[1.9130273E0,-1.4859657E0,1.2794486E1,-3.344799E-2,-1.8064667E0,2.718473E1,-3.6094427E0,-7.663465E-1,9.393387E-2,2.069071E0,4.208482E-1,-9.91415E-1,1.1793385E0],"categories":[],"categories_nodes":[],"categories_segments":[],"categories_sizes":[],"default_left":[0,0,0,0,0,0,0,0,0,0,0,0,0],"id":79,"left_children":[1,3,5,7,-1,9,11,-1,-1,-1,-1,-1,-1],"loss_changes":[8.39686E3,8.753283E3,1.2943297E4,4.999665E3,0E0,7.0301523E3,1.2844842E4,0E0,0E0,0E0,0E0,0E0,0E0],"parents":[2147483647,0,0,1,1,2,2,3,3,5,5,6,6],"right_children":[2,4,6,8,-1,10,12,-1,-1,-1,-1,-1,-1],"split_conditions":[1.0724E3,1.095E3,1.225E3,7.458E2,-1.8064667E0,1.16E3,1.354E3,-7.663465E-1,9.393387E-2,2.069071E0,4.208482E-1,-9.91415E-1,1.1793385E0],"split_indices":[6,3,1,6,0,2,6,0,0,0,0,0,0],"split_type":[0,0,0,0,0,0,0,0,0,0,0,0,0],"sum_hessian":[2.24E2,1.72E2,5.2E1,1.67E2,5E0,2.7E1,2.5E1,1.7E1,1.5E2,1.4E1,1.3E1,1.6E1,9E0],"tree_param":{"num_deleted":"0","num_feature":"7","num_nodes":"13","size_leaf_vector":"1"}},{"base_weights":[2.2797496E0,1.089374E0,2.268267E0,-5.188465E0,6.861357E0,-9.313666E-2,-1.6937178E0,1.1263465E0,-1.491742E-1],"categories":[],"categories_nodes":[],"categories_segments":[],"categories_sizes":[],"default_left":[0,0,0,0,0,0,0,0,0],"id":80,"left_children":[1,3,-1,5,7,-1,-1,-1,-1],"loss_changes":[1.1440968E4,8.0792637E3,0E0,1.0081771E4,1.8024521E4,0E0,0E0,0E0,0E0],"parents":[2147483647,0,0,1,1,3,3,4,4],"right_children":[2,4,-1,6,8,-1,-1,-1,-1],"split_conditions":[1.494E3,9E2,2.268267E0,8.95E2,9.9E2,-9.313666E-2,-1.6937178E0,1.1263465E0,-1.491742E-1],"split_indices":[0,6,0,1,1,0,0,0,0],"split_type":[0,0,0,0,0,0,0,0,0],"sum_hessian":[2.23E2,2.19E2,4E0,1.05E2,1.14E2,9.6E1,9E0,4.3E1,7.1E1],"tree_param":{"num_deleted":"0","num_feature":"7","num_nodes":"9","size_leaf_vector":"1"}},{"base_weights":[1.1854193E0,-4.6916623E0,3.0044456E1,-2.1372914E0,-2.7052698E1,3.4497746E1,-6.573181E-1,-2.4653769E-1,6.8567413E-1,-2.5539062E0,-8.0815834E-1,7.9138607E-1,2.5185957E0],"categories":[],"categories_nodes":[],"categories_segments":[],"categories_sizes":[],"default_left":[0,0,0,0,0,0,0,0,0,0,0,0,0],"id":81,"left_children":[1,3,5,7,9,11,-1,-1,-1,-1,-1,-1,-1],"loss_changes":[3.8104258E4,1.0565498E4,8.216012E3,7.662588E3,3.3197178E3,8.7784375E3,0E0,0E0,0E0,0E0,0E0,0E0,0E0],"parents":[2147483647,0,0,1,1,2,2,3,3,4,4,5,5],"right_children":[2,4,6,8,10,12,-1,-1,-1,-1,-1,-1,-1],"split_conditions":[1.1266666E3,1.085E3,1.485E3,9.81E2,9.06E2,1.2483334E3,-6.573181E-1,-2.4653769E-1,6.8567413E-1,-2.5539062E0,-8.0815834E-1,7.9138607E-1,2.5185957E0],"split_indices":[5,3,2,5,5,5,0,0,0,0,0,0,0],"split_type":[0,0,0,0,0,0,0,0,0,0,0,0,0],"sum_hessian":[2.21E2,1.85E2,3.6E1,1.68E2,1.7E1,3.3E1,3E0,1.44E2,2.4E1,3E0,1.4E1,1.7E1,1.6E1],"tree_param":{"num_deleted":"0","num_feature":"7","num_nodes":"13","size_leaf_vector":"1"}},{"base_weights":[-2.296098E0,-5.9934816E0,1.9243069E1,-1.920717E1,-1.7770419E0,3.5832329E0,-3.8310358E-1,-6.2591463E-1,-1.9106957E0,1.3513908E0,-2.1370764E-1,-6.357011E-1,1.2866985E0],"categories":[],"categories_nodes":[],"categories_segments":[],"categories_sizes":[],"default_left":[0,0,0,0,0,0,0,0,0,0,0,0,0],"id":82,"left_children":[1,3,5,7,9,-1,11,-1,-1,-1,-1,-1,-1],"loss_changes":[1.7910426E4,1.057325E4,3.400647E4,4.8914062E3,1.0804595E4,0E0,9.027599E3,0E0,0E0,0E0,0E0,0E0,0E0],"parents":[2147483647,0,0,1,1,2,2,3,3,4,4,6,6],"right_children":[2,4,6,8,10,-1,12,-1,-1,-1,-1,-1,-1],"split_conditions":[1.2033334E3,8E2,1.205E3,7.95E2,8.09E2,3.5832329E0,1.3724E3,-6.2591463E-1,-1.9106957E0,1.3513908E0,-2.1370764E-1,-6.357011E-1,1.2866985E0],"split_indices":[5,5,1,1,1,0,6,0,0,0,0,0,0],"split_type":[0,0,0,0,0,0,0,0,0,0,0,0,0],"sum_hessian":[2.2E2,1.89E2,3.1E1,4.4E1,1.45E2,7E0,2.4E1,3.5E1,9E0,1E1,1.35E2,1.7E1,7E0],"tree_param":{"num_deleted":"0","num_feature":"7","num_nodes":"13","size_leaf_vector":"1"}},{"base_weights":[-1.1362766E0,-2.6975918E0,2.1914518E1,3.391212E-1,-2.1952717E1,2.949997E1,-2.528186E-1,-2.1046579E-1,8.3919907E-1,-1.9485575E0,-3.1384838E-1,7.5876945E-1,2.1742115E0],"categories":[],"categories_nodes":[],"categories_segments":[],"categories_sizes":[],"default_left":[0,0,0,0,0,0,0,0,0,0,0,0,0],"id":83,"left_children":[1,3,5,7,9,11,-1,-1,-1,-1,-1,-1,-1],"loss_changes":[8.503801E3,1.2878793E4,3.3671216E3,1.4502593E4,7.5140566E3,1.084044E3,0E0,0E0,0E0,0E0,0E0,0E0,0E0],"parents":[2147483647,0,0,1,1,2,2,3,3,4,4,5,5],"right_children":[2,4,6,8,10,12,-1,-1,-1,-1,-1,-1,-1],"split_conditions":[1.3146666E3,1.155E3,1.444E3,9.843333E2,1.225E3,1.439E3,-2.528186E-1,-2.1046579E-1,8.3919907E-1,-1.9485575E0,-3.1384838E-1,7.5876945E-1,2.1742115E0],"split_indices":[5,2,2,5,3,5,0,0,0,0,0,0,0],"split_type":[0,0,0,0,0,0,0,0,0,0,0,0,0],"sum_hessian":[2.31E2,2.18E2,1.3E1,1.9E2,2.8E1,1E1,3E0,1.5E2,4E1,1.2E1,1.6E1,7E0,3E0],"tree_param":{"num_deleted":"0","num_feature":"7","num_nodes":"13","size_leaf_vector":"1"}},{"base_weights":[5.9502524E-1,-9.612985E0,5.110029E0,3.7944663E-1,-2.220859E1,5.0998085E1,2.6276314E0,-1.2378215E0,3.5053703E-1,-7.7601856E-1,-2.0352614E0,8.347809E-1,3.2450662E0,-1.9173811E-1,4.957295E-1],"categories":[],"categories_nodes":[],"categories_segments":[],"categories_sizes":[],"default_left":[0,0,0,0,0,0,0,0,0,0,0,0,0,0,0],"id":84,"left_children":[1,3,5,7,9,11,13,-1,-1,-1,-1,-1,-1,-1,-1],"loss_changes":[1.0514406E4,8.827104E3,1.7730154E4,7.18114E3,2.5714736E3,1.6481875E3,7.2339023E3,0E0,0E0,0E0,0E0,0E0,0E0,0E0,0E0],"parents":[2147483647,0,0,1,1,2,2,3,3,4,4,5,5,6,6],"right_children":[2,4,6,8,10,12,14,-1,-1,-1,-1,-1,-1,-1,-1],"split_conditions":[8.28E2,7.95E2,8.09E2,6.816667E2,8.36E2,7.77E2,1.0166667E3,-1.2378215E0,3.5053703E-1,-7.7601856E-1,-2.0352614E0,8.347809E-1,3.2450662E0,-1.9173811E-1,4.957295E-1],"split_indices":[5,2,1,5,1,3,5,0,0,0,0,0,0,0,0],"split_type":[0,0,0,0,0,0,0,0,0,0,0,0,0,0,0],"sum_hessian":[2.24E2,6.8E1,1.56E2,3.9E1,2.9E1,6E0,1.5E2,7E0,3.2E1,2.4E1,5E0,3E0,3E0,8E1,7E1],"tree_param":{"num_deleted":"0","num_feature":"7","num_nodes":"15","size_leaf_vector":"1"}},{"base_weights":[1.7858039E0,-1.9226094E0,1.7708183E1,6.225475E-2,-2.5040995E1,3.3499134E0,8.7579975E0,-1.3612064E0,8.078772E-2,3.48407E-1,-1.9619137E0,6.977615E-1,-1.1373057E0],"categories":[],"categories_nodes":[],"categories_segments":[],"categories_sizes":[],"default_left":[0,0,0,0,0,0,0,0,0,0,0,0,0],"id":85,"left_children":[1,3,5,7,9,-1,11,-1,-1,-1,-1,-1,-1],"loss_changes":[1.2822192E4,8.125092E3,1.6913832E4,7.0822227E3,6.909032E3,0E0,6.6930195E3,0E0,0E0,0E0,0E0,0E0,0E0],"parents":[2147483647,0,0,1,1,2,2,3,3,4,4,6,6],"right_children":[2,4,6,8,10,-1,12,-1,-1,-1,-1,-1,-1],"split_conditions":[1.1266666E3,1.155E3,1.145E3,6.816667E2,1.02E3,3.3499134E0,1.485E3,-1.3612064E0,8.078772E-2,3.48407E-1,-1.9619137E0,6.977615E-1,-1.1373057E0],"split_indices":[5,2,0,5,4,0,2,0,0,0,0,0,0],"split_type":[0,0,0,0,0,0,0,0,0,0,0,0,0],"sum_hessian":[2.14E2,1.75E2,3.9E1,1.63E2,1.2E1,4E0,3.5E1,7E0,1.56E2,4E0,8E0,3.1E1,4E0],"tree_param":{"num_deleted":"0","num_feature":"7","num_nodes":"13","size_leaf_vector":"1"}},{"base_weights":[-8.403278E-1,-1.881618E0,1.9504404E0,-3.5493267E-1,-1.9653511E1,-2.3624368E-1,4.949104E-1,-1.5061773E0,4.8246004E-2],"categories":[],"categories_nodes":[],"categories_segments":[],"categories_sizes":[],"default_left":[0,0,0,0,0,0,0,0,0],"id":86,"left_children":[1,3,-1,5,7,-1,-1,-1,-1],"loss_changes":[9.773526E3,6.1721646E3,0E0,9.592326E3,3.9438955E3,0E0,0E0,0E0,0E0],"parents":[2147483647,0,0,1,1,3,3,4,4],"right_children":[2,4,-1,6,8,-1,-1,-1,-1],"split_conditions":[1.494E3,1.3E3,1.9504404E0,9.9E2,1.369E3,-2.3624368E-1,4.949104E-1,-1.5061773E0,4.8246004E-2],"split_indices":[0,1,0,2,0,0,0,0,0],"split_type":[0,0,0,0,0,0,0,0,0],"sum_hessian":[2.3E2,2.26E2,4E0,2.1E2,1.6E1,1.48E2,6.2E1,1E1,6E0],"tree_param":{"num_deleted":"0","num_feature":"7","num_nodes":"9","size_leaf_vector":"1"}},{"base_weights":[-5.5985594E-1,-1.7134268E1,2.9307623E0,-9.421391E0,-3.2297173E1,2.160656E0,1.1946757E0,-1.3114208E0,-1.5169665E-1,-1.8767416E0,-4.4514894E-1,-2.3288123E-1,4.4724074E-1],"categories":[],"categories_nodes":[],"categories_segments":[],"categories_sizes":[],"default_left":[0,0,0,0,0,0,0,0,0,0,0,0,0],"id":87,"left_children":[1,3,5,7,9,-1,11,-1,-1,-1,-1,-1,-1],"loss_changes":[1.3638489E4,4.186365E3,1.35338125E4,3.0614744E3,9.2455664E2,0E0,8.655634E3,0E0,0E0,0E0,0E0,0E0,0E0],"parents":[2147483647,0,0,1,1,2,2,3,3,4,4,6,6],"right_children":[2,4,6,8,10,-1,12,-1,-1,-1,-1,-1,-1],"split_conditions":[7.85E2,7.95E2,7.7E2,6.816667E2,7.766667E2,2.160656E0,9.843333E2,-1.3114208E0,-1.5169665E-1,-1.8767416E0,-4.4514894E-1,-2.3288123E-1,4.4724074E-1],"split_indices":[5,2,1,5,5,0,5,0,0,0,0,0,0],"split_type":[0,0,0,0,0,0,0,0,0,0,0,0,0],"sum_hessian":[2.32E2,3.9E1,1.93E2,2.8E1,1.1E1,6E0,1.87E2,6E0,2.2E1,8E0,3E0,1.07E2,8E1],"tree_param":{"num_deleted":"0","num_feature":"7","num_nodes":"13","size_leaf_vector":"1"}},{"base_weights":[-1.9440952E-1,1.5784921E1,-1.9590148E0,-7.732221E0,4.5551933E1,-1.6759823E1,5.592495E-1,-1.4920888E0,3.539978E-1,3.6818337E0,6.238286E-1,-5.322711E-1,-1.3990865E0,1.1829126E0,-6.564172E-2],"categories":[],"categories_nodes":[],"categories_segments":[],"categories_sizes":[],"default_left":[0,0,0,0,0,0,0,0,0,0,0,0,0,0,0],"id":88,"left_children":[1,3,5,7,9,11,13,-1,-1,-1,-1,-1,-1,-1,-1],"loss_changes":[6.237034E3,1.6105207E4,7.4359424E3,5.0074263E3,7.451664E3,1.3940874E3,7.49996E3,0E0,0E0,0E0,0E0,0E0,0E0,0E0,0E0],"parents":[2147483647,0,0,1,1,2,2,3,3,4,4,5,5,6,6],"right_children":[2,4,6,8,10,12,14,-1,-1,-1,-1,-1,-1,-1,-1],"split_conditions":[7.33E2,7.49E2,7.97E2,6.39E2,7.23E2,8.05E2,8.09E2,-1.4920888E0,3.539978E-1,3.6818337E0,6.238286E-1,-5.322711E-1,-1.3990865E0,1.1829126E0,-6.564172E-2],"split_indices":[1,6,0,0,0,1,1,0,0,0,0,0,0,0,0],"split_type":[0,0,0,0,0,0,0,0,0,0,0,0,0,0,0],"sum_hessian":[2.17E2,2E1,1.97E2,1.2E1,8E0,2.7E1,1.7E2,4E0,8E0,3E0,5E0,2E1,7E0,1.1E1,1.59E2],"tree_param":{"num_deleted":"0","num_feature":"7","num_nodes":"15","size_leaf_vector":"1"}},{"base_weights":[2.0915188E-1,-8.045124E0,6.0579424E0,-5.0116544E0,-3.0321462E0,2.4213968E1,-6.0462193E0,1.2818892E-1,-4.7704157E-1,8.561231E-1,4.343087E0,-7.899855E-1,2.4924652E-1],"categories":[],"categories_nodes":[],"categories_segments":[],"categories_sizes":[],"default_left":[0,0,0,0,0,0,0,0,0,0,0,0,0],"id":89,"left_children":[1,3,5,7,-1,9,11,-1,-1,-1,-1,-1,-1],"loss_changes":[1.1056474E4,1.45497705E4,2.974111E4,3.205485E3,0E0,2.101585E4,8.980082E3,0E0,0E0,0E0,0E0,0E0,0E0],"parents":[2147483647,0,0,1,1,2,2,3,3,5,5,6,6],"right_children":[2,4,6,8,-1,10,12,-1,-1,-1,-1,-1,-1],"split_conditions":[8.86E2,9.11E2,9.91E2,7.8E2,-3.0321462E0,1.09E3,1.1233334E3,1.2818892E-1,-4.7704157E-1,8.561231E-1,4.343087E0,-7.899855E-1,2.4924652E-1],"split_indices":[5,1,1,3,0,5,5,0,0,0,0,0,0],"split_type":[0,0,0,0,0,0,0,0,0,0,0,0,0],"sum_hessian":[2.25E2,9.3E1,1.32E2,9E1,3E0,5.2E1,8E1,3.4E1,5.6E1,4.9E1,3E0,4.2E1,3.8E1],"tree_param":{"num_deleted":"0","num_feature":"7","num_nodes":"13","size_leaf_vector":"1"}},{"base_weights":[-5.5900253E-2,-3.0390182E0,1.2752406E1,-5.890372E-1,-2.925694E1,4.8194305E1,-1.7897753E0,4.04726E-1,-1.8199894E-1,-2.2974372E0,-8.7129337E-1,1.1474385E0,3.7179272E0,-5.6400436E-1,1.019795E0],"categories":[],"categories_nodes":[],"categories_segments":[],"categories_sizes":[],"default_left":[0,0,0,0,0,0,0,0,0,0,0,0,0,0,0],"id":90,"left_children":[1,3,5,7,9,11,13,-1,-1,-1,-1,-1,-1,-1,-1],"loss_changes":[8.292377E3,1.1270614E4,2.1304016E4,4.3772905E3,1.3608369E3,4.5134883E3,6.987153E3,0E0,0E0,0E0,0E0,0E0,0E0,0E0,0E0],"parents":[2147483647,0,0,1,1,2,2,3,3,4,4,5,5,6,6],"right_children":[2,4,6,8,10,12,14,-1,-1,-1,-1,-1,-1,-1,-1],"split_conditions":[1.1266666E3,1.095E3,1.185E3,7.92E2,9.06E2,1.1683334E3,1.3724E3,4.04726E-1,-1.8199894E-1,-2.2974372E0,-8.7129337E-1,1.1474385E0,3.7179272E0,-5.6400436E-1,1.019795E0],"split_indices":[5,3,0,3,5,5,6,0,0,0,0,0,0,0,0],"split_type":[0,0,0,0,0,0,0,0,0,0,0,0,0,0,0],"sum_hessian":[2.13E2,1.74E2,3.9E1,1.61E2,1.3E1,1E1,2.9E1,4.1E1,1.2E2,3E0,1E1,7E0,3E0,2.1E1,8E0],"tree_param":{"num_deleted":"0","num_feature":"7","num_nodes":"15","size_leaf_vector":"1"}},{"base_weights":[7.167135E-1,-1.714057E1,4.549283E0,-1.0174377E1,-3.0043528E1,1.799599E0,2.3879686E1,-8.6988753E-1,-5.5643108E-2,-7.1148986E-1,-1.9766248E0,2.923014E-1,-1.0664043E0,3.7203114E0,4.4300413E-1],"categories":[],"categories_nodes":[],"categories_segments":[],"categories_sizes":[],"default_left":[0,0,0,0,0,0,0,0,0,0,0,0,0,0,0],"id":91,"left_children":[1,3,5,7,9,11,13,-1,-1,-1,-1,-1,-1,-1,-1],"loss_changes":[1.5486354E4,2.9840303E3,9.800418E3,1.8594641E3,8.256494E2,1.5690818E4,1.6135946E4,0E0,0E0,0E0,0E0,0E0,0E0,0E0,0E0],"parents":[2147483647,0,0,1,1,2,2,3,3,4,4,5,5,6,6],"right_children":[2,4,6,8,10,12,14,-1,-1,-1,-1,-1,-1,-1,-1],"split_conditions":[7.85E2,7.97E2,1.25E3,7.466667E2,8.2E2,1.155E3,1.2666666E3,-8.6988753E-1,-5.5643108E-2,-7.1148986E-1,-1.9766248E0,2.923014E-1,-1.0664043E0,3.7203114E0,4.4300413E-1],"split_indices":[5,3,5,5,4,2,5,0,0,0,0,0,0,0,0],"split_type":[0,0,0,0,0,0,0,0,0,0,0,0,0,0,0],"sum_hessian":[2.22E2,3.8E1,1.84E2,2.7E1,1.1E1,1.63E2,2.1E1,1.4E1,1.3E1,6E0,5E0,1.4E2,2.3E1,3E0,1.8E1],"tree_param":{"num_deleted":"0","num_feature":"7","num_nodes":"15","size_leaf_vector":"1"}},{"base_weights":[1.5599157E0,4.3145585E-1,3.2061523E1,2.9046578E0,-2.4467371E1,2.5193555E0,4.5566406E-2,-2.6997179E-2,2.0125463E0,-1.8653042E0,2.058609E-1],"categories":[],"categories_nodes":[],"categories_segments":[],"categories_sizes":[],"default_left":[0,0,0,0,0,0,0,0,0,0,0],"id":92,"left_children":[1,3,5,7,9,-1,-1,-1,-1,-1,-1],"loss_changes":[7.716797E3,1.3628122E4,4.474926E3,2.5900713E4,7.6469785E3,0E0,0E0,0E0,0E0,0E0,0E0],"parents":[2147483647,0,0,1,1,2,2,3,3,4,4],"right_children":[2,4,6,8,10,-1,-1,-1,-1,-1,-1],"split_conditions":[1.439E3,1.235E3,1.419E3,1.122E3,1.3096666E3,2.5193555E0,4.5566406E-2,-2.6997179E-2,2.0125463E0,-1.8653042E0,2.058609E-1],"split_indices":[5,1,1,5,5,0,0,0,0,0,0],"split_type":[0,0,0,0,0,0,0,0,0,0,0],"sum_hessian":[2.23E2,2.17E2,6E0,1.99E2,1.8E1,3E0,3E0,1.84E2,1.5E1,1.2E1,6E0],"tree_param":{"num_deleted":"0","num_feature":"7","num_nodes":"11","size_leaf_vector":"1"}},{"base_weights":[1.1067752E0,-2.0033555E0,1.7438568E1,-1.3649924E-1,-3.25925E1,3.0800693E0,5.152252E0,-3.0611607E-1,3.3052388E-1,-4.4949278E-1,-2.0069692E0,6.3040715E-1,-6.6948855E-1],"categories":[],"categories_nodes":[],"categories_segments":[],"categories_sizes":[],"default_left":[0,0,0,0,0,0,0,0,0,0,0,0,0],"id":93,"left_children":[1,3,5,7,9,-1,11,-1,-1,-1,-1,-1,-1],"loss_changes":[1.0482645E4,9.927465E3,1.7270973E4,6.7850527E3,1.0595713E3,0E0,4.2085645E3,0E0,0E0,0E0,0E0,0E0,0E0],"parents":[2147483647,0,0,1,1,2,2,3,3,4,