{"learner":{"attributes":{"scikit_learn":"{\"_estimator_type\": \"regressor\"}"},"feature_names":["TLKM_lag1","TLKM_lag2","TLKM_lag3","TLKM_lag4","TLKM_lag5","TLKM_MA3","TLKM_MA5"],"feature_types":["float","float","float","float","float","float","float"],"gradient_booster":{"model":{"cats":{"enc":[],"feature_segments":[],"sorted_idx":[]},"gbtree_model_param":{"num_parallel_tree":"1","num_trees":"300"},"iteration_indptr":[0,1,2,3,4,5,6,7,8,9,10,11,12,13,14,15,16,17,18,19,20,21,22,23,24,25,26,27,28,29,30,31,32,33,34,35,36,37,38,39,40,41,42,43,44,45,46,47,48,49,50,51,52,53,54,55,56,57,58,59,60,61,62,63,64,65,66,67,68,69,70,71,72,73,74,75,76,77,78,79,80,81,82,83,84,85,86,87,88,89,90,91,92,93,94,95,96,97,98,99,100,101,102,103,104,105,106,107,108,109,110,111,112,113,114,115,116,117,118,119,120,121,122,123,124,125,126,127,128,129,130,131,132,133,134,135,136,137,138,139,140,141,142,143,144,145,146,147,148,149,150,151,152,153,154,155,156,157,158,159,160,161,162,163,164,165,166,167,168,169,170,171,172,173,174,175,176,177,178,179,180,181,182,183,184,185,186,187,188,189,190,191,192,193,194,195,196,197,198,199,200,201,202,203,204,205,206,207,208,209,210,211,212,213,214,215,216,217,218,219,220,221,222,223,224,225,226,227,228,229,230,231,232,233,234,235,236,237,238,239,240,241,242,243,244,245,246,247,248,249,250,251,252,253,254,255,256,257,258,259,260,261,262,263,264,265,266,267,268,269,270,271,272,273,274,275,276,277,278,279,280,281,282,283,284,285,286,287,288,289,290,291,292,293,294,295,296,297,298,299,300],"tree_info":[0,0,0,0,0,0,0,0,0,0,0,0,0,0,0,0,0,0,0,0,0,0,0,0,0,0,0,0,0,0,0,0,0,0,0,0,0,0,0,0,0,0,0,0,0,0,0,0,0,0,0,0,0,0,0,0,0,0,0,0,0,0,0,0,0,0,0,0,0,0,0,0,0,0,0,0,0,0,0,0,0,0,0,0,0,0,0,0,0,0,0,0,0,0,0,0,0,0,0,0,0,0,0,0,0,0,0,0,0,0,0,0,0,0,0,0,0,0,0,0,0,0,0,0,0,0,0,0,0,0,0,0,0,0,0,0,0,0,0,0,0,0,0,0,0,0,0,0,0,0,0,0,0,0,0,0,0,0,0,0,0,0,0,0,0,0,0,0,0,0,0,0,0,0,0,0,0,0,0,0,0,0,0,0,0,0,0,0,0,0,0,0,0,0,0,0,0,0,0,0,0,0,0,0,0,0,0,0,0,0,0,0,0,0,0,0,0,0,0,0,0,0,0,0,0,0,0,0,0,0,0,0,0,0,0,0,0,0,0,0,0,0,0,0,0,0,0,0,0,0,0,0,0,0,0,0,0,0,0,0,0,0,0,0,0,0,0,0,0,0,0,0,0,0,0,0,0,0,0,0,0,0,0,0,0,0,0,0,0,0,0,0,0,0,0,0,0,0,0,0],"trees":[{"base_weights":[-1.1583967E1,-5.311015E2,2.9738217E2,-3.435076E1,-3.6197748E2,1.040242E2,4.8516504E2,-2.1320185E1,-1.1940219E1,6.972178E-1,9.312928E0,1.6557066E1,2.897067E1],"categories":[],"categories_nodes":[],"categories_segments":[],"categories_sizes":[],"default_left":[0,0,0,0,0,0,0,0,0,0,0,0,0],"id":0,"left_children":[1,3,5,-1,7,9,11,-1,-1,-1,-1,-1,-1],"loss_changes":[3.659189E7,1.743974E6,5.091294E6,0E0,1.534465E5,5.3556456E5,6.6145E5,0E0,0E0,0E0,0E0,0E0,0E0],"parents":[2147483647,0,0,1,1,2,2,4,4,5,5,6,6],"right_children":[2,4,6,-1,8,10,12,-1,-1,-1,-1,-1,-1],"split_conditions":[3.6433333E3,3.2133333E3,4.0433333E3,-3.435076E1,3.4E3,3.8466667E3,4.2133335E3,-2.1320185E1,-1.1940219E1,6.972178E-1,9.312928E0,1.6557066E1,2.897067E1],"split_indices":[5,5,5,0,5,5,5,0,0,0,0,0,0],"split_type":[0,0,0,0,0,0,0,0,0,0,0,0,0],"sum_hessian":[2.24E2,8.3E1,1.41E2,4E1,4.3E1,7.1E1,7E1,2.5E1,1.8E1,3.5E1,3.6E1,3E1,4E1],"tree_param":{"num_deleted":"0","num_feature":"7","num_nodes":"13","size_leaf_vector":"1"}},{"base_weights":[-9.153714E0,-5.246116E2,2.855244E2,-6.265312E2,-1.3236884E1,9.115291E1,4.9458133E2,-3.6674812E1,-2.4246426E1,-6.500345E-1,8.463363E0,1.6463736E1,2.886492E1],"categories":[],"categories_nodes":[],"categories_segments":[],"categories_sizes":[],"default_left":[0,0,0,0,0,0,0,0,0,0,0,0,0],"id":1,"left_children":[1,3,5,7,-1,9,11,-1,-1,-1,-1,-1,-1],"loss_changes":[3.3412506E7,1.787168E6,5.598693E6,1.3682E5,0E0,6.145928E5,5.35959E5,0E0,0E0,0E0,0E0,0E0,0E0],"parents":[2147483647,0,0,1,1,2,2,3,3,5,5,6,6],"right_children":[2,4,6,8,-1,10,12,-1,-1,-1,-1,-1,-1],"split_conditions":[3.6433333E3,3.3433333E3,4.0266667E3,3.1133333E3,-1.3236884E1,3.8366667E3,4.21E3,-3.6674812E1,-2.4246426E1,-6.500345E-1,8.463363E0,1.6463736E1,2.886492E1],"split_indices":[5,5,5,5,0,5,5,0,0,0,0,0,0],"split_type":[0,0,0,0,0,0,0,0,0,0,0,0,0],"sum_hessian":[2.16E2,7.8E1,1.38E2,5.4E1,2.4E1,7.3E1,6.5E1,2.6E1,2.8E1,3.2E1,4.1E1,2.5E1,4E1],"tree_param":{"num_deleted":"0","num_feature":"7","num_nodes":"13","size_leaf_vector":"1"}},{"base_weights":[9.741555E0,-4.847382E2,2.93197E2,-3.0500143E1,-2.9598434E2,1.3068275E2,5.2069293E2,-1.5786606E1,-4.764632E0,2.388533E0,1.1698604E1,2.0433983E1,3.2293514E1],"categories":[],"categories_nodes":[],"categories_segments":[],"categories_sizes":[],"default_left":[0,0,0,0,0,0,0,0,0,0,0,0,0],"id":2,"left_children":[1,3,5,-1,7,9,11,-1,-1,-1,-1,-1,-1],"loss_changes":[2.9998798E7,1.483144E6,4.892009E6,0E0,7.85385E4,6.798886E5,2.57297E5,0E0,0E0,0E0,0E0,0E0,0E0],"parents":[2147483647,0,0,1,1,2,2,4,4,5,5,6,6],"right_children":[2,4,6,-1,8,10,12,-1,-1,-1,-1,-1,-1],"split_conditions":[3.6433333E3,3.2733333E3,4.1066665E3,-3.0500143E1,3.5566667E3,3.9466667E3,4.36E3,-1.5786606E1,-4.764632E0,2.388533E0,1.1698604E1,2.0433983E1,3.2293514E1],"split_indices":[5,5,5,0,5,5,5,0,0,0,0,0,0],"split_type":[0,0,0,0,0,0,0,0,0,0,0,0,0],"sum_hessian":[2.1E2,7.6E1,1.34E2,4.3E1,3.3E1,8E1,5.4E1,2.9E1,4E0,4.6E1,3.4E1,3.3E1,2.1E1],"tree_param":{"num_deleted":"0","num_feature":"7","num_nodes":"13","size_leaf_vector":"1"}},{"base_weights":[-3.2235205E0,-4.7904752E2,2.6262607E2,-3.2423355E1,-3.4193808E2,1.0457833E2,4.8304108E2,-1.943025E1,-1.0418809E1,-7.024242E-1,8.705421E0,1.9070864E1,3.0184599E1],"categories":[],"categories_nodes":[],"categories_segments":[],"categories_sizes":[],"default_left":[0,0,0,0,0,0,0,0,0,0,0,0,0],"id":3,"left_children":[1,3,5,-1,7,9,11,-1,-1,-1,-1,-1,-1],"loss_changes":[2.8587084E7,1.438082E6,4.950203E6,0E0,1.43461E5,7.224795E5,2.75143E5,0E0,0E0,0E0,0E0,0E0,0E0],"parents":[2147483647,0,0,1,1,2,2,4,4,5,5,6,6],"right_children":[2,4,6,-1,8,10,12,-1,-1,-1,-1,-1,-1],"split_conditions":[3.6433333E3,3.1666667E3,4.0966665E3,-3.2423355E1,3.4E3,3.8366667E3,4.36E3,-1.943025E1,-1.0418809E1,-7.024242E-1,8.705421E0,1.9070864E1,3.0184599E1],"split_indices":[5,5,5,0,5,5,5,0,0,0,0,0,0],"split_type":[0,0,0,0,0,0,0,0,0,0,0,0,0],"sum_hessian":[2.22E2,7.9E1,1.43E2,3.2E1,4.7E1,8.5E1,5.8E1,3.2E1,1.5E1,3.2E1,5.3E1,3.6E1,2.2E1],"tree_param":{"num_deleted":"0","num_feature":"7","num_nodes":"13","size_leaf_vector":"1"}},{"base_weights":[5.54401E0,-4.2427844E2,2.4903615E2,-2.692449E1,-2.6195273E2,1.1347027E2,4.601589E2,-1.43519335E1,-6.589785E0,8.0566995E-2,9.813453E0,1.8062042E1,2.8509474E1],"categories":[],"categories_nodes":[],"categories_segments":[],"categories_sizes":[],"default_left":[0,0,0,0,0,0,0,0,0,0,0,0,0],"id":4,"left_children":[1,3,5,-1,7,9,11,-1,-1,-1,-1,-1,-1],"loss_changes":[2.4596726E7,1.293736E6,4.188727E6,0E0,5.16785E4,8.699751E5,2.19321E5,0E0,0E0,0E0,0E0,0E0,0E0],"parents":[2147483647,0,0,1,1,2,2,4,4,5,5,6,6],"right_children":[2,4,6,-1,8,10,12,-1,-1,-1,-1,-1,-1],"split_conditions":[3.6433333E3,3.2733333E3,4.1266665E3,-2.692449E1,3.53E3,3.8666667E3,4.36E3,-1.43519335E1,-6.589785E0,8.0566995E-2,9.813453E0,1.8062042E1,2.8509474E1],"split_indices":[5,5,5,0,0,5,5,0,0,0,0,0,0],"split_type":[0,0,0,0,0,0,0,0,0,0,0,0,0],"sum_hessian":[2.31E2,8.3E1,1.48E2,4.6E1,3.7E1,9.2E1,5.6E1,2.9E1,8E0,4E1,5.2E1,3.4E1,2.2E1],"tree_param":{"num_deleted":"0","num_feature":"7","num_nodes":"13","size_leaf_vector":"1"}},{"base_weights":[1.9089989E1,-4.2261227E2,2.38312E2,-2.7474653E1,-3.128427E2,8.42449E1,4.1750763E2,-1.7036455E1,-4.5857162E0,1.1569527E0,8.56117E0,1.5606336E1,2.542377E1],"categories":[],"categories_nodes":[],"categories_segments":[],"categories_sizes":[],"default_left":[0,0,0,0,0,0,0,0,0,0,0,0,0],"id":5,"left_children":[1,3,5,-1,7,9,11,-1,-1,-1,-1,-1,-1],"loss_changes":[2.3053512E7,7.56474E5,4.31935E6,0E0,2.27325E5,4.597868E5,3.8238E5,0E0,0E0,0E0,0E0,0E0,0E0],"parents":[2147483647,0,0,1,1,2,2,4,4,5,5,6,6],"right_children":[2,4,6,-1,8,10,12,-1,-1,-1,-1,-1,-1],"split_conditions":[3.624E3,3.174E3,4.064E3,-2.7474653E1,3.51E3,3.93E3,4.25E3,-1.7036455E1,-4.5857162E0,1.1569527E0,8.56117E0,1.5606336E1,2.542377E1],"split_indices":[6,6,6,0,0,0,6,0,0,0,0,0,0],"split_type":[0,0,0,0,0,0,0,0,0,0,0,0,0],"sum_hessian":[2.34E2,7.7E1,1.57E2,3.2E1,4.5E1,8.6E1,7.1E1,3.9E1,6E0,5.2E1,3.4E1,3.7E1,3.4E1],"tree_param":{"num_deleted":"0","num_feature":"7","num_nodes":"13","size_leaf_vector":"1"}},{"base_weights":[-1.9046513E1,-4.0859805E2,2.12174E2,-2.890647E1,-2.9614124E2,7.1333244E1,3.63498E2,-1.811682E1,-9.849106E0,-1.223231E0,5.8686996E0,1.240892E1,2.3041355E1],"categories":[],"categories_nodes":[],"categories_segments":[],"categories_sizes":[],"default_left":[0,0,0,0,0,0,0,0,0,0,0,0,0],"id":6,"left_children":[1,3,5,-1,7,9,11,-1,-1,-1,-1,-1,-1],"loss_changes":[2.0079366E7,1.239976E6,2.9319025E6,0E0,2.117005E5,3.3653834E5,5.2327E5,0E0,0E0,0E0,0E0,0E0,0E0],"parents":[2147483647,0,0,1,1,2,2,4,4,5,5,6,6],"right_children":[2,4,6,-1,8,10,12,-1,-1,-1,-1,-1,-1],"split_conditions":[3.6433333E3,3.1566667E3,4.0266667E3,-2.890647E1,3.3466667E3,3.78E3,4.23E3,-1.811682E1,-9.849106E0,-1.223231E0,5.8686996E0,1.240892E1,2.3041355E1],"split_indices":[5,5,5,0,5,5,5,0,0,0,0,0,0],"split_type":[0,0,0,0,0,0,0,0,0,0,0,0,0],"sum_hessian":[2.19E2,8.1E1,1.38E2,2.9E1,5.2E1,7.3E1,6.5E1,2.8E1,2.4E1,2.4E1,4.9E1,3.3E1,3.2E1],"tree_param":{"num_deleted":"0","num_feature":"7","num_nodes":"13","size_leaf_vector":"1"}},{"base_weights":[2.1555862E1,-3.7032608E2,2.2378268E2,-2.4554401E1,-2.403357E2,7.192544E1,3.6016748E2,-1.3923134E1,-8.03388E0,-1.2048889E0,5.7146115E0,1.4349963E1,2.504397E1],"categories":[],"categories_nodes":[],"categories_segments":[],"categories_sizes":[],"default_left":[0,0,0,0,0,0,0,0,0,0,0,0,0],"id":7,"left_children":[1,3,5,-1,7,9,11,-1,-1,-1,-1,-1,-1],"loss_changes":[1.791753E7,9.72685E5,3.034132E6,0E0,3.503675E4,3.0248666E5,5.15556E5,0E0,0E0,0E0,0E0,0E0,0E0],"parents":[2147483647,0,0,1,1,2,2,4,4,5,5,6,6],"right_children":[2,4,6,-1,8,10,12,-1,-1,-1,-1,-1,-1],"split_conditions":[3.6433333E3,3.2333333E3,4.0266667E3,-2.4554401E1,3.4E3,3.7866667E3,4.36E3,-1.3923134E1,-8.03388E0,-1.2048889E0,5.7146115E0,1.4349963E1,2.504397E1],"split_indices":[5,5,5,0,5,5,5,0,0,0,0,0,0],"split_type":[0,0,0,0,0,0,0,0,0,0,0,0,0],"sum_hessian":[2.22E2,7.5E1,1.47E2,3.6E1,3.9E1,7.1E1,7.6E1,2.3E1,1.6E1,2.2E1,4.9E1,5.4E1,2.2E1],"tree_param":{"num_deleted":"0","num_feature":"7","num_nodes":"13","size_leaf_vector":"1"}},{"base_weights":[-1.7206E1,-3.655239E2,1.9451852E2,-2.53093E1,-2.7039236E2,5.895787E1,3.2839468E2,-1.5573992E1,-7.5662966E0,-4.416797E-1,5.8386445E0,1.0611983E1,1.9369223E1],"categories":[],"categories_nodes":[],"categories_segments":[],"categories_sizes":[],"default_left":[0,0,0,0,0,0,0,0,0,0,0,0,0],"id":8,"left_children":[1,3,5,-1,7,9,11,-1,-1,-1,-1,-1,-1],"loss_changes":[1.6587882E7,8.63682E5,2.5020445E6,0E0,1.747975E5,2.8425728E5,3.152005E5,0E0,0E0,0E0,0E0,0E0,0E0],"parents":[2147483647,0,0,1,1,2,2,4,4,5,5,6,6],"right_children":[2,4,6,-1,8,10,12,-1,-1,-1,-1,-1,-1],"split_conditions":[3.6433333E3,3.1566667E3,4.0266667E3,-2.53093E1,3.4E3,3.8366667E3,4.15E3,-1.5573992E1,-7.5662966E0,-4.416797E-1,5.8386445E0,1.0611983E1,1.9369223E1],"split_indices":[5,5,5,0,5,5,5,0,0,0,0,0,0],"split_type":[0,0,0,0,0,0,0,0,0,0,0,0,0],"sum_hessian":[2.21E2,8.3E1,1.38E2,3E1,5.3E1,7E1,6.8E1,3.7E1,1.6E1,3.3E1,3.7E1,2.6E1,4.2E1],"tree_param":{"num_deleted":"0","num_feature":"7","num_nodes":"13","size_leaf_vector":"1"}},{"base_weights":[-4.648626E0,-3.5442123E2,2.0187894E2,-2.8720472E1,-2.908692E2,5.851236E1,3.286145E2,-1.6494436E1,-7.5703797E0,-1.2279963E0,5.1461124E0,1.233938E1,2.2563076E1],"categories":[],"categories_nodes":[],"categories_segments":[],"categories_sizes":[],"default_left":[0,0,0,0,0,0,0,0,0,0,0,0,0],"id":9,"left_children":[1,3,5,-1,7,9,11,-1,-1,-1,-1,-1,-1],"loss_changes":[1.6541055E7,8.54203E5,2.577972E6,0E0,2.81025E5,2.6330166E5,5.399915E5,0E0,0E0,0E0,0E0,0E0,0E0],"parents":[2147483647,0,0,1,1,2,2,4,4,5,5,6,6],"right_children":[2,4,6,-1,8,10,12,-1,-1,-1,-1,-1,-1],"split_conditions":[3.6066667E3,3.0133333E3,4.0266667E3,-2.8720472E1,3.4E3,3.7866667E3,4.3066665E3,-1.6494436E1,-7.5703797E0,-1.2279963E0,5.1461124E0,1.233938E1,2.2563076E1],"split_indices":[5,5,5,0,5,5,5,0,0,0,0,0,0],"split_type":[0,0,0,0,0,0,0,0,0,0,0,0,0],"sum_hessian":[2.25E2,8.3E1,1.42E2,1.5E1,6.8E1,6.8E1,7.4E1,5.1E1,1.7E1,2.4E1,4.4E1,4.8E1,2.6E1],"tree_param":{"num_deleted":"0","num_feature":"7","num_nodes":"13","size_leaf_vector":"1"}},{"base_weights":[-2.212251E0,-3.352841E2,1.8165483E2,-4.3543204E2,-2.172125E2,8.645328E1,3.4516992E2,-2.6549229E1,-1.6796858E1,-1.2726535E1,-6.855024E0,1.1244438E0,8.028208E0,1.3412671E1,2.198271E1],"categories":[],"categories_nodes":[],"categories_segments":[],"categories_sizes":[],"default_left":[0,0,0,0,0,0,0,0,0,0,0,0,0,0,0],"id":10,"left_children":[1,3,5,7,9,11,13,-1,-1,-1,-1,-1,-1,-1,-1],"loss_changes":[1.4635916E7,8.1593E5,2.337619E6,6.15525E4,5.876175E4,4.66824E5,1.71097E5,0E0,0E0,0E0,0E0,0E0,0E0,0E0,0E0],"parents":[2147483647,0,0,1,1,2,2,3,3,4,4,5,5,6,6],"right_children":[2,4,6,8,10,12,14,-1,-1,-1,-1,-1,-1,-1,-1],"split_conditions":[3.6433333E3,3.2133333E3,4.1266665E3,3.0133333E3,3.38E3,3.94E3,4.36E3,-2.6549229E1,-1.6796858E1,-1.2726535E1,-6.855024E0,1.1244438E0,8.028208E0,1.3412671E1,2.198271E1],"split_indices":[5,5,5,5,5,5,5,0,0,0,0,0,0,0,0],"split_type":[0,0,0,0,0,0,0,0,0,0,0,0,0,0,0],"sum_hessian":[2.35E2,8.3E1,1.52E2,4.2E1,4.1E1,9.8E1,5.4E1,1.7E1,2.5E1,2.5E1,1.6E1,5.4E1,4.4E1,3.4E1,2E1],"tree_param":{"num_deleted":"0","num_feature":"7","num_nodes":"15","size_leaf_vector":"1"}},{"base_weights":[-1.2853261E0,-3.4536917E2,1.7794286E2,-2.647678E1,-2.7747537E2,8.5813965E1,3.2390366E2,-1.4911371E1,-3.5312104E0,5.4031324E-1,6.8403945E0,1.2639509E1,2.1153664E1],"categories":[],"categories_nodes":[],"categories_segments":[],"categories_sizes":[],"default_left":[0,0,0,0,0,0,0,0,0,0,0,0,0],"id":11,"left_children":[1,3,5,-1,7,9,11,-1,-1,-1,-1,-1,-1],"loss_changes":[1.35052E7,6.43916E5,1.880807E6,0E0,2.11138E5,3.451125E5,1.73979E5,0E0,0E0,0E0,0E0,0E0,0E0],"parents":[2147483647,0,0,1,1,2,2,4,4,5,5,6,6],"right_children":[2,4,6,-1,8,10,12,-1,-1,-1,-1,-1,-1],"split_conditions":[3.6433333E3,3.0133333E3,4.1066665E3,-2.647678E1,3.53E3,3.8666667E3,4.36E3,-1.4911371E1,-3.5312104E0,5.4031324E-1,6.8403945E0,1.2639509E1,2.1153664E1],"split_indices":[5,5,5,0,0,5,5,0,0,0,0,0,0],"split_type":[0,0,0,0,0,0,0,0,0,0,0,0,0],"sum_hessian":[2.15E2,7.3E1,1.42E2,1.6E1,5.7E1,8.9E1,5.3E1,5.1E1,6E0,3.7E1,5.2E1,3.5E1,1.8E1],"tree_param":{"num_deleted":"0","num_feature":"7","num_nodes":"13","size_leaf_vector":"1"}},{"base_weights":[-3.2035856E0,-2.95156E2,1.6017123E2,-2.1552252E1,-2.2152336E2,4.678351E1,2.9103925E2,-1.1561187E1,-3.1806192E0,-1.0295808E0,3.9369175E0,1.0518918E1,1.7947496E1],"categories":[],"categories_nodes":[],"categories_segments":[],"categories_sizes":[],"default_left":[0,0,0,0,0,0,0,0,0,0,0,0,0],"id":12,"left_children":[1,3,5,-1,7,9,11,-1,-1,-1,-1,-1,-1],"loss_changes":[1.0635737E7,6.09496E5,2.0947205E6,0E0,5.6363E4,1.7332666E5,2.105E5,0E0,0E0,0E0,0E0,0E0,0E0],"parents":[2147483647,0,0,1,1,2,2,4,4,5,5,6,6],"right_children":[2,4,6,-1,8,10,12,-1,-1,-1,-1,-1,-1],"split_conditions":[3.624E3,3.15E3,4.054E3,-2.1552252E1,3.494E3,3.784E3,4.25E3,-1.1561187E1,-3.1806192E0,-1.0295808E0,3.9369175E0,1.0518918E1,1.7947496E1],"split_indices":[6,6,6,0,6,6,6,0,0,0,0,0,0],"split_type":[0,0,0,0,0,0,0,0,0,0,0,0,0],"sum_hessian":[2.19E2,7.8E1,1.41E2,2.4E1,5.4E1,7.7E1,6.4E1,5E1,4E0,2.5E1,5.2E1,3.3E1,3.1E1],"tree_param":{"num_deleted":"0","num_feature":"7","num_nodes":"13","size_leaf_vector":"1"}},{"base_weights":[-8.067771E0,-2.9834985E2,1.6621672E2,-2.2925749E1,-2.3040544E2,5.6495136E1,2.9108023E2,-1.2379929E1,-3.6112373E0,4.9229288E-1,5.1926913E0,1.0490142E1,1.7858969E1],"categories":[],"categories_nodes":[],"categories_segments":[],"categories_sizes":[],"default_left":[0,0,0,0,0,0,0,0,0,0,0,0,0],"id":13,"left_children":[1,3,5,-1,7,9,11,-1,-1,-1,-1,-1,-1],"loss_changes":[1.133053E7,7.028265E5,1.885142E6,0E0,1.355705E5,1.6806706E5,1.99329E5,0E0,0E0,0E0,0E0,0E0,0E0],"parents":[2147483647,0,0,1,1,2,2,4,4,5,5,6,6],"right_children":[2,4,6,-1,8,10,12,-1,-1,-1,-1,-1,-1],"split_conditions":[3.6E3,3.104E3,4.068E3,-2.2925749E1,3.51E3,3.86E3,4.254E3,-1.2379929E1,-3.6112373E0,4.9229288E-1,5.1926913E0,1.0490142E1,1.7858969E1],"split_indices":[0,6,6,0,0,6,6,0,0,0,0,0,0],"split_type":[0,0,0,0,0,0,0,0,0,0,0,0,0],"sum_hessian":[2.2E2,8.2E1,1.38E2,2.1E1,6.1E1,7.5E1,6.3E1,5.4E1,7E0,3.9E1,3.6E1,3.2E1,3.1E1],"tree_param":{"num_deleted":"0","num_feature":"7","num_nodes":"13","size_leaf_vector":"1"}},{"base_weights":[-1.7520576E1,-2.8426144E2,1.4200844E2,-2.0493162E1,-2.1258821E2,2.984597E1,2.3692451E2,-1.1604736E1,-2.8488417E0,3.6570653E-1,5.27395E0,8.051783E0,1.5509551E1],"categories":[],"categories_nodes":[],"categories_segments":[],"categories_sizes":[],"default_left":[0,0,0,0,0,0,0,0,0,0,0,0,0],"id":14,"left_children":[1,3,5,-1,7,9,11,-1,-1,-1,-1,-1,-1],"loss_changes":[9.442374E6,5.72925E5,1.4656542E6,0E0,1.4657175E5,1.10931E5,3.17105E5,0E0,0E0,0E0,0E0,0E0,0E0],"parents":[2147483647,0,0,1,1,2,2,4,4,5,5,6,6],"right_children":[2,4,6,-1,8,10,12,-1,-1,-1,-1,-1,-1],"split_conditions":[3.624E3,3.09E3,3.964E3,-2.0493162E1,3.53E3,3.94E3,4.23E3,-1.1604736E1,-2.8488417E0,3.6570653E-1,5.27395E0,8.051783E0,1.5509551E1],"split_indices":[6,0,6,0,0,0,0,0,0,0,0,0,0],"split_type":[0,0,0,0,0,0,0,0,0,0,0,0,0],"sum_hessian":[2.18E2,8.1E1,1.37E2,2.6E1,5.5E1,6.4E1,7.3E1,4.8E1,7E0,5.1E1,1.3E1,3.9E1,3.4E1],"tree_param":{"num_deleted":"0","num_feature":"7","num_nodes":"13","size_leaf_vector":"1"}},{"base_weights":[-3.3150213E0,-2.7687643E2,1.4507132E2,-2.2191454E1,-2.147789E2,7.551452E1,3.070868E2,-1.2255577E1,-6.480123E0,-4.3327134E-2,5.9509816E0,1.1417982E1,1.8542538E1],"categories":[],"categories_nodes":[],"categories_segments":[],"categories_sizes":[],"default_left":[0,0,0,0,0,0,0,0,0,0,0,0,0],"id":15,"left_children":[1,3,5,-1,7,9,11,-1,-1,-1,-1,-1,-1],"loss_changes":[8.888966E6,6.076355E5,1.5538585E6,0E0,9.14835E4,3.3914888E5,4.146375E4,0E0,0E0,0E0,0E0,0E0,0E0],"parents":[2147483647,0,0,1,1,2,2,4,4,5,5,6,6],"right_children":[2,4,6,-1,8,10,12,-1,-1,-1,-1,-1,-1],"split_conditions":[3.5566667E3,3.0133333E3,4.2133335E3,-2.2191454E1,3.3466667E3,3.8366667E3,4.37E3,-1.2255577E1,-6.480123E0,-4.3327134E-2,5.9509816E0,1.1417982E1,1.8542538E1],"split_indices":[5,5,5,0,5,5,5,0,0,0,0,0,0],"split_type":[0,0,0,0,0,0,0,0,0,0,0,0,0],"sum_hessian":[2.15E2,7.5E1,1.4E2,1.7E1,5.8E1,1E2,4E1,4E1,1.8E1,3.7E1,6.3E1,2.2E1,1.8E1],"tree_param":{"num_deleted":"0","num_feature":"7","num_nodes":"13","size_leaf_vector":"1"}},{"base_weights":[1.6286182E1,-2.551163E2,1.5079399E2,-1.7284918E1,-1.503611E2,6.71116E1,2.6152817E2,-9.06663E0,-4.1411657E0,1.295528E0,6.106765E0,1.0422169E1,1.7706907E1],"categories":[],"categories_nodes":[],"categories_segments":[],"categories_sizes":[],"default_left":[0,0,0,0,0,0,0,0,0,0,0,0,0],"id":16,"left_children":[1,3,5,-1,7,9,11,-1,-1,-1,-1,-1,-1],"loss_changes":[7.706643E6,5.60267E5,1.2714738E6,0E0,4.526575E4,1.8183456E5,1.4733575E5,0E0,0E0,0E0,0E0,0E0,0E0],"parents":[2147483647,0,0,1,1,2,2,4,4,5,5,6,6],"right_children":[2,4,6,-1,8,10,12,-1,-1,-1,-1,-1,-1],"split_conditions":[3.6433333E3,3.2133333E3,4.0966665E3,-1.7284918E1,3.4E3,3.94E3,4.37E3,-9.06663E0,-4.1411657E0,1.295528E0,6.106765E0,1.0422169E1,1.7706907E1],"split_indices":[5,5,5,0,5,5,5,0,0,0,0,0,0],"split_type":[0,0,0,0,0,0,0,0,0,0,0,0,0],"sum_hessian":[2.07E2,6.8E1,1.39E2,3.4E1,3.4E1,8.1E1,5.8E1,2.1E1,1.3E1,4.8E1,3.3E1,4.1E1,1.7E1],"tree_param":{"num_deleted":"0","num_feature":"7","num_nodes":"13","size_leaf_vector":"1"}},{"base_weights":[-3.2697358E0,-2.1351117E2,1.3375528E2,-1.703617E1,-1.5913435E2,4.364471E1,2.0538863E2,-9.609328E0,-3.0311337E0,9.568612E-1,4.598567E0,8.0184355E0,1.3721738E1],"categories":[],"categories_nodes":[],"categories_segments":[],"categories_sizes":[],"default_left":[0,0,0,0,0,0,0,0,0,0,0,0,0],"id":17,"left_children":[1,3,5,-1,7,9,11,-1,-1,-1,-1,-1,-1],"loss_changes":[6.2797165E6,4.8645475E5,8.3412125E5,0E0,1.8508388E5,6.8726055E4,1.388955E5,0E0,0E0,0E0,0E0,0E0,0E0],"parents":[2147483647,0,0,1,1,2,2,4,4,5,5,6,6],"right_children":[2,4,6,-1,8,10,12,-1,-1,-1,-1,-1,-1],"split_conditions":[3.74E3,3.09E3,4.01E3,-1.703617E1,3.49E3,3.93E3,4.272E3,-9.609328E0,-3.0311337E0,9.568612E-1,4.598567E0,8.0184355E0,1.3721738E1],"split_indices":[6,0,0,0,0,0,6,0,0,0,0,0,0],"split_type":[0,0,0,0,0,0,0,0,0,0,0,0,0],"sum_hessian":[2.14E2,8.4E1,1.3E2,2.2E1,6.2E1,5.9E1,7.1E1,4.5E1,1.7E1,4.1E1,1.8E1,4.7E1,2.4E1],"tree_param":{"num_deleted":"0","num_feature":"7","num_nodes":"13","size_leaf_vector":"1"}},{"base_weights":[-2.8664474E0,-2.2401598E2,1.2156997E2,-2.1910685E1,-1.8853639E2,4.710566E1,2.2134581E2,-1.0757556E1,-4.8246136E0,-9.5266896E-1,3.8453186E0,8.888699E0,1.4947474E1],"categories":[],"categories_nodes":[],"categories_segments":[],"categories_sizes":[],"default_left":[0,0,0,0,0,0,0,0,0,0,0,0,0],"id":18,"left_children":[1,3,5,-1,7,9,11,-1,-1,-1,-1,-1,-1],"loss_changes":[6.191216E6,4.503325E5,1.0490295E6,0E0,1.3730925E5,1.7051548E5,9.997025E4,0E0,0E0,0E0,0E0,0E0,0E0],"parents":[2147483647,0,0,1,1,2,2,4,4,5,5,6,6],"right_children":[2,4,6,-1,8,10,12,-1,-1,-1,-1,-1,-1],"split_conditions":[3.6433333E3,2.9066667E3,4.0766667E3,-2.1910685E1,3.4E3,3.7866667E3,4.37E3,-1.0757556E1,-4.8246136E0,-9.5266896E-1,3.8453186E0,8.888699E0,1.4947474E1],"split_indices":[5,5,5,0,5,5,5,0,0,0,0,0,0],"split_type":[0,0,0,0,0,0,0,0,0,0,0,0,0],"sum_hessian":[2.21E2,7.9E1,1.42E2,8E0,7.1E1,8.3E1,5.9E1,5.3E1,1.8E1,2.6E1,5.7E1,4.2E1,1.7E1],"tree_param":{"num_deleted":"0","num_feature":"7","num_nodes":"13","size_leaf_vector":"1"}},{"base_weights":[3.7658856E0,-1.992377E2,1.302208E2,-3.072981E2,-1.3647414E2,6.603591E1,2.246803E2,-1.9582157E1,-1.1298064E1,-8.618418E0,-3.5629978E0,8.5004914E-1,5.3434916E0,8.751948E0,1.5015622E1],"categories":[],"categories_nodes":[],"categories_segments":[],"categories_sizes":[],"default_left":[0,0,0,0,0,0,0,0,0,0,0,0,0,0,0],"id":19,"left_children":[1,3,5,7,9,11,13,-1,-1,-1,-1,-1,-1,-1,-1],"loss_changes":[5.7508075E6,4.993975E5,8.0700225E5,2.88185E4,1.11201125E5,1.6656075E5,1.01364E5,0E0,0E0,0E0,0E0,0E0,0E0,0E0,0E0],"parents":[2147483647,0,0,1,1,2,2,3,3,4,4,5,5,6,6],"right_children":[2,4,6,8,10,12,14,-1,-1,-1,-1,-1,-1,-1,-1],"split_conditions":[3.71E3,3.1566667E3,4.1266665E3,2.9333333E3,3.4E3,3.9133333E3,4.37E3,-1.9582157E1,-1.1298064E1,-8.618418E0,-3.5629978E0,8.5004914E-1,5.3434916E0,8.751948E0,1.5015622E1],"split_indices":[5,5,5,5,5,5,5,0,0,0,0,0,0,0,0],"split_type":[0,0,0,0,0,0,0,0,0,0,0,0,0,0,0],"sum_hessian":[2.2E2,8.4E1,1.36E2,2.8E1,5.6E1,8.3E1,5.3E1,1E1,1.8E1,3.4E1,2.2E1,3.9E1,4.4E1,3.6E1,1.7E1],"tree_param":{"num_deleted":"0","num_feature":"7","num_nodes":"15","size_leaf_vector":"1"}},{"base_weights":[2.3444586E0,-1.9660704E2,1.2736619E2,-1.6066992E1,-1.4258344E2,7.13782E1,2.423907E2,-8.432473E0,-3.5953522E0,1.4881201E0,5.9072394E0,9.9217825E0,1.6509726E1],"categories":[],"categories_nodes":[],"categories_segments":[],"categories_sizes":[],"default_left":[0,0,0,0,0,0,0,0,0,0,0,0,0],"id":20,"left_children":[1,3,5,-1,7,9,11,-1,-1,-1,-1,-1,-1],"loss_changes":[5.671439E6,5.0135375E5,8.6699625E5,0E0,9.54925E4,1.8175166E5,4.2629E4,0E0,0E0,0E0,0E0,0E0,0E0],"parents":[2147483647,0,0,1,1,2,2,4,4,5,5,6,6],"right_children":[2,4,6,-1,8,10,12,-1,-1,-1,-1,-1,-1],"split_conditions":[3.72E3,3.1133333E3,4.2133335E3,-1.6066992E1,3.4166667E3,3.97E3,4.51E3,-8.432473E0,-3.5953522E0,1.4881201E0,5.9072394E0,9.9217825E0,1.6509726E1],"split_indices":[5,5,5,0,5,5,5,0,0,0,0,0,0],"split_type":[0,0,0,0,0,0,0,0,0,0,0,0,0],"sum_hessian":[2.24E2,8.6E1,1.38E2,2.3E1,6.3E1,9.5E1,4.3E1,4.4E1,1.9E1,5.2E1,4.3E1,3.3E1,1E1],"tree_param":{"num_deleted":"0","num_feature":"7","num_nodes":"13","size_leaf_vector":"1"}},{"base_weights":[1.9683199E0,-2.1406047E2,9.699474E1,-1.8468267E1,-1.7657846E2,4.8916973E1,2.2676276E2,-9.3788576E-1,-9.232577E0,-6.058204E-1,4.5135617E0,7.9952226E0,1.4191338E1],"categories":[],"categories_nodes":[],"categories_segments":[],"categories_sizes":[],"default_left":[0,0,0,0,0,0,0,0,0,0,0,0,0],"id":21,"left_children":[1,3,5,-1,7,9,11,-1,-1,-1,-1,-1,-1],"loss_changes":[4.4346125E6,2.5375125E5,9.136584E5,0E0,6.56965E4,2.848744E5,6.183775E4,0E0,0E0,0E0,0E0,0E0,0E0],"parents":[2147483647,0,0,1,1,2,2,4,4,5,5,6,6],"right_children":[2,4,6,-1,8,10,12,-1,-1,-1,-1,-1,-1],"split_conditions":[3.4533333E3,2.9333333E3,4.2133335E3,-1.8468267E1,2.94E3,3.8466667E3,4.37E3,-9.3788576E-1,-9.232577E0,-6.058204E-1,4.5135617E0,7.9952226E0,1.4191338E1],"split_indices":[5,5,5,0,3,5,5,0,0,0,0,0,0],"split_type":[0,0,0,0,0,0,0,0,0,0,0,0,0],"sum_hessian":[2.12E2,6.4E1,1.48E2,9E0,5.5E1,1.1E2,3.8E1,3E0,5.2E1,4.5E1,6.5E1,2.1E1,1.7E1],"tree_param":{"num_deleted":"0","num_feature":"7","num_nodes":"13","size_leaf_vector":"1"}},{"base_weights":[7.302786E-1,-1.4982198E2,1.338512E2,-2.2250002E2,-5.8069016E1,8.153516E1,2.1560408E2,-1.8440214E1,-9.601007E0,1.1980591E0,-3.2162304E0,1.7444388E0,5.572693E0,7.786447E0,1.3602633E1],"categories":[],"categories_nodes":[],"categories_segments":[],"categories_sizes":[],"default_left":[0,0,0,0,0,0,0,0,0,0,0,0,0,0,0],"id":22,"left_children":[1,3,5,7,9,11,13,-1,-1,-1,-1,-1,-1,-1,-1],"loss_changes":[4.5695215E6,6.87681E5,4.8235675E5,1.21465E5,2.8739953E4,9.968416E4,7.0741E4,0E0,0E0,0E0,0E0,0E0,0E0,0E0,0E0],"parents":[2147483647,0,0,1,1,2,2,3,3,4,4,5,5,6,6],"right_children":[2,4,6,8,10,12,14,-1,-1,-1,-1,-1,-1,-1,-1],"split_conditions":[3.7866667E3,3.3433333E3,4.2133335E3,2.8766667E3,3.32E3,3.97E3,4.37E3,-1.8440214E1,-9.601007E0,1.1980591E0,-3.2162304E0,1.7444388E0,5.572693E0,7.786447E0,1.3602633E1],"split_indices":[5,5,5,5,0,5,5,0,0,0,0,0,0,0,0],"split_type":[0,0,0,0,0,0,0,0,0,0,0,0,0,0,0],"sum_hessian":[2.24E2,1.05E2,1.19E2,5.7E1,4.8E1,7.5E1,4.4E1,6E0,5.1E1,3E0,4.5E1,3.1E1,4.4E1,2.5E1,1.9E1],"tree_param":{"num_deleted":"0","num_feature":"7","num_nodes":"15","size_leaf_vector":"1"}},{"base_weights":[-6.1154194E0,-1.7818695E2,1.0868954E2,-1.7604645E1,-1.3968094E2,3.4914967E1,1.6504309E2,-8.535686E0,-3.4783685E0,-3.7174794E-1,2.7968075E0,6.5244026E0,1.1451917E1],"categories":[],"categories_nodes":[],"categories_segments":[],"categories_sizes":[],"default_left":[0,0,0,0,0,0,0,0,0,0,0,0,0],"id":23,"left_children":[1,3,5,-1,7,9,11,-1,-1,-1,-1,-1,-1],"loss_changes":[4.444024E6,5.0431675E5,5.49732E5,0E0,1.43786E5,5.5136742E4,1.08289875E5,0E0,0E0,0E0,0E0,0E0,0E0],"parents":[2147483647,0,0,1,1,2,2,4,4,5,5,6,6],"right_children":[2,4,6,-1,8,10,12,-1,-1,-1,-1,-1,-1],"split_conditions":[3.72E3,2.9633333E3,4.0266667E3,-1.7604645E1,3.4E3,3.8366667E3,4.3066665E3,-8.535686E0,-3.4783685E0,-3.7174794E-1,2.7968075E0,6.5244026E0,1.1451917E1],"split_indices":[5,5,5,0,5,5,5,0,0,0,0,0,0],"split_type":[0,0,0,0,0,0,0,0,0,0,0,0,0],"sum_hessian":[2.21E2,8.8E1,1.33E2,1.3E1,7.5E1,5.9E1,7.4E1,5E1,2.5E1,2E1,3.9E1,5.2E1,2.2E1],"tree_param":{"num_deleted":"0","num_feature":"7","num_nodes":"13","size_leaf_vector":"1"}},{"base_weights":[-1.5371515E0,-1.8460028E2,9.001412E1,-1.3667722E1,-1.3754475E2,3.0317625E1,1.7488042E2,-4.3834443E0,-7.949882E0,-4.7582045E-1,2.7685175E0,6.7143555E0,1.226054E1],"categories":[],"categories_nodes":[],"categories_segments":[],"categories_sizes":[],"default_left":[0,0,0,0,0,0,0,0,0,0,0,0,0],"id":24,"left_children":[1,3,5,-1,7,9,11,-1,-1,-1,-1,-1,-1],"loss_changes":[3.9214752E6,2.5056025E5,7.797264E5,0E0,3.0970625E4,9.486126E4,1.16859125E5,0E0,0E0,0E0,0E0,0E0,0E0],"parents":[2147483647,0,0,1,1,2,2,4,4,5,5,6,6],"right_children":[2,4,6,-1,8,10,12,-1,-1,-1,-1,-1,-1],"split_conditions":[3.53E3,3.146E3,4.07E3,-1.3667722E1,3.23E3,3.81E3,4.382E3,-4.3834443E0,-7.949882E0,-4.7582045E-1,2.7685175E0,6.7143555E0,1.226054E1],"split_indices":[0,6,6,0,3,0,6,0,0,0,0,0,0],"split_type":[0,0,0,0,0,0,0,0,0,0,0,0,0],"sum_hessian":[2.3E2,7.6E1,1.54E2,2.3E1,5.3E1,9.2E1,6.2E1,1.9E1,3.4E1,3.6E1,5.6E1,4.3E1,1.9E1],"tree_param":{"num_deleted":"0","num_feature":"7","num_nodes":"13","size_leaf_vector":"1"}},{"base_weights":[9.249068E0,-1.7230405E2,9.693816E1,-1.5719446E1,-1.4555469E2,5.16304E1,2.0008316E2,-1.2709005E0,-7.624276E0,6.759425E-1,4.5694537E0,7.192604E0,1.2417435E1],"categories":[],"categories_nodes":[],"categories_segments":[],"categories_sizes":[],"default_left":[0,0,0,0,0,0,0,0,0,0,0,0,0],"id":25,"left_children":[1,3,5,-1,7,9,11,-1,-1,-1,-1,-1,-1],"loss_changes":[3.615457E6,1.897285E5,6.9434925E5,0E0,4.7202875E4,1.6269288E5,5.3394375E4,0E0,0E0,0E0,0E0,0E0,0E0],"parents":[2147483647,0,0,1,1,2,2,4,4,5,5,6,6],"right_children":[2,4,6,-1,8,10,12,-1,-1,-1,-1,-1,-1],"split_conditions":[3.5733333E3,2.9066667E3,4.2133335E3,-1.5719446E1,2.94E3,3.95E3,4.36E3,-1.2709005E0,-7.624276E0,6.759425E-1,4.5694537E0,7.192604E0,1.2417435E1],"split_indices":[5,5,5,0,3,5,5,0,0,0,0,0,0],"split_type":[0,0,0,0,0,0,0,0,0,0,0,0,0],"sum_hessian":[2.23E2,7.2E1,1.51E2,8E0,6.4E1,1.07E2,4.4E1,4E0,6E1,5.6E1,5.1E1,2.4E1,2E1],"tree_param":{"num_deleted":"0","num_feature":"7","num_nodes":"13","size_leaf_vector":"1"}},{"base_weights":[3.567682E0,-1.3373006E2,1.067585E2,-2.1084958E2,-6.8795235E1,5.9925476E1,1.6611578E2,-1.3286487E1,-6.8400645E0,-4.5974493E0,-3.7921357E-1,2.0399182E0,4.09411E0,6.8427844E0,1.1508265E1],"categories":[],"categories_nodes":[],"categories_segments":[],"categories_sizes":[],"default_left":[0,0,0,0,0,0,0,0,0,0,0,0,0,0,0],"id":26,"left_children":[1,3,5,7,9,11,13,-1,-1,-1,-1,-1,-1,-1,-1],"loss_changes":[3.1029805E6,4.41717E5,3.2757612E5,9.7974375E4,7.5137484E4,2.3976375E4,3.8202125E4,0E0,0E0,0E0,0E0,0E0,0E0,0E0,0E0],"parents":[2147483647,0,0,1,1,2,2,3,3,4,4,5,5,6,6],"right_children":[2,4,6,8,10,12,14,-1,-1,-1,-1,-1,-1,-1,-1],"split_conditions":[3.8E3,3.21E3,4.16E3,3.104E3,3.74E3,4.01E3,4.49E3,-1.3286487E1,-6.8400645E0,-4.5974493E0,-3.7921357E-1,2.0399182E0,4.09411E0,6.8427844E0,1.1508265E1],"split_indices":[0,0,0,6,6,0,0,0,0,0,0,0,0,0,0],"split_type":[0,0,0,0,0,0,0,0,0,0,0,0,0,0,0],"sum_hessian":[2.15E2,9.2E1,1.23E2,4E1,5.2E1,7.1E1,5.2E1,2E1,2E1,3.7E1,1.5E1,4.1E1,3E1,4E1,1.2E1],"tree_param":{"num_deleted":"0","num_feature":"7","num_nodes":"15","size_leaf_vector":"1"}},{"base_weights":[1.2120029E0,-1.5025551E2,8.19123E1,-1.2938255E1,-1.219003E2,2.5001385E1,1.573161E2,-6.5115685E0,-1.3429688E0,2.9105479E-2,2.8871994E0,6.406677E0,1.2716675E1],"categories":[],"categories_nodes":[],"categories_segments":[],"categories_sizes":[],"default_left":[0,0,0,0,0,0,0,0,0,0,0,0,0],"id":27,"left_children":[1,3,5,-1,7,9,11,-1,-1,-1,-1,-1,-1],"loss_changes":[2.848238E6,1.8613475E5,6.444112E5,0E0,4.6846125E4,7.109278E4,1.1885175E5,0E0,0E0,0E0,0E0,0E0,0E0],"parents":[2147483647,0,0,1,1,2,2,4,4,5,5,6,6],"right_children":[2,4,6,-1,8,10,12,-1,-1,-1,-1,-1,-1],"split_conditions":[3.624E3,3.016E3,4.064E3,-1.2938255E1,3.53E3,3.93E3,4.49E3,-6.5115685E0,-1.3429688E0,2.9105479E-2,2.8871994E0,6.406677E0,1.2716675E1],"split_indices":[6,6,6,0,0,0,0,0,0,0,0,0,0],"split_type":[0,0,0,0,0,0,0,0,0,0,0,0,0],"sum_hessian":[2.29E2,7.9E1,1.5E2,1.3E1,6.6E1,8.7E1,6.3E1,6E1,6E0,5.1E1,3.6E1,5.2E1,1.1E1],"tree_param":{"num_deleted":"0","num_feature":"7","num_nodes":"13","size_leaf_vector":"1"}},{"base_weights":[-1.2121931E0,-1.5188701E2,8.215703E1,-1.3462334E1,-1.2458179E2,3.9598106E1,1.7118947E2,-7.055954E0,-2.7114646E0,7.5440353E-1,3.5123188E0,7.0227203E0,1.2032581E1],"categories":[],"categories_nodes":[],"categories_segments":[],"categories_sizes":[],"default_left":[0,0,0,0,0,0,0,0,0,0,0,0,0],"id":28,"left_children":[1,3,5,-1,7,9,11,-1,-1,-1,-1,-1,-1],"loss_changes":[2.7508332E6,1.8286712E5,5.2070912E5,0E0,6.2644812E4,7.149689E4,2.8470375E4,0E0,0E0,0E0,0E0,0E0,0E0],"parents":[2147483647,0,0,1,1,2,2,4,4,5,5,6,6],"right_children":[2,4,6,-1,8,10,12,-1,-1,-1,-1,-1,-1],"split_conditions":[3.5733333E3,2.9633333E3,4.2133335E3,-1.3462334E1,3.4E3,3.9633333E3,4.5466665E3,-7.055954E0,-2.7114646E0,7.5440353E-1,3.5123188E0,7.0227203E0,1.2032581E1],"split_indices":[5,5,5,0,5,5,5,0,0,0,0,0,0],"split_type":[0,0,0,0,0,0,0,0,0,0,0,0,0],"sum_hessian":[2.15E2,7.6E1,1.39E2,1.1E1,6.5E1,9.6E1,4.3E1,5.1E1,1.4E1,5.5E1,4.1E1,3.4E1,9E0],"tree_param":{"num_deleted":"0","num_feature":"7","num_nodes":"13","size_leaf_vector":"1"}},{"base_weights":[-1.3981155E0,-1.1018422E2,8.717039E1,-2.0327571E2,-7.105288E1,3.1335892E1,1.3633557E2,-2.420813E0,-1.0844796E1,-5.005379E0,-1.4209275E0,3.1768925E0,9.717948E-2,5.5700164E0,1.0479336E1],"categories":[],"categories_nodes":[],"categories_segments":[],"categories_sizes":[],"default_left":[0,0,0,0,0,0,0,0,0,0,0,0,0,0,0],"id":29,"left_children":[1,3,5,7,9,11,13,-1,-1,-1,-1,-1,-1,-1,-1],"loss_changes":[2.2545348E6,3.5360675E5,3.455753E5,4.2274E4,8.969222E4,5.9381863E4,7.750825E4,0E0,0E0,0E0,0E0,0E0,0E0,0E0,0E0],"parents":[2147483647,0,0,1,1,2,2,3,3,4,4,5,5,6,6],"right_children":[2,4,6,8,10,12,14,-1,-1,-1,-1,-1,-1,-1,-1],"split_conditions":[3.784E3,3.174E3,4.07E3,2.75E3,3.49E3,3.95E3,4.46E3,-2.420813E0,-1.0844796E1,-5.005379E0,-1.4209275E0,3.1768925E0,9.717948E-2,5.5700164E0,1.0479336E1],"split_indices":[6,6,6,4,0,4,0,0,0,0,0,0,0,0,0],"split_type":[0,0,0,0,0,0,0,0,0,0,0,0,0,0,0],"sum_hessian":[2.3E2,1.03E2,1.27E2,2.8E1,7.5E1,6.1E1,6.6E1,3E0,2.5E1,4.3E1,3.2E1,2.8E1,3.3E1,5.3E1,1.3E1],"tree_param":{"num_deleted":"0","num_feature":"7","num_nodes":"15","size_leaf_vector":"1"}},{"base_weights":[7.593169E-1,-1.1909434E2,7.8300514E1,-1.4398468E1,-9.256504E1,2.901383E1,1.1761331E2,-6.147891E0,-2.5709383E0,3.1014955E0,4.1360193E-1,4.607382E0,9.682765E0],"categories":[],"categories_nodes":[],"categories_segments":[],"categories_sizes":[],"default_left":[0,0,0,0,0,0,0,0,0,0,0,0,0],"id":30,"left_children":[1,3,5,-1,7,9,11,-1,-1,-1,-1,-1,-1],"loss_changes":[2.0818285E6,3.4094012E5,2.5668838E5,0E0,8.614875E4,4.2116965E4,1.09544875E5,0E0,0E0,0E0,0E0,0E0,0E0],"parents":[2147483647,0,0,1,1,2,2,4,4,5,5,6,6],"right_children":[2,4,6,-1,8,10,12,-1,-1,-1,-1,-1,-1],"split_conditions":[3.72E3,2.89E3,4.0266667E3,-1.4398468E1,3.34E3,3.81E3,4.4166665E3,-6.147891E0,-2.5709383E0,3.1014955E0,4.1360193E-1,4.607382E0,9.682765E0],"split_indices":[5,5,5,0,5,2,5,0,0,0,0,0,0],"split_type":[0,0,0,0,0,0,0,0,0,0,0,0,0],"sum_hessian":[2.2E2,8.6E1,1.34E2,9E0,7.7E1,6.1E1,7.3E1,4.2E1,3.5E1,2.2E1,3.9E1,5.8E1,1.5E1],"tree_param":{"num_deleted":"0","num_feature":"7","num_nodes":"13","size_leaf_vector":"1"}},{"base_weights":[-3.7870317E0,-1.6362553E2,5.728812E1,-1.2951648E1,-1.257935E2,-4.4389615E0,1.0400621E2,-5.0804024E0,-9.543454E0,1.8706763E-1,-4.851646E0,4.0888E0,9.753766E0],"categories":[],"categories_nodes":[],"categories_segments":[],"categories_sizes":[],"default_left":[0,0,0,0,0,0,0,0,0,0,0,0,0],"id":31,"left_children":[1,3,5,-1,7,9,11,-1,-1,-1,-1,-1,-1],"loss_changes":[2.224996E6,1.6222638E5,4.7674562E5,0E0,3.8332625E4,5.601975E4,1.5839681E5,0E0,0E0,0E0,0E0,0E0,0E0],"parents":[2147483647,0,0,1,1,2,2,4,4,5,5,6,6],"right_children":[2,4,6,-1,8,10,12,-1,-1,-1,-1,-1,-1],"split_conditions":[3.38E3,2.9633333E3,3.9466667E3,-1.2951648E1,3.43E3,4.04E3,4.37E3,-5.0804024E0,-9.543454E0,1.8706763E-1,-4.851646E0,4.0888E0,9.753766E0],"split_indices":[5,5,5,0,2,4,5,0,0,0,0,0,0],"split_type":[0,0,0,0,0,0,0,0,0,0,0,0,0],"sum_hessian":[2.24E2,6.1E1,1.63E2,1.4E1,4.7E1,7.1E1,9.2E1,3.8E1,9E0,6.7E1,4E0,7.7E1,1.5E1],"tree_param":{"num_deleted":"0","num_feature":"7","num_nodes":"13","size_leaf_vector":"1"}},{"base_weights":[-2.0520346E-1,-1.2731819E2,6.548682E1,-2.0439401E2,-1.08278465E2,2.7259504E1,1.1824902E2,-2.8745508E0,-1.1848335E1,-3.7338665E-1,-5.7270746E0,-3.187275E-1,2.2288826E0,4.93407E0,9.166694E0],"categories":[],"categories_nodes":[],"categories_segments":[],"categories_sizes":[],"default_left":[0,0,0,0,0,0,0,0,0,0,0,0,0,0,0],"id":32,"left_children":[1,3,5,7,9,11,13,-1,-1,-1,-1,-1,-1,-1,-1],"loss_changes":[1.8871445E6,6.873475E4,2.9407988E5,3.4958375E4,3.9960312E4,5.2409016E4,4.2777125E4,0E0,0E0,0E0,0E0,0E0,0E0,0E0,0E0],"parents":[2147483647,0,0,1,1,2,2,3,3,4,4,5,5,6,6],"right_children":[2,4,6,8,10,12,14,-1,-1,-1,-1,-1,-1,-1,-1],"split_conditions":[3.51E3,2.95E3,4.07E3,2.81E3,2.94E3,3.8E3,4.49E3,-2.8745508E0,-1.1848335E1,-3.7338665E-1,-5.7270746E0,-3.187275E-1,2.2288826E0,4.93407E0,9.166694E0],"split_indices":[1,6,6,4,3,0,0,0,0,0,0,0,0,0,0],"split_type":[0,0,0,0,0,0,0,0,0,0,0,0,0,0,0],"sum_hessian":[2.22E2,7.5E1,1.47E2,1.1E1,6.4E1,8.7E1,6E1,3E0,8E0,4E0,6E1,3E1,5.7E1,5E1,1E1],"tree_param":{"num_deleted":"0","num_feature":"7","num_nodes":"15","size_leaf_vector":"1"}},{"base_weights":[2.9388123E0,-1.1517501E2,7.9626785E1,-2.0766092E2,-7.8607666E1,4.6793526E1,1.4467285E2,-1.2501789E1,-6.6669116E0,-5.609964E0,-2.1724138E0,4.0789372E-1,2.9903476E0,5.651794E0,1.0257918E1],"categories":[],"categories_nodes":[],"categories_segments":[],"categories_sizes":[],"default_left":[0,0,0,0,0,0,0,0,0,0,0,0,0,0,0],"id":33,"left_children":[1,3,5,7,9,11,13,-1,-1,-1,-1,-1,-1,-1,-1],"loss_changes":[2.0473138E6,2.6834738E5,2.7904788E5,8.9071875E3,6.938134E4,4.628575E4,3.9730562E4,0E0,0E0,0E0,0E0,0E0,0E0,0E0,0E0],"parents":[2147483647,0,0,1,1,2,2,3,3,4,4,5,5,6,6],"right_children":[2,4,6,8,10,12,14,-1,-1,-1,-1,-1,-1,-1,-1],"split_conditions":[3.7466667E3,3.1133333E3,4.2133335E3,2.9066667E3,3.3433333E3,3.8666667E3,4.51E3,-1.2501789E1,-6.6669116E0,-5.609964E0,-2.1724138E0,4.0789372E-1,2.9903476E0,5.651794E0,1.0257918E1],"split_indices":[5,5,5,5,5,5,5,0,0,0,0,0,0,0,0],"split_type":[0,0,0,0,0,0,0,0,0,0,0,0,0,0,0],"sum_hessian":[2.22E2,8.7E1,1.35E2,2.2E1,6.5E1,9.2E1,4.3E1,1.1E1,1.1E1,3.1E1,3.4E1,2.4E1,6.8E1,3.2E1,1.1E1],"tree_param":{"num_deleted":"0","num_feature":"7","num_nodes":"15","size_leaf_vector":"1"}},{"base_weights":[1.046498E0,-9.721658E1,7.4918015E1,-1.1748361E1,-7.4132965E1,4.2833103E1,1.3290616E2,-5.064486E0,-1.8919104E0,2.7207057E0,-1.5285071E0,5.3693986E0,9.612776E0],"categories":[],"categories_nodes":[],"categories_segments":[],"categories_sizes":[],"default_left":[0,0,0,0,0,0,0,0,0,0,0,0,0],"id":34,"left_children":[1,3,5,-1,7,9,11,-1,-1,-1,-1,-1,-1],"loss_changes":[1.6405474E6,2.7360125E5,2.2862462E5,0E0,7.710044E4,7.643411E4,2.6860125E4,0E0,0E0,0E0,0E0,0E0,0E0],"parents":[2147483647,0,0,1,1,2,2,4,4,5,5,6,6],"right_children":[2,4,6,-1,8,10,12,-1,-1,-1,-1,-1,-1],"split_conditions":[3.7466667E3,2.9633333E3,4.2133335E3,-1.1748361E1,3.3466667E3,4.21E3,4.5466665E3,-5.064486E0,-1.8919104E0,2.7207057E0,-1.5285071E0,5.3693986E0,9.612776E0],"split_indices":[5,5,5,0,5,4,5,0,0,0,0,0,0],"split_type":[0,0,0,0,0,0,0,0,0,0,0,0,0],"sum_hessian":[2.22E2,9.5E1,1.27E2,1.1E1,8.4E1,8.4E1,4.3E1,4.6E1,3.8E1,7.3E1,1.1E1,3.4E1,9E0],"tree_param":{"num_deleted":"0","num_feature":"7","num_nodes":"13","size_leaf_vector":"1"}},{"base_weights":[-4.220634E0,-9.1428474E1,7.572975E1,-1.1475827E1,-7.124479E1,4.125443E1,1.1434634E2,-4.861826E0,-1.6738456E0,4.0383043E0,1.3755144E0,4.8067465E0,8.853536E0],"categories":[],"categories_nodes":[],"categories_segments":[],"categories_sizes":[],"default_left":[0,0,0,0,0,0,0,0,0,0,0,0,0],"id":35,"left_children":[1,3,5,-1,7,9,11,-1,-1,-1,-1,-1,-1],"loss_changes":[1.5895878E6,2.7109312E5,1.4899244E5,0E0,8.969156E4,3.139775E4,2.8781062E4,0E0,0E0,0E0,0E0,0E0,0E0],"parents":[2147483647,0,0,1,1,2,2,4,4,5,5,6,6],"right_children":[2,4,6,-1,8,10,12,-1,-1,-1,-1,-1,-1],"split_conditions":[3.7866667E3,2.9066667E3,4.1066665E3,-1.1475827E1,3.3566667E3,3.84E3,4.5466665E3,-4.861826E0,-1.6738456E0,4.0383043E0,1.3755144E0,4.8067465E0,8.853536E0],"split_indices":[5,5,5,0,5,1,5,0,0,0,0,0,0],"split_type":[0,0,0,0,0,0,0,0,0,0,0,0,0],"sum_hessian":[2.24E2,1.07E2,1.17E2,1.1E1,9.6E1,6.4E1,5.3E1,5.5E1,4.1E1,1.4E1,5E1,4.5E1,8E0],"tree_param":{"num_deleted":"0","num_feature":"7","num_nodes":"13","size_leaf_vector":"1"}},{"base_weights":[-1.6678424E0,-1.1045846E2,5.274941E1,-1.6797739E2,-7.567555E1,1.9425205E1,1.0461891E2,-1.1874377E1,-6.274974E0,3.1676027E-1,-4.146239E0,-2.7613527E-1,1.7081121E0,4.4340625E0,9.202558E0],"categories":[],"categories_nodes":[],"categories_segments":[],"categories_sizes":[],"default_left":[0,0,0,0,0,0,0,0,0,0,0,0,0,0,0],"id":36,"left_children":[1,3,5,7,9,11,13,-1,-1,-1,-1,-1,-1,-1,-1],"loss_changes":[1.3495928E6,1.2662775E5,2.5866897E5,2.0112312E4,3.1370906E4,3.530487E4,4.2048062E4,0E0,0E0,0E0,0E0,0E0,0E0,0E0,0E0],"parents":[2147483647,0,0,1,1,2,2,3,3,4,4,5,5,6,6],"right_children":[2,4,6,8,10,12,14,-1,-1,-1,-1,-1,-1,-1,-1],"split_conditions":[3.53E3,3.162E3,4.088E3,2.858E3,3.11E3,3.81E3,4.562E3,-1.1874377E1,-6.274974E0,3.1676027E-1,-4.146239E0,-2.7613527E-1,1.7081121E0,4.4340625E0,9.202558E0],"split_indices":[0,6,6,6,4,0,6,0,0,0,0,0,0,0,0],"split_type":[0,0,0,0,0,0,0,0,0,0,0,0,0,0,0],"sum_hessian":[2.24E2,7.4E1,1.5E2,2.5E1,4.9E1,9.3E1,5.7E1,6E0,1.9E1,4E0,4.5E1,3.5E1,5.8E1,5.1E1,6E0],"tree_param":{"num_deleted":"0","num_feature":"7","num_nodes":"15","size_leaf_vector":"1"}},{"base_weights":[3.631483E0,-8.719273E1,4.5967697E1,-1.4519435E2,-5.818431E1,8.739299E0,7.8324066E1,-1.7975391E0,-7.932953E0,-2.6834962E-1,-4.377931E0,2.1461415E0,-8.1555605E-1,4.8618555E0,2.615122E0],"categories":[],"categories_nodes":[],"categories_segments":[],"categories_sizes":[],"default_left":[0,0,0,0,0,0,0,0,0,0,0,0,0,0,0],"id":37,"left_children":[1,3,5,7,9,11,13,-1,-1,-1,-1,-1,-1,-1,-1],"loss_changes":[8.4625956E5,1.00881375E5,1.7931738E5,2.0952688E4,7.663375E4,6.3054688E4,2.9200375E4,0E0,0E0,0E0,0E0,0E0,0E0,0E0,0E0],"parents":[2147483647,0,0,1,1,2,2,3,3,4,4,5,5,6,6],"right_children":[2,4,6,8,10,12,14,-1,-1,-1,-1,-1,-1,-1,-1],"split_conditions":[3.51E3,3.09E3,4.01E3,2.73E3,3.23E3,3.81E3,4.25E3,-1.7975391E0,-7.932953E0,-2.6834962E-1,-4.377931E0,2.1461415E0,-8.1555605E-1,4.8618555E0,2.615122E0],"split_indices":[1,0,0,1,3,1,4,0,0,0,0,0,0,0,0],"split_type":[0,0,0,0,0,0,0,0,0,0,0,0,0,0,0],"sum_hessian":[2.16E2,6.8E1,1.48E2,2E1,4.8E1,7E1,7.8E1,3E0,1.7E1,1.8E1,3E1,2.9E1,4.1E1,4.2E1,3.6E1],"tree_param":{"num_deleted":"0","num_feature":"7","num_nodes":"15","size_leaf_vector":"1"}},{"base_weights":[-7.4023547E0,-1.07539055E2,3.733888E1,-9.582329E0,-8.3529E1,3.7542358E-1,7.6724266E1,1.262437E0,-4.626087E0,3.7202382E-1,-3.922836E0,2.9133554E0,7.2007213E0],"categories":[],"categories_nodes":[],"categories_segments":[],"categories_sizes":[],"default_left":[0,0,0,0,0,0,0,0,0,0,0,0,0],"id":38,"left_children":[1,3,5,-1,7,9,11,-1,-1,-1,-1,-1,-1],"loss_changes":[1.0160847E6,1.0934375E5,2.285061E5,0E0,6.1408375E4,4.739463E4,7.760828E4,0E0,0E0,0E0,0E0,0E0,0E0],"parents":[2147483647,0,0,1,1,2,2,4,4,5,5,6,6],"right_children":[2,4,6,-1,8,10,12,-1,-1,-1,-1,-1,-1],"split_conditions":[3.49E3,2.95E3,4.01E3,-9.582329E0,2.96E3,4.06E3,4.49E3,1.262437E0,-4.626087E0,3.7202382E-1,-3.922836E0,2.9133554E0,7.2007213E0],"split_indices":[0,0,6,0,4,4,0,0,0,0,0,0,0],"split_type":[0,0,0,0,0,0,0,0,0,0,0,0,0],"sum_hessian":[2.23E2,6.8E1,1.55E2,1.2E1,5.6E1,8.1E1,7.4E1,4E0,5.2E1,7.6E1,5E0,6.1E1,1.3E1],"tree_param":{"num_deleted":"0","num_feature":"7","num_nodes":"13","size_leaf_vector":"1"}},{"base_weights":[-2.4721258E0,-6.655066E1,5.6948757E1,-9.448644E0,-5.4840355E1,4.3466736E1,6.782027E0,1.879246E0,-2.9864523E0,4.6778874E0,1.7391506E0],"categories":[],"categories_nodes":[],"categories_segments":[],"categories_sizes":[],"default_left":[0,0,0,0,0,0,0,0,0,0,0],"id":39,"left_children":[1,3,5,-1,7,9,-1,-1,-1,-1,-1],"loss_changes":[7.9956144E5,1.2406709E5,1.03849E5,0E0,4.74145E4,3.5249297E4,0E0,0E0,0E0,0E0,0E0],"parents":[2147483647,0,0,1,1,2,2,4,4,5,5],"right_children":[2,4,6,-1,8,10,-1,-1,-1,-1,-1],"split_conditions":[3.7866667E3,2.9066667E3,4.37E3,-9.448644E0,2.94E3,3.78E3,6.782027E0,1.879246E0,-2.9864523E0,4.6778874E0,1.7391506E0],"split_indices":[5,5,5,0,3,2,0,0,0,0,0],"split_type":[0,0,0,0,0,0,0,0,0,0,0],"sum_hessian":[2.06E2,9.9E1,1.07E2,6E0,9.3E1,9.4E1,1.3E1,4E0,8.9E1,1.1E1,8.3E1],"tree_param":{"num_deleted":"0","num_feature":"7","num_nodes":"11","size_leaf_vector":"1"}},{"base_weights":[-2.0806625E0,-6.911415E1,6.0908714E1,-1.0707168E1,-5.4822163E1,3.1820658E1,1.0639987E2,-4.3035827E0,-1.2217848E0,2.20327E0,-1.5736413E0,5.78828E0,-6.479541E-1],"categories":[],"categories_nodes":[],"categories_segments":[],"categories_sizes":[],"default_left":[0,0,0,0,0,0,0,0,0,0,0,0,0],"id":40,"left_children":[1,3,5,-1,7,9,11,-1,-1,-1,-1,-1,-1],"loss_changes":[9.4156925E5,2.00378E5,1.4540219E5,0E0,9.169925E4,5.9349617E4,5.2187312E4,0E0,0E0,0E0,0E0,0E0,0E0],"parents":[2147483647,0,0,1,1,2,2,4,4,5,5,6,6],"right_children":[2,4,6,-1,8,10,12,-1,-1,-1,-1,-1,-1],"split_conditions":[3.7866667E3,2.8133333E3,4.2133335E3,-1.0707168E1,3.3433333E3,4.21E3,4.62E3,-4.3035827E0,-1.2217848E0,2.20327E0,-1.5736413E0,5.78828E0,-6.479541E-1],"split_indices":[5,5,5,0,5,4,2,0,0,0,0,0,0],"split_type":[0,0,0,0,0,0,0,0,0,0,0,0,0],"sum_hessian":[2.19E2,1.06E2,1.13E2,7E0,9.9E1,7.1E1,4.2E1,4.7E1,5.2E1,6E1,1.1E1,3.9E1,3E0],"tree_param":{"num_deleted":"0","num_feature":"7","num_nodes":"13","size_leaf_vector":"1"}},{"base_weights":[-6.239696E0,-5.7987793E1,7.2096085E1,-1.0794566E2,-1.9209436E1,5.5377926E1,1.2873994E2,-9.881461E0,-4.5167556E0,3.32622E-2,-3.1095982E0,3.0580602E0,-8.3123606E-1,7.0339203E0,1.9520458E0],"categories":[],"categories_nodes":[],"categories_segments":[],"categories_sizes":[],"default_left":[0,0,0,0,0,0,0,0,0,0,0,0,0,0,0],"id":41,"left_children":[1,3,5,7,9,11,13,-1,-1,-1,-1,-1,-1,-1,-1],"loss_changes":[9.163963E5,2.5932353E5,7.096959E4,5.74775E4,6.75696E4,3.2431594E4,9.3620625E3,0E0,0E0,0E0,0E0,0E0,0E0,0E0,0E0],"parents":[2147483647,0,0,1,1,2,2,3,3,4,4,5,5,6,6],"right_children":[2,4,6,8,10,12,14,-1,-1,-1,-1,-1,-1,-1,-1],"split_conditions":[3.9466667E3,3.3433333E3,4.37E3,2.7966667E3,3.84E3,4.36E3,4.54E3,-9.881461E0,-4.5167556E0,3.32622E-2,-3.1095982E0,3.0580602E0,-8.3123606E-1,7.0339203E0,1.9520458E0],"split_indices":[5,5,5,5,1,1,4,0,0,0,0,0,0,0,0],"split_type":[0,0,0,0,0,0,0,0,0,0,0,0,0,0,0],"sum_hessian":[2.22E2,1.34E2,8.8E1,5.7E1,7.7E1,7.1E1,1.7E1,6E0,5.1E1,5.4E1,2.3E1,6.6E1,5E0,1.4E1,3E0],"tree_param":{"num_deleted":"0","num_feature":"7","num_nodes":"15","size_leaf_vector":"1"}},{"base_weights":[4.1039996E0,-7.7895454E1,4.638994E1,-9.356875E0,-6.031501E1,2.181743E1,9.0631485E1,-2.0527647E0,-5.8331456E0,2.8154876E0,4.801994E-1,3.5989711E0,7.522845E0],"categories":[],"categories_nodes":[],"categories_segments":[],"categories_sizes":[],"default_left":[0,0,0,0,0,0,0,0,0,0,0,0,0],"id":42,"left_children":[1,3,5,-1,7,9,11,-1,-1,-1,-1,-1,-1],"loss_changes":[8.047346E5,1.2914697E5,1.6237553E5,0E0,6.747314E4,4.146667E4,3.859722E4,0E0,0E0,0E0,0E0,0E0,0E0],"parents":[2147483647,0,0,1,1,2,2,4,4,5,5,6,6],"right_children":[2,4,6,-1,8,10,12,-1,-1,-1,-1,-1,-1],"split_conditions":[3.5733333E3,2.9066667E3,4.1266665E3,-9.356875E0,3.4E3,3.78E3,4.5466665E3,-2.0527647E0,-5.8331456E0,2.8154876E0,4.801994E-1,3.5989711E0,7.522845E0],"split_indices":[5,5,5,0,1,1,5,0,0,0,0,0,0],"split_type":[0,0,0,0,0,0,0,0,0,0,0,0,0],"sum_hessian":[2.28E2,7.7E1,1.51E2,8E0,6.9E1,9.9E1,5.2E1,5.4E1,1.5E1,2.4E1,7.5E1,4.3E1,9E0],"tree_param":{"num_deleted":"0","num_feature":"7","num_nodes":"13","size_leaf_vector":"1"}},{"base_weights":[-1.6365387E0,-6.612843E1,5.3432175E1,-9.780119E1,-2.209198E1,4.11862E1,1.2482126E2,-8.491325E0,-3.8610172E0,1.808431E-1,-5.511271E0,8.603215E-1,2.659966E0,7.079342E0,1.5651124E0],"categories":[],"categories_nodes":[],"categories_segments":[],"categories_sizes":[],"default_left":[0,0,0,0,0,0,0,0,0,0,0,0,0,0,0],"id":43,"left_children":[1,3,5,7,9,11,13,-1,-1,-1,-1,-1,-1,-1,-1],"loss_changes":[7.6353325E5,1.337596E5,9.112875E4,5.8265375E4,1.00492914E5,2.7552562E4,1.6222422E4,0E0,0E0,0E0,0E0,0E0,0E0,0E0,0E0],"parents":[2147483647,0,0,1,1,2,2,3,3,4,4,5,5,6,6],"right_children":[2,4,6,8,10,12,14,-1,-1,-1,-1,-1,-1,-1,-1],"split_conditions":[3.7866667E3,3.37E3,4.37E3,2.9066667E3,3.8E3,3.9733333E3,4.6E3,-8.491325E0,-3.8610172E0,1.808431E-1,-5.511271E0,8.603215E-1,2.659966E0,7.079342E0,1.5651124E0],"split_indices":[5,5,5,5,1,5,2,0,0,0,0,0,0,0,0],"split_type":[0,0,0,0,0,0,0,0,0,0,0,0,0,0,0],"sum_hessian":[2.11E2,9.7E1,1.14E2,5.5E1,4.2E1,1E2,1.4E1,9E0,4.6E1,3.4E1,8E0,3.5E1,6.5E1,1.1E1,3E0],"tree_param":{"num_deleted":"0","num_feature":"7","num_nodes":"15","size_leaf_vector":"1"}},{"base_weights":[5.4357877E0,-6.1630386E1,4.3540092E1,-8.0115295E1,-2.28991E1,1.9573463E1,9.166861E1,1.2031454E0,-4.4899716E0,3.574314E0,-1.9972124E0,3.5230572E0,5.20396E-1,3.660463E0,6.770701E0],"categories":[],"categories_nodes":[],"categories_segments":[],"categories_sizes":[],"default_left":[0,0,0,0,0,0,0,0,0,0,0,0,0,0,0],"id":44,"left_children":[1,3,5,7,9,11,13,-1,-1,-1,-1,-1,-1,-1,-1],"loss_changes":[5.4969044E5,5.21745E4,1.54438E5,5.678322E4,5.0757688E4,4.237614E4,1.6510906E4,0E0,0E0,0E0,0E0,0E0,0E0,0E0,0E0],"parents":[2147483647,0,0,1,1,2,2,3,3,4,4,5,5,6,6],"right_children":[2,4,6,8,10,12,14,-1,-1,-1,-1,-1,-1,-1,-1],"split_conditions":[3.6433333E3,3.34E3,4.2E3,2.81E3,3.32E3,3.72E3,4.51E3,1.2031454E0,-4.4899716E0,3.574314E0,-1.9972124E0,3.5230572E0,5.20396E-1,3.660463E0,6.770701E0],"split_indices":[5,5,5,3,0,1,5,0,0,0,0,0,0,0,0],"split_type":[0,0,0,0,0,0,0,0,0,0,0,0,0,0,0],"sum_hessian":[2.11E2,7.6E1,1.35E2,5E1,2.6E1,9.2E1,4.3E1,4E0,4.6E1,3E0,2.3E1,1.2E1,8E1,3.4E1,9E0],"tree_param":{"num_deleted":"0","num_feature":"7","num_nodes":"15","size_leaf_vector":"1"}},{"base_weights":[1.8584368E0,-6.22384E1,4.3590336E1,-8.751004E0,-4.940427E1,2.5004818E1,8.508679E1,1.3507674E0,-2.760966E0,3.1714244E0,9.192063E-1,4.609502E0,-7.55957E-2],"categories":[],"categories_nodes":[],"categories_segments":[],"categories_sizes":[],"default_left":[0,0,0,0,0,0,0,0,0,0,0,0,0],"id":45,"left_children":[1,3,5,-1,7,9,11,-1,-1,-1,-1,-1,-1],"loss_changes":[5.832007E5,1.07187625E5,9.754761E4,0E0,3.853425E4,2.1580621E4,2.4884062E4,0E0,0E0,0E0,0E0,0E0,0E0],"parents":[2147483647,0,0,1,1,2,2,4,4,5,5,6,6],"right_children":[2,4,6,-1,8,10,12,-1,-1,-1,-1,-1,-1],"split_conditions":[3.742E3,2.858E3,4.23E3,-8.751004E0,2.94E3,3.78E3,4.62E3,1.3507674E0,-2.760966E0,3.1714244E0,9.192063E-1,4.609502E0,-7.55957E-2],"split_indices":[6,6,0,0,3,1,1,0,0,0,0,0,0],"split_type":[0,0,0,0,0,0,0,0,0,0,0,0,0],"sum_hessian":[2.14E2,8.4E1,1.3E2,6E0,7.8E1,9.2E1,3.8E1,5E0,7.3E1,1.1E1,8.1E1,3.5E1,3E0],"tree_param":{"num_deleted":"0","num_feature":"7","num_nodes":"13","size_leaf_vector":"1"}},{"base_weights":[-7.838024E-1,-4.8005756E1,4.073846E1,-1.0088417E2,-2.8133982E1,2.8327965E1,9.891109E1,-1.1827563E0,-5.3987794E0,-8.949525E-1,-3.573174E0,2.0952158E0,-8.073332E-1,5.8907766E0,1.9368744E0],"categories":[],"categories_nodes":[],"categories_segments":[],"categories_sizes":[],"default_left":[0,0,0,0,0,0,0,0,0,0,0,0,0,0,0],"id":46,"left_children":[1,3,5,7,9,11,13,-1,-1,-1,-1,-1,-1,-1,-1],"loss_changes":[4.5684747E5,1.088593E5,8.391805E4,1.0773906E4,3.380664E4,6.4752555E4,1.4760781E4,0E0,0E0,0E0,0E0,0E0,0E0,0E0,0E0],"parents":[2147483647,0,0,1,1,2,2,3,3,4,4,5,5,6,6],"right_children":[2,4,6,8,10,12,14,-1,-1,-1,-1,-1,-1,-1,-1],"split_conditions":[3.81E3,3.174E3,4.362E3,2.73E3,3.8E3,4.21E3,4.55E3,-1.1827563E0,-5.3987794E0,-8.949525E-1,-3.573174E0,2.0952158E0,-8.073332E-1,5.8907766E0,1.9368744E0],"split_indices":[0,6,6,1,1,4,4,0,0,0,0,0,0,0,0],"split_type":[0,0,0,0,0,0,0,0,0,0,0,0,0,0,0],"sum_hessian":[2.29E2,1.07E2,1.22E2,2.7E1,8E1,1.03E2,1.9E1,3E0,2.4E1,6.7E1,1.3E1,7.9E1,2.4E1,1.3E1,6E0],"tree_param":{"num_deleted":"0","num_feature":"7","num_nodes":"15","size_leaf_vector":"1"}},{"base_weights":[4.089989E0,-4.7179756E1,4.6817795E1,-7.217855E0,-3.209459E1,3.784073E1,6.485416E0,-9.8910946E-1,-4.805366E0,2.1686993E0,-1.7561496E0],"categories":[],"categories_nodes":[],"categories_segments":[],"categories_sizes":[],"default_left":[0,0,0,0,0,0,0,0,0,0,0],"id":47,"left_children":[1,3,5,-1,7,9,-1,-1,-1,-1,-1],"loss_changes":[4.8635934E5,1.3879342E5,8.022125E4,0E0,6.713112E4,4.826428E4,0E0,0E0,0E0,0E0,0E0],"parents":[2147483647,0,0,1,1,2,2,4,4,5,5],"right_children":[2,4,6,-1,8,10,-1,-1,-1,-1,-1],"split_conditions":[3.7866667E3,2.9633333E3,4.51E3,-7.217855E0,3.74E3,4.45E3,6.485416E0,-9.8910946E-1,-4.805366E0,2.1686993E0,-1.7561496E0],"split_indices":[5,5,5,0,1,1,0,0,0,0,0],"split_type":[0,0,0,0,0,0,0,0,0,0,0],"sum_hessian":[2.18E2,9.9E1,1.19E2,1.1E1,8.8E1,1.1E2,9E0,7.6E1,1.2E1,1.03E2,7E0],"tree_param":{"num_deleted":"0","num_feature":"7","num_nodes":"11","size_leaf_vector":"1"}},{"base_weights":[-2.759228E0,-5.7453995E1,4.3462734E1,-6.6170235E0,-4.1681515E1,2.3448978E1,7.440175E1,2.47739E0,-2.3033602E0,1.606122E0,-1.2096529E0,4.1126523E0,-3.3332112E-1],"categories":[],"categories_nodes":[],"categories_segments":[],"categories_sizes":[],"default_left":[0,0,0,0,0,0,0,0,0,0,0,0,0],"id":48,"left_children":[1,3,5,-1,7,9,11,-1,-1,-1,-1,-1,-1],"loss_changes":[5.687604E5,1.1062569E5,7.205384E4,0E0,3.9774156E4,3.3372324E4,3.1011703E4,0E0,0E0,0E0,0E0,0E0,0E0],"parents":[2147483647,0,0,1,1,2,2,4,4,5,5,6,6],"right_children":[2,4,6,-1,8,10,12,-1,-1,-1,-1,-1,-1],"split_conditions":[3.7866667E3,3.0133333E3,4.2133335E3,-6.6170235E0,2.89E3,4.16E3,4.62E3,2.47739E0,-2.3033602E0,1.606122E0,-1.2096529E0,4.1126523E0,-3.3332112E-1],"split_indices":[5,5,5,0,3,2,2,0,0,0,0,0,0],"split_type":[0,0,0,0,0,0,0,0,0,0,0,0,0],"sum_hessian":[2.21E2,1.01E2,1.2E2,1.5E1,8.6E1,7.5E1,4.5E1,3E0,8.3E1,6.4E1,1.1E1,4.1E1,4E0],"tree_param":{"num_deleted":"0","num_feature":"7","num_nodes":"13","size_leaf_vector":"1"}},{"base_weights":[-2.5417407E0,-7.544524E1,2.5261278E1,-7.8650775E0,-5.9873356E1,-5.702643E0,5.1586853E1,-2.1740758E0,-7.470151E0,1.1739423E0,-2.3901415E0,2.0130992E0,5.9715962E0],"categories":[],"categories_nodes":[],"categories_segments":[],"categories_sizes":[],"default_left":[0,0,0,0,0,0,0,0,0,0,0,0,0],"id":49,"left_children":[1,3,5,-1,7,9,11,-1,-1,-1,-1,-1,-1],"loss_changes":[4.7000728E5,6.2741656E4,1.3753239E5,0E0,7.065814E4,9.929985E4,6.030153E4,0E0,0E0,0E0,0E0,0E0,0E0],"parents":[2147483647,0,0,1,1,2,2,4,4,5,5,6,6],"right_children":[2,4,6,-1,8,10,12,-1,-1,-1,-1,-1,-1],"split_conditions":[3.4E3,2.9066667E3,3.97E3,-7.8650775E0,3.47E3,3.81E3,4.5466665E3,-2.1740758E0,-7.470151E0,1.1739423E0,-2.3901415E0,2.0130992E0,5.9715962E0],"split_indices":[5,5,5,0,1,1,5,0,0,0,0,0,0],"split_type":[0,0,0,0,0,0,0,0,0,0,0,0,0],"sum_hessian":[2.28E2,6.2E1,1.66E2,7E0,5.5E1,7.7E1,8.9E1,4.9E1,6E0,4.6E1,3.1E1,7.9E1,1E1],"tree_param":{"num_deleted":"0","num_feature":"7","num_nodes":"13","size_leaf_vector":"1"}},{"base_weights":[-1.7231547E0,-3.9657875E1,4.8227226E1,-8.214188E0,-3.0613146E1,3.3211323E1,1.0479492E2,-2.8527114E0,-6.194257E-1,2.4721968E0,1.9714396E-1,6.063392E0,1.4340495E0],"categories":[],"categories_nodes":[],"categories_segments":[],"categories_sizes":[],"default_left":[0,0,0,0,0,0,0,0,0,0,0,0,0],"id":50,"left_children":[1,3,5,-1,7,9,11,-1,-1,-1,-1,-1,-1],"loss_changes":[4.1690328E5,1.3084244E5,7.373372E4,0E0,5.592997E4,3.6668156E4,1.6866375E4,0E0,0E0,0E0,0E0,0E0,0E0],"parents":[2147483647,0,0,1,1,2,2,4,4,5,5,6,6],"right_children":[2,4,6,-1,8,10,12,-1,-1,-1,-1,-1,-1],"split_conditions":[3.9166667E3,2.8133333E3,4.37E3,-8.214188E0,3.3433333E3,4.19E3,4.6E3,-2.8527114E0,-6.194257E-1,2.4721968E0,1.9714396E-1,6.063392E0,1.4340495E0],"split_indices":[5,5,5,0,5,4,3,0,0,0,0,0,0],"split_type":[0,0,0,0,0,0,0,0,0,0,0,0,0],"sum_hessian":[2.16E2,1.23E2,9.3E1,6E0,1.17E2,7.6E1,1.7E1,4.6E1,7.1E1,4.8E1,2.8E1,1.3E1,4E0],"tree_param":{"num_deleted":"0","num_feature":"7","num_nodes":"13","size_leaf_vector":"1"}},{"base_weights":[-1.088038E0,-7.6531494E1,2.4513697E1,-7.519165E0,-6.049759E1,-7.331715E-1,4.8342747E1,1.9596729E0,-3.4180667E0,5.0699896E-1,-2.8662076E0,2.666681E0,-6.263916E-2],"categories":[],"categories_nodes":[],"categories_segments":[],"categories_sizes":[],"default_left":[0,0,0,0,0,0,0,0,0,0,0,0,0],"id":51,"left_children":[1,3,5,-1,7,9,11,-1,-1,-1,-1,-1,-1],"loss_changes":[4.4219884E5,5.0484062E4,1.02946E5,0E0,4.533986E4,5.346492E4,2.1915797E4,0E0,0E0,0E0,0E0,0E0,0E0],"parents":[2147483647,0,0,1,1,2,2,4,4,5,5,6,6],"right_children":[2,4,6,-1,8,10,12,-1,-1,-1,-1,-1,-1],"split_conditions":[3.3433333E3,2.8133333E3,3.9733333E3,-7.519165E0,2.89E3,3.96E3,4.55E3,1.9596729E0,-3.4180667E0,5.0699896E-1,-2.8662076E0,2.666681E0,-6.263916E-2],"split_indices":[5,5,5,0,2,1,4,0,0,0,0,0,0],"split_type":[0,0,0,0,0,0,0,0,0,0,0,0,0],"sum_hessian":[2.25E2,5.6E1,1.69E2,7E0,4.9E1,8.3E1,8.6E1,3E0,4.6E1,7.1E1,1.2E1,7.8E1,8E0],"tree_param":{"num_deleted":"0","num_feature":"7","num_nodes":"13","size_leaf_vector":"1"}},{"base_weights":[3.3849468E0,-4.549465E1,3.5799236E1,-9.233823E1,-2.4310814E1,2.5182825E1,7.600628E1,-6.5476227E0,-3.4416962E0,-5.5011374E-1,-4.007372E0,1.659898E0,-2.9853058E-1,4.6633506E0,1.0379394E0],"categories":[],"categories_nodes":[],"categories_segments":[],"categories_sizes":[],"default_left":[0,0,0,0,0,0,0,0,0,0,0,0,0,0,0],"id":52,"left_children":[1,3,5,7,9,11,13,-1,-1,-1,-1,-1,-1,-1,-1],"loss_changes":[3.534092E5,8.382745E4,5.337039E4,6.4772656E3,4.579505E4,2.7613617E4,2.1875297E4,0E0,0E0,0E0,0E0,0E0,0E0,0E0,0E0],"parents":[2147483647,0,0,1,1,2,2,3,3,4,4,5,5,6,6],"right_children":[2,4,6,8,10,12,14,-1,-1,-1,-1,-1,-1,-1,-1],"split_conditions":[3.72E3,3.162E3,4.3066665E3,2.8133333E3,3.82E3,4.19E3,4.55E3,-6.5476227E0,-3.4416962E0,-5.5011374E-1,-4.007372E0,1.659898E0,-2.9853058E-1,4.6633506E0,1.0379394E0],"split_indices":[5,6,5,5,4,4,4,0,0,0,0,0,0,0,0],"split_type":[0,0,0,0,0,0,0,0,0,0,0,0,0,0,0],"sum_hessian":[2.19E2,8.7E1,1.32E2,2.5E1,6.2E1,1.07E2,2.5E1,6E0,1.9E1,5.2E1,1E1,8.5E1,2.2E1,1.8E1,7E0],"tree_param":{"num_deleted":"0","num_feature":"7","num_nodes":"15","size_leaf_vector":"1"}},{"base_weights":[-1.8550079E0,-3.1893114E1,3.7109783E1,-5.744946E1,-1.8373243E1,2.6301245E1,7.423621E1,5.7918215E-1,-3.1603062E0,3.7223852E0,-1.4241318E0,2.0791807E0,-8.537159E-1,4.675981E0,-2.572754E-1],"categories":[],"categories_nodes":[],"categories_segments":[],"categories_sizes":[],"default_left":[0,0,0,0,0,0,0,0,0,0,0,0,0,0,0],"id":53,"left_children":[1,3,5,7,9,11,13,-1,-1,-1,-1,-1,-1,-1,-1],"loss_changes":[2.6337266E5,4.1769797E4,3.542067E4,1.8552516E4,8.494018E4,5.3787652E4,3.3108164E4,0E0,0E0,0E0,0E0,0E0,0E0,0E0,0E0],"parents":[2147483647,0,0,1,1,2,2,3,3,4,4,5,5,6,6],"right_children":[2,4,6,8,10,12,14,-1,-1,-1,-1,-1,-1,-1,-1],"split_conditions":[3.902E3,3.228E3,4.362E3,2.73E3,3.23E3,4.21E3,4.59E3,5.7918215E-1,-3.1603062E0,3.7223852E0,-1.4241318E0,2.0791807E0,-8.537159E-1,4.675981E0,-2.572754E-1],"split_indices":[6,6,6,1,3,4,3,0,0,0,0,0,0,0,0],"split_type":[0,0,0,0,0,0,0,0,0,0,0,0,0,0,0],"sum_hessian":[2.21E2,1.25E2,9.6E1,4.1E1,8.4E1,7.7E1,1.9E1,3E0,3.8E1,7E0,7.7E1,5.7E1,2E1,1.5E1,4E0],"tree_param":{"num_deleted":"0","num_feature":"7","num_nodes":"15","size_leaf_vector":"1"}},{"base_weights":[-4.4331403E0,-5.8214035E1,1.5624791E1,-6.6017685E0,-4.5359512E1,-7.360834E0,3.769112E1,-1.4285796E0,-5.759542E0,1.0042405E0,-1.7227982E0,2.1118248E0,-8.024506E-1],"categories":[],"categories_nodes":[],"categories_segments":[],"categories_sizes":[],"default_left":[0,0,0,0,0,0,0,0,0,0,0,0,0],"id":54,"left_children":[1,3,5,-1,7,9,11,-1,-1,-1,-1,-1,-1],"loss_changes":[2.4237675E5,4.590711E4,8.3737055E4,0E0,5.789539E4,6.236283E4,2.1874273E4,0E0,0E0,0E0,0E0,0E0,0E0],"parents":[2147483647,0,0,1,1,2,2,4,4,5,5,6,6],"right_children":[2,4,6,-1,8,10,12,-1,-1,-1,-1,-1,-1],"split_conditions":[3.3466667E3,2.8133333E3,3.9733333E3,-6.6017685E0,3.32E3,3.78E3,4.55E3,-1.4285796E0,-5.759542E0,1.0042405E0,-1.7227982E0,2.1118248E0,-8.024506E-1],"split_indices":[5,5,5,0,6,2,4,0,0,0,0,0,0],"split_type":[0,0,0,0,0,0,0,0,0,0,0,0,0],"sum_hessian":[2.21E2,5.9E1,1.62E2,6E0,5.3E1,8E1,8.2E1,4.5E1,8E0,4E1,4E1,7.6E1,6E0],"tree_param":{"num_deleted":"0","num_feature":"7","num_nodes":"13","size_leaf_vector":"1"}},{"base_weights":[-4.169926E0,-5.5418556E1,2.387606E1,-4.5732796E1,-6.960482E0,7.1268325E0,5.6030743E1,-4.1401305E0,-1.0590088E0,2.3184917E0,-3.7223002E-1,2.1385782E0,5.5816865E0],"categories":[],"categories_nodes":[],"categories_segments":[],"categories_sizes":[],"default_left":[0,0,0,0,0,0,0,0,0,0,0,0,0],"id":55,"left_children":[1,3,5,7,-1,9,11,-1,-1,-1,-1,-1,-1],"loss_changes":[3.1310712E5,4.9758812E4,7.513919E4,6.202403E4,0E0,5.5013957E4,2.5838484E4,0E0,0E0,0E0,0E0,0E0,0E0],"parents":[2147483647,0,0,1,1,2,2,3,3,5,5,6,6],"right_children":[2,4,6,8,-1,10,12,-1,-1,-1,-1,-1,-1],"split_conditions":[3.624E3,3.6E3,4.16E3,3.162E3,-6.960482E0,3.78E3,4.562E3,-4.1401305E0,-1.0590088E0,2.3184917E0,-3.7223002E-1,2.1385782E0,5.5816865E0],"split_indices":[6,3,0,6,0,2,6,0,0,0,0,0,0],"split_type":[0,0,0,0,0,0,0,0,0,0,0,0,0],"sum_hessian":[2.14E2,7.5E1,1.39E2,7E1,5E0,9.3E1,4.6E1,2.6E1,4.4E1,2.4E1,6.9E1,4E1,6E0],"tree_param":{"num_deleted":"0","num_feature":"7","num_nodes":"13","size_leaf_vector":"1"}},{"base_weights":[3.076689E-1,-4.5011215E1,2.5365723E1,-6.2523074E0,-3.5448463E1,6.7229166E0,3.979595E1,1.8203909E0,-2.1153574E0,2.3179479E0,-1.800186E0,3.3665242E0,1.391782E0],"categories":[],"categories_nodes":[],"categories_segments":[],"categories_sizes":[],"default_left":[0,0,0,0,0,0,0,0,0,0,0,0,0],"id":56,"left_children":[1,3,5,-1,7,9,11,-1,-1,-1,-1,-1,-1],"loss_changes":[2.3281089E5,4.7005438E4,3.4975547E4,0E0,3.659371E4,1.0494906E5,2.0621422E4,0E0,0E0,0E0,0E0,0E0,0E0],"parents":[2147483647,0,0,1,1,2,2,4,4,5,5,6,6],"right_children":[2,4,6,-1,8,10,12,-1,-1,-1,-1,-1,-1],"split_conditions":[3.6433333E3,2.81E3,3.9866667E3,-6.2523074E0,2.89E3,3.84E3,4.08E3,1.8203909E0,-2.1153574E0,2.3179479E0,-1.800186E0,3.3665242E0,1.391782E0],"split_indices":[5,0,5,0,1,1,1,0,0,0,0,0,0],"split_type":[0,0,0,0,0,0,0,0,0,0,0,0,0],"sum_hessian":[2.01E2,7.1E1,1.3E2,5E0,6.6E1,5.8E1,7.2E1,5E0,6.1E1,3E1,2.8E1,1.9E1,5.3E1],"tree_param":{"num_deleted":"0","num_feature":"7","num_nodes":"13","size_leaf_vector":"1"}},{"base_weights":[2.5471158E0,-3.424142E1,2.090787E1,1.5415457E0,-3.9692455E1,9.787582E0,5.0536568E1,-4.8100753E0,-1.4193127E0,8.739025E-1,-1.63715E0,2.9280813E0,-7.898397E-1],"categories":[],"categories_nodes":[],"categories_segments":[],"categories_sizes":[],"default_left":[0,0,0,0,0,0,0,0,0,0,0,0,0],"id":57,"left_children":[1,3,5,-1,7,9,11,-1,-1,-1,-1,-1,-1],"loss_changes":[1.5408697E5,2.9405594E4,4.909164E4,0E0,3.9900484E4,3.8104613E4,2.3675648E4,0E0,0E0,0E0,0E0,0E0,0E0],"parents":[2147483647,0,0,1,1,2,2,4,4,5,5,6,6],"right_children":[2,4,6,-1,8,10,12,-1,-1,-1,-1,-1,-1],"split_conditions":[3.53E3,2.81E3,4.228E3,1.5415457E0,3.05E3,4.18E3,4.62E3,-4.8100753E0,-1.4193127E0,8.739025E-1,-1.63715E0,2.9280813E0,-7.898397E-1],"split_indices":[0,4,6,0,2,4,2,0,0,0,0,0,0],"split_type":[0,0,0,0,0,0,0,0,0,0,0,0,0],"sum_hessian":[2.24E2,7.4E1,1.5E2,5E0,6.9E1,1.11E2,3.9E1,9E0,6E1,9.5E1,1.6E1,3.5E1,4E0],"tree_param":{"num_deleted":"0","num_feature":"7","num_nodes":"13","size_leaf_vector":"1"}},{"base_weights":[5.0229616E0,-3.2256584E1,2.64466E1,-7.626333E1,-1.3693338E1,1.7803085E1,6.197829E1,-4.2046742E0,-1.3023376E0,3.998981E-1,-4.1504283E0,1.0116711E0,-2.1392772E0,4.327097E0,2.1909425E0],"categories":[],"categories_nodes":[],"categories_segments":[],"categories_sizes":[],"default_left":[0,0,0,0,0,0,0,0,0,0,0,0,0,0,0],"id":58,"left_children":[1,3,5,7,9,11,13,-1,-1,-1,-1,-1,-1,-1,-1],"loss_changes":[1.7262016E5,6.244714E4,3.9868445E4,4.6629375E3,8.853296E4,1.8370734E4,4.0132812E3,0E0,0E0,0E0,0E0,0E0,0E0,0E0,0E0],"parents":[2147483647,0,0,1,1,2,2,3,3,4,4,5,5,6,6],"right_children":[2,4,6,8,10,12,14,-1,-1,-1,-1,-1,-1,-1,-1],"split_conditions":[3.74E3,3.152E3,4.272E3,3.2E3,3.6E3,4.33E3,4.25E3,-4.2046742E0,-1.3023376E0,3.998981E-1,-4.1504283E0,1.0116711E0,-2.1392772E0,4.327097E0,2.1909425E0],"split_indices":[6,6,6,4,4,3,4,0,0,0,0,0,0,0,0],"split_type":[0,0,0,0,0,0,0,0,0,0,0,0,0,0,0],"sum_hessian":[2.12E2,7.7E1,1.35E2,2.1E1,5.6E1,1.11E2,2.4E1,1.7E1,4E0,4.4E1,1.2E1,1.08E2,3E0,7E0,1.7E1],"tree_param":{"num_deleted":"0","num_feature":"7","num_nodes":"15","size_leaf_vector":"1"}},{"base_weights":[-1.1017748E0,-2.6372757E1,3.4721737E1,-6.015514E0,-1.9410095E1,2.6932547E1,5.2016115E0,3.5089357E0,-1.1328555E0,1.7039093E0,-2.2078588E0],"categories":[],"categories_nodes":[],"categories_segments":[],"categories_sizes":[],"default_left":[0,0,0,0,0,0,0,0,0,0,0],"id":59,"left_children":[1,3,5,-1,7,9,-1,-1,-1,-1,-1],"loss_changes":[2.1004933E5,8.4281E4,4.6224062E4,0E0,4.0705703E4,4.8219945E4,0E0,0E0,0E0,0E0,0E0],"parents":[2147483647,0,0,1,1,2,2,4,4,5,5],"right_children":[2,4,6,-1,8,10,-1,-1,-1,-1,-1],"split_conditions":[3.94E3,2.8133333E3,4.5466665E3,-6.015514E0,2.81E3,4.45E3,5.2016115E0,3.5089357E0,-1.1328555E0,1.7039093E0,-2.2078588E0],"split_indices":[5,5,5,0,3,1,0,0,0,0,0],"split_type":[0,0,0,0,0,0,0,0,0,0,0],"sum_hessian":[2.28E2,1.34E2,9.4E1,7E0,1.27E2,8.7E1,7E0,3E0,1.24E2,8E1,7E0],"tree_param":{"num_deleted":"0","num_feature":"7","num_nodes":"11","size_leaf_vector":"1"}},{"base_weights":[2.8677876E0,-3.393263E1,2.4855814E1,-5.864E0,-2.5791418E1,2.0164381E1,4.919812E0,-2.3481646E-1,-3.3426213E0,3.7579134E0,8.23496E-1],"categories":[],"categories_nodes":[],"categories_segments":[],"categories_sizes":[],"default_left":[0,0,0,0,0,0,0,0,0,0,0],"id":60,"left_children":[1,3,5,-1,7,9,-1,-1,-1,-1,-1],"loss_changes":[1.8374977E5,5.1626984E4,4.5023234E4,0E0,6.866692E4,2.5155781E4,0E0,0E0,0E0,0E0,0E0],"parents":[2147483647,0,0,1,1,2,2,4,4,5,5],"right_children":[2,4,6,-1,8,10,-1,-1,-1,-1,-1],"split_conditions":[3.6433333E3,2.8133333E3,4.56E3,-5.864E0,3.35E3,3.68E3,4.919812E0,-2.3481646E-1,-3.3426213E0,3.7579134E0,8.23496E-1],"split_indices":[5,5,5,0,1,1,0,0,0,0,0],"split_type":[0,0,0,0,0,0,0,0,0,0,0],"sum_hessian":[2.23E2,8.3E1,1.4E2,5E0,7.8E1,1.34E2,6E0,5.3E1,2.5E1,6E0,1.28E2],"tree_param":{"num_deleted":"0","num_feature":"7","num_nodes":"11","size_leaf_vector":"1"}},{"base_weights":[-4.2813077E0,-4.4182724E1,1.6258505E1,-3.4980846E1,-6.31035E0,8.711853E-1,3.29039E1,-3.2991161E0,-4.847459E-1,1.8203804E0,-1.0953487E0,2.9444594E0,3.9481953E-1],"categories":[],"categories_nodes":[],"categories_segments":[],"categories_sizes":[],"default_left":[0,0,0,0,0,0,0,0,0,0,0,0,0],"id":61,"left_children":[1,3,5,7,-1,9,11,-1,-1,-1,-1,-1,-1],"loss_changes":[1.858394E5,4.9288203E4,3.8361875E4,5.51615E4,0E0,6.63515E4,4.585754E4,0E0,0E0,0E0,0E0,0E0,0E0],"parents":[2147483647,0,0,1,1,2,2,3,3,5,5,6,6],"right_children":[2,4,6,8,-1,10,12,-1,-1,-1,-1,-1,-1],"split_conditions":[3.624E3,3.6E3,4.064E3,3.17E3,-6.31035E0,3.8E3,4.25E3,-3.2991161E0,-4.847459E-1,1.8203804E0,-1.0953487E0,2.9444594E0,3.9481953E-1],"split_indices":[6,3,6,1,0,1,4,0,0,0,0,0,0],"split_type":[0,0,0,0,0,0,0,0,0,0,0,0,0],"sum_hessian":[2.23E2,7.5E1,1.48E2,7E1,5E0,7.8E1,7E1,3E1,4E1,3E1,4.8E1,3.3E1,3.7E1],"tree_param":{"num_deleted":"0","num_feature":"7","num_nodes":"13","size_leaf_vector":"1"}},{"base_weights":[-5.1886578E0,-3.1974277E1,2.7169306E1,-5.2435546E0,-2.2520006E1,2.0967155E1,4.5850863E0,-6.2061596E-1,-3.7285507E0,1.8973036E0,-5.2639913E-2],"categories":[],"categories_nodes":[],"categories_segments":[],"categories_sizes":[],"default_left":[0,0,0,0,0,0,0,0,0,0,0],"id":62,"left_children":[1,3,5,-1,7,9,-1,-1,-1,-1,-1],"loss_changes":[1.8721727E5,7.660059E4,3.5378055E4,0E0,5.4443137E4,3.44764E4,0E0,0E0,0E0,0E0,0E0],"parents":[2147483647,0,0,1,1,2,2,4,4,5,5],"right_children":[2,4,6,-1,8,10,-1,-1,-1,-1,-1],"split_conditions":[3.9033333E3,2.9633333E3,4.56E3,-5.2435546E0,3.82E3,4.17E3,4.5850863E0,-6.2061596E-1,-3.7285507E0,1.8973036E0,-5.2639913E-2],"split_indices":[5,5,5,0,1,3,0,0,0,0,0],"split_type":[0,0,0,0,0,0,0,0,0,0,0],"sum_hessian":[2.12E2,1.16E2,9.6E1,1.1E1,1.05E2,9E1,6E0,9E1,1.5E1,5E1,4E1],"tree_param":{"num_deleted":"0","num_feature":"7","num_nodes":"11","size_leaf_vector":"1"}},{"base_weights":[-4.3829474E0,-1.8490759E1,3.685675E1,-3.5992252E1,-5.6123295E0,2.6972815E1,4.5326324E0,-1.1912265E0,-5.658403E0,8.567939E-1,-9.116406E-1,2.7340422E0,-8.534885E-2],"categories":[],"categories_nodes":[],"categories_segments":[],"categories_sizes":[],"default_left":[0,0,0,0,0,0,0,0,0,0,0,0,0],"id":63,"left_children":[1,3,5,7,9,11,-1,-1,-1,-1,-1,-1,-1],"loss_changes":[1.2994123E5,3.701103E4,2.5417453E4,6.0341414E4,2.8760016E4,4.0714363E4,0E0,0E0,0E0,0E0,0E0,0E0,0E0],"parents":[2147483647,0,0,1,1,2,2,3,3,4,4,5,5],"right_children":[2,4,6,8,10,12,-1,-1,-1,-1,-1,-1,-1],"split_conditions":[4.12E3,3.49E3,4.562E3,3.47E3,3.8E3,4.25E3,4.5326324E0,-1.1912265E0,-5.658403E0,8.567939E-1,-9.116406E-1,2.7340422E0,-8.534885E-2],"split_indices":[0,0,6,1,1,4,0,0,0,0,0,0,0],"split_type":[0,0,0,0,0,0,0,0,0,0,0,0,0],"sum_hessian":[2.19E2,1.64E2,5.5E1,6.8E1,9.6E1,4.9E1,6E0,6.1E1,7E0,3.4E1,6.2E1,2.4E1,2.5E1],"tree_param":{"num_deleted":"0","num_feature":"7","num_nodes":"13","size_leaf_vector":"1"}},{"base_weights":[3.6165E-1,-1.6064064E1,2.366779E1,-9.116033E0,-4.99755E1,1.493546E1,5.6105762E1,-1.029903E0,9.809807E-1,-3.1228325E0,2.0632325E-1,1.6966527E0,-1.1027607E0,3.887821E0,1.0534449E0],"categories":[],"categories_nodes":[],"categories_segments":[],"categories_sizes":[],"default_left":[0,0,0,0,0,0,0,0,0,0,0,0,0,0,0],"id":64,"left_children":[1,3,5,7,9,11,13,-1,-1,-1,-1,-1,-1,-1,-1],"loss_changes":[8.612927E4,3.0190387E4,2.4667164E4,3.776192E4,1.5371055E4,5.4904562E4,1.1136363E4,0E0,0E0,0E0,0E0,0E0,0E0,0E0,0E0],"parents":[2147483647,0,0,1,1,2,2,3,3,4,4,5,5,6,6],"right_children":[2,4,6,8,10,12,14,-1,-1,-1,-1,-1,-1,-1,-1],"split_conditions":[3.93E3,3.82E3,4.36E3,3.65E3,3.98E3,4.18E3,4.58E3,-1.029903E0,9.809807E-1,-3.1228325E0,2.0632325E-1,1.6966527E0,-1.1027607E0,3.887821E0,1.0534449E0],"split_indices":[0,1,3,0,2,4,3,0,0,0,0,0,0,0,0],"split_type":[0,0,0,0,0,0,0,0,0,0,0,0,0,0,0],"sum_hessian":[2.21E2,1.3E2,9.1E1,1.1E2,2E1,7.4E1,1.7E1,7.9E1,3.1E1,1.6E1,4E0,4.9E1,2.5E1,9E0,8E0],"tree_param":{"num_deleted":"0","num_feature":"7","num_nodes":"15","size_leaf_vector":"1"}},{"base_weights":[3.8188522E0,-1.5373801E1,2.673641E1,-4.559082E0,-9.832842E0,1.7226923E1,6.5964E1,8.394186E-2,-2.2860596E0,1.3221363E0,-7.4539614E-1,1.9761881E0,4.327949E0],"categories":[],"categories_nodes":[],"categories_segments":[],"categories_sizes":[],"default_left":[0,0,0,0,0,0,0,0,0,0,0,0,0],"id":65,"left_children":[1,3,5,-1,7,9,11,-1,-1,-1,-1,-1,-1],"loss_changes":[9.7588805E4,4.903268E4,3.5403742E4,0E0,4.7664062E4,2.566488E4,3.5039062E3,0E0,0E0,0E0,0E0,0E0,0E0],"parents":[2147483647,0,0,1,1,2,2,4,4,5,5,6,6],"right_children":[2,4,6,-1,8,10,12,-1,-1,-1,-1,-1,-1],"split_conditions":[3.8666667E3,2.8133333E3,4.36E3,-4.559082E0,3.8E3,4.21E3,4.56E3,8.394186E-2,-2.2860596E0,1.3221363E0,-7.4539614E-1,1.9761881E0,4.327949E0],"split_indices":[5,5,5,0,3,3,5,0,0,0,0,0,0],"split_type":[0,0,0,0,0,0,0,0,0,0,0,0,0],"sum_hessian":[2.18E2,1.19E2,9.9E1,6E0,1.13E2,8.2E1,1.7E1,8.7E1,2.6E1,6.4E1,1.8E1,1E1,7E0],"tree_param":{"num_deleted":"0","num_feature":"7","num_nodes":"13","size_leaf_vector":"1"}},{"base_weights":[-1.6456137E0,-2.5043573E1,1.6336473E1,-4.477863E0,-1.8955439E1,8.563404E0,3.8430042E1,3.4108357E0,-1.2203125E0,8.0728465E-1,-1.346481E0,2.5464053E0,-1.7393637E0],"categories":[],"categories_nodes":[],"categories_segments":[],"categories_sizes":[],"default_left":[0,0,0,0,0,0,0,0,0,0,0,0,0],"id":66,"left_children":[1,3,5,-1,7,9,11,-1,-1,-1,-1,-1,-1],"loss_changes":[9.590642E4,3.5488836E4,2.1495613E4,0E0,4.7519594E4,2.7243193E4,3.3740754E4,0E0,0E0,0E0,0E0,0E0,0E0],"parents":[2147483647,0,0,1,1,2,2,4,4,5,5,6,6],"right_children":[2,4,6,-1,8,10,12,-1,-1,-1,-1,-1,-1],"split_conditions":[3.784E3,2.858E3,4.25E3,-4.477863E0,2.94E3,4.18E3,4.6E3,3.4108357E0,-1.2203125E0,8.0728465E-1,-1.346481E0,2.5464053E0,-1.7393637E0],"split_indices":[6,6,6,0,3,4,2,0,0,0,0,0,0],"split_type":[0,0,0,0,0,0,0,0,0,0,0,0,0],"sum_hessian":[2.24E2,9.7E1,1.27E2,6E0,9.1E1,9.6E1,3.1E1,4E0,8.7E1,8E1,1.6E1,2.7E1,4E0],"tree_param":{"num_deleted":"0","num_feature":"7","num_nodes":"13","size_leaf_vector":"1"}},{"base_weights":[2.221093E0,-4.0263393E1,1.5547976E1,-2.7257822E1,-6.86948E0,1.0642495E1,6.296588E1,-2.6010373E0,8.1633914E-1,7.189666E-1,-2.14644E0,3.8094158E0,7.766195E-1],"categories":[],"categories_nodes":[],"categories_segments":[],"categories_sizes":[],"default_left":[0,0,0,0,0,0,0,0,0,0,0,0,0],"id":67,"left_children":[1,3,5,7,-1,9,11,-1,-1,-1,-1,-1,-1],"loss_changes":[1.30342375E5,6.1985117E4,3.936611E4,5.6742055E4,0E0,3.3464715E4,7.668211E3,0E0,0E0,0E0,0E0,0E0,0E0],"parents":[2147483647,0,0,1,1,2,2,3,3,5,5,6,6],"right_children":[2,4,6,8,-1,10,12,-1,-1,-1,-1,-1,-1],"split_conditions":[3.3433333E3,3.4E3,4.4166665E3,3.18E3,-6.86948E0,4.36E3,4.59E3,-2.6010373E0,8.1633914E-1,7.189666E-1,-2.14644E0,3.8094158E0,7.766195E-1],"split_indices":[5,1,5,5,0,1,1,0,0,0,0,0,0],"split_type":[0,0,0,0,0,0,0,0,0,0,0,0,0],"sum_hessian":[2.26E2,5.3E1,1.73E2,4.9E1,4E0,1.59E2,1.4E1,3.1E1,1.8E1,1.5E2,9E0,1E1,4E0],"tree_param":{"num_deleted":"0","num_feature":"7","num_nodes":"13","size_leaf_vector":"1"}},{"base_weights":[1.7521653E0,-2.3160679E1,1.2562071E1,-8.867996E0,-9.8209076E1,3.5009605E1,6.227791E0,-1.5096449E0,1.4494958E0,-2.2992327E0,-6.3200603E0,-1.5752651E-1,2.078983E0,-1.7054538E0,9.102147E-1],"categories":[],"categories_nodes":[],"categories_segments":[],"categories_sizes":[],"default_left":[0,0,0,0,0,0,0,0,0,0,0,0,0,0,0],"id":68,"left_children":[1,3,5,7,9,11,13,-1,-1,-1,-1,-1,-1,-1,-1],"loss_changes":[6.2252848E4,7.334317E4,2.2456357E4,5.0996867E4,4.570461E3,9.036996E3,6.3077973E4,0E0,0E0,0E0,0E0,0E0,0E0,0E0,0E0],"parents":[2147483647,0,0,1,1,2,2,3,3,4,4,5,5,6,6],"right_children":[2,4,6,8,10,12,14,-1,-1,-1,-1,-1,-1,-1,-1],"split_conditions":[3.48E3,3.47E3,3.78E3,3.21E3,3.45E3,3.51E3,3.94E3,-1.5096449E0,1.4494958E0,-2.2992327E0,-6.3200603E0,-1.5752651E-1,2.078983E0,-1.7054538E0,9.102147E-1],"split_indices":[0,1,1,0,2,1,0,0,0,0,0,0,0,0,0],"split_type":[0,0,0,0,0,0,0,0,0,0,0,0,0,0,0],"sum_hessian":[2.27E2,6.8E1,1.59E2,5.9E1,9E0,3.3E1,1.26E2,3.8E1,2.1E1,5E0,4E0,5E0,2.8E1,2.8E1,9.8E1],"tree_param":{"num_deleted":"0","num_feature":"7","num_nodes":"15","size_leaf_vector":"1"}},{"base_weights":[7.7914584E-1,-2.0326105E1,2.7364325E1,-4.9434023E0,-1.5950859E1,1.9618835E1,6.104996E1,2.6256495E0,-9.33691E-1,1.4976376E0,-3.710139E-1,1.0200366E0,3.3423061E0],"categories":[],"categories_nodes":[],"categories_segments":[],"categories_sizes":[],"default_left":[0,0,0,0,0,0,0,0,0,0,0,0,0],"id":69,"left_children":[1,3,5,-1,7,9,11,-1,-1,-1,-1,-1,-1],"loss_changes":[1.2174609E5,3.842642E4,2.2652055E4,0E0,2.3772885E4,2.3077535E4,1.2779453E3,0E0,0E0,0E0,0E0,0E0,0E0],"parents":[2147483647,0,0,1,1,2,2,4,4,5,5,6,6],"right_children":[2,4,6,-1,8,10,12,-1,-1,-1,-1,-1,-1],"split_conditions":[3.95E3,2.7966667E3,4.45E3,-4.9434023E0,2.89E3,4.21E3,4.27E3,2.6256495E0,-9.33691E-1,1.4976376E0,-3.710139E-1,1.0200366E0,3.3423061E0],"split_indices":[5,5,3,0,2,3,2,0,0,0,0,0,0],"split_type":[0,0,0,0,0,0,0,0,0,0,0,0,0],"sum_hessian":[2.13E2,1.19E2,9.4E1,4E0,1.15E2,7.9E1,1.5E1,3E0,1.12E2,5.7E1,2.2E1,3E0,1.2E1],"tree_param":{"num_deleted":"0","num_feature":"7","num_nodes":"13","size_leaf_vector":"1"}},{"base_weights":[4.3579845E0,-5.756586E0,3.4016438E1,-3.8913982E0,-3.049626E0,2.8108076E1,3.7434082E0,3.5959861E0,-2.6699919E-1,2.9002128E0,8.26425E-1],"categories":[],"categories_nodes":[],"categories_segments":[],"categories_sizes":[],"default_left":[0,0,0,0,0,0,0,0,0,0,0],"id":70,"left_children":[1,3,5,-1,7,9,-1,-1,-1,-1,-1],"loss_changes":[6.728775E4,3.2301156E4,9.549109E3,0E0,2.8927982E4,1.6430363E4,0E0,0E0,0E0,0E0,0E0],"parents":[2147483647,0,0,1,1,2,2,4,4,5,5],"right_children":[2,4,6,-1,8,10,-1,-1,-1,-1,-1],"split_conditions":[4.07E3,2.76E3,4.552E3,-3.8913982E0,2.86E3,4.16E3,3.7434082E0,3.5959861E0,-2.6699919E-1,2.9002128E0,8.26425E-1],"split_indices":[6,6,6,0,2,3,0,0,0,0,0],"split_type":[0,0,0,0,0,0,0,0,0,0,0],"sum_hessian":[2.21E2,1.66E2,5.5E1,4E0,1.62E2,5.1E1,4E0,3E0,1.59E2,1.2E1,3.9E1],"tree_param":{"num_deleted":"0","num_feature":"7","num_nodes":"11","size_leaf_vector":"1"}},{"base_weights":[-2.3639898E0,-3.5495094E1,1.3219509E1,-2.5536625E1,-9.62101E1,9.107019E0,3.7126954E0,-4.8876467E0,-7.1539944E-1,-3.4942386E-1,-6.9245706E0,3.1248157E0,2.242455E-1],"categories":[],"categories_nodes":[],"categories_segments":[],"categories_sizes":[],"default_left":[0,0,0,0,0,0,0,0,0,0,0,0,0],"id":71,"left_children":[1,3,5,7,9,11,-1,-1,-1,-1,-1,-1,-1],"loss_changes":[1.1142634E5,3.680561E4,3.554503E4,4.747793E4,3.2015977E4,3.3987383E4,0E0,0E0,0E0,0E0,0E0,0E0,0E0],"parents":[2147483647,0,0,1,1,2,2,3,3,4,4,5,5],"right_children":[2,4,6,8,10,12,-1,-1,-1,-1,-1,-1,-1],"split_conditions":[3.54E3,3.5E3,4.56E3,2.8133333E3,3.4E3,3.62E3,3.7126954E0,-4.8876467E0,-7.1539944E-1,-3.4942386E-1,-6.9245706E0,3.1248157E0,2.242455E-1],"split_indices":[5,3,5,5,2,3,0,0,0,0,0,0,0],"split_type":[0,0,0,0,0,0,0,0,0,0,0,0,0],"sum_hessian":[2.12E2,6.7E1,1.45E2,6E1,7E0,1.38E2,7E0,6E0,5.4E1,3E0,4E0,9E0,1.29E2],"tree_param":{"num_deleted":"0","num_feature":"7","num_nodes":"13","size_leaf_vector":"1"}},{"base_weights":[7.1526074E-1,-1.7938663E1,1.9356636E1,-4.159851E0,-1.341861E1,1.5254261E1,3.4949768E0,1.4232585E0,-9.112174E-1,1.0659088E0,-1.2592212E0],"categories":[],"categories_nodes":[],"categories_segments":[],"categories_sizes":[],"default_left":[0,0,0,0,0,0,0,0,0,0,0],"id":72,"left_children":[1,3,5,-1,7,9,-1,-1,-1,-1,-1],"loss_changes":[7.928253E4,3.1393945E4,2.1504902E4,0E0,2.297731E4,2.7557172E4,0E0,0E0,0E0,0E0,0E0],"parents":[2147483647,0,0,1,1,2,2,4,4,5,5],"right_children":[2,4,6,-1,8,10,-1,-1,-1,-1,-1],"split_conditions":[3.87E3,2.858E3,4.562E3,-4.159851E0,3.05E3,4.45E3,3.4949768E0,1.4232585E0,-9.112174E-1,1.0659088E0,-1.2592212E0],"split_indices":[0,6,6,0,4,4,0,0,0,0,0],"split_type":[0,0,0,0,0,0,0,0,0,0,0],"sum_hessian":[2.24E2,1.12E2,1.12E2,5E0,1.07E2,1.06E2,6E0,1E1,9.7E1,9.3E1,1.3E1],"tree_param":{"num_deleted":"0","num_feature":"7","num_nodes":"11","size_leaf_vector":"1"}},{"base_weights":[1.6418315E0,-2.0206184E1,1.2543948E1,-7.943638E0,-7.7467E1,2.9996927E0,8.664255E0,-1.7664756E0,7.659617E-1,-1.7027209E0,-5.8381777E0,-2.692854E-1,1.2628809E0],"categories":[],"categories_nodes":[],"categories_segments":[],"categories_sizes":[],"default_left":[0,0,0,0,0,0,0,0,0,0,0,0,0],"id":73,"left_children":[1,3,5,7,9,-1,11,-1,-1,-1,-1,-1,-1],"loss_changes":[5.362322E4,5.1431523E4,2.6574064E4,4.185518E4,1.4224914E4,0E0,3.3144254E4,0E0,0E0,0E0,0E0,0E0,0E0],"parents":[2147483647,0,0,1,1,2,2,3,3,4,4,6,6],"right_children":[2,4,6,8,10,-1,12,-1,-1,-1,-1,-1,-1],"split_conditions":[3.494E3,3.43E3,3.65E3,3.162E3,3.46E3,2.9996927E0,4.064E3,-1.7664756E0,7.659617E-1,-1.7027209E0,-5.8381777E0,-2.692854E-1,1.2628809E0],"split_indices":[6,1,2,6,2,0,6,0,0,0,0,0,0],"split_type":[0,0,0,0,0,0,0,0,0,0,0,0,0],"sum_hessian":[2.21E2,7.3E1,1.48E2,6.2E1,1.1E1,9E0,1.39E2,2.8E1,3.4E1,7E0,4E0,7.6E1,6.3E1],"tree_param":{"num_deleted":"0","num_feature":"7","num_nodes":"13","size_leaf_vector":"1"}},{"base_weights":[-1.8609039E0,-2.2128092E1,1.4948176E1,-1.1361511E1,-8.234162E1,3.3803651E0,1.0066706E1,-1.9508545E0,5.116211E-1,-5.4867225E0,-2.3349159E0,2.0815407E-1,2.9776835E0],"categories":[],"categories_nodes":[],"categories_segments":[],"categories_sizes":[],"default_left":[0,0,0,0,0,0,0,0,0,0,0,0,0],"id":74,"left_children":[1,3,5,7,9,-1,11,-1,-1,-1,-1,-1,-1],"loss_changes":[7.5950234E4,6.360662E4,2.9999414E4,5.3351438E4,4.3967344E3,0E0,3.2809527E4,0E0,0E0,0E0,0E0,0E0,0E0],"parents":[2147483647,0,0,1,1,2,2,3,3,4,4,6,6],"right_children":[2,4,6,8,10,-1,12,-1,-1,-1,-1,-1,-1],"split_conditions":[3.7866667E3,3.74E3,3.81E3,3.2133333E3,3.71E3,3.3803651E0,4.5466665E3,-1.9508545E0,5.116211E-1,-5.4867225E0,-2.3349159E0,2.0815407E-1,2.9776835E0],"split_indices":[5,1,1,5,5,0,5,0,0,0,0,0,0],"split_type":[0,0,0,0,0,0,0,0,0,0,0,0,0],"sum_hessian":[2.19E2,9.9E1,1.2E2,8.6E1,1.3E1,8E0,1.12E2,3.7E1,4.9E1,5E0,8E0,1.02E2,1E1],"tree_param":{"num_deleted":"0","num_feature":"7","num_nodes":"13","size_leaf_vector":"1"}},{"base_weights":[2.9341624E0,-3.7125957E1,1.059283E1,4.5526648E-1,-4.4682537E1,3.5452464E0,3.0767426E1,-4.9659266E0,-1.3915963E0,7.222089E-1,-1.0361202E0,3.1973388E0,5.208087E-1],"categories":[],"categories_nodes":[],"categories_segments":[],"categories_sizes":[],"default_left":[0,0,0,0,0,0,0,0,0,0,0,0,0],"id":75,"left_children":[1,3,5,-1,7,9,11,-1,-1,-1,-1,-1,-1],"loss_changes":[7.2579414E4,1.4089008E4,2.793391E4,0E0,2.4852992E4,4.0007863E4,3.310515E4,0E0,0E0,0E0,0E0,0E0,0E0],"parents":[2147483647,0,0,1,1,2,2,4,4,5,5,6,6],"right_children":[2,4,6,-1,8,10,12,-1,-1,-1,-1,-1,-1],"split_conditions":[3.18E3,2.73E3,4.1533335E3,4.5526648E-1,2.9066667E3,3.97E3,4.27E3,-4.9659266E0,-1.3915963E0,7.222089E-1,-1.0361202E0,3.1973388E0,5.208087E-1],"split_indices":[5,1,5,0,5,4,1,0,0,0,0,0,0],"split_type":[0,0,0,0,0,0,0,0,0,0,0,0,0],"sum_hessian":[2.32E2,3.6E1,1.96E2,5E0,3.1E1,1.47E2,4.9E1,5E0,2.6E1,1.02E2,4.5E1,1.7E1,3.2E1],"tree_param":{"num_deleted":"0","num_feature":"7","num_nodes":"13","size_leaf_vector":"1"}},{"base_weights":[-1.6839197E0,-1.5150603E1,1.76111E1,-1.1708537E1,-4.9292045E0,1.281179E1,3.270041E0,-3.567534E0,-3.8359052E-1,9.735813E-1,-2.118164E0],"categories":[],"categories_nodes":[],"categories_segments":[],"categories_sizes":[],"default_left":[0,0,0,0,0,0,0,0,0,0,0],"id":76,"left_children":[1,3,5,7,-1,9,-1,-1,-1,-1,-1],"loss_changes":[5.873778E4,3.5886863E4,1.965446E4,3.0203896E4,0E0,3.3618523E4,0E0,0E0,0E0,0E0,0E0],"parents":[2147483647,0,0,1,1,2,2,3,3,5,5],"right_children":[2,4,6,8,-1,10,-1,-1,-1,-1,-1],"split_conditions":[3.95E3,4.04E3,4.56E3,2.7966667E3,-4.9292045E0,4.52E3,3.270041E0,-3.567534E0,-3.8359052E-1,9.735813E-1,-2.118164E0],"split_indices":[5,4,5,5,0,4,0,0,0,0,0],"split_type":[0,0,0,0,0,0,0,0,0,0,0],"sum_hessian":[2.22E2,1.31E2,9.1E1,1.28E2,3E0,8.5E1,6E0,6E0,1.22E2,7.7E1,8E0],"tree_param":{"num_deleted":"0","num_feature":"7","num_nodes":"11","size_leaf_vector":"1"}},{"base_weights":[-5.5718726E-1,-2.4847418E1,1.2580197E1,-1.632902E1,-7.53121E1,3.8926216E1,6.3273363E0,-2.0336742E0,2.865873E-1,-5.1859326E0,-1.936499E0,8.8759845E-1,2.8782237E0,-1.1288736E-1,1.8350676E0],"categories":[],"categories_nodes":[],"categories_segments":[],"categories_sizes":[],"default_left":[0,0,0,0,0,0,0,0,0,0,0,0,0,0,0],"id":77,"left_children":[1,3,5,7,9,11,13,-1,-1,-1,-1,-1,-1,-1,-1],"loss_changes":[7.2744055E4,3.1930723E4,2.388862E4,3.8597344E4,3.3968438E3,9.006465E3,3.1978867E4,0E0,0E0,0E0,0E0,0E0,0E0,0E0,0E0],"parents":[2147483647,0,0,1,1,2,2,3,3,4,4,5,5,6,6],"right_children":[2,4,6,8,10,12,14,-1,-1,-1,-1,-1,-1,-1,-1],"split_conditions":[3.5566667E3,3.47E3,3.78E3,3.18E3,3.4E3,3.78E3,4.3066665E3,-2.0336742E0,2.865873E-1,-5.1859326E0,-1.936499E0,8.8759845E-1,2.8782237E0,-1.1288736E-1,1.8350676E0],"split_indices":[5,1,2,5,5,5,5,0,0,0,0,0,0,0,0],"split_type":[0,0,0,0,0,0,0,0,0,0,0,0,0,0,0],"sum_hessian":[2.24E2,7.8E1,1.46E2,6.9E1,9E0,2.6E1,1.2E2,3.2E1,3.7E1,3E0,6E0,1.4E1,1.2E1,9.5E1,2.5E1],"tree_param":{"num_deleted":"0","num_feature":"7","num_nodes":"15","size_leaf_vector":"1"}},{"base_weights":[-2.1351383E0,-3.3574846E0,4.228456E-1,-3.3194592E0,3.740746E1,3.6610475E0,-2.6761165E-1,2.6760936E0,-2.754604E-1],"categories":[],"categories_nodes":[],"categories_segments":[],"categories_sizes":[],"default_left":[0,0,0,0,0,0,0,0,0],"id":78,"left_children":[1,-1,3,5,7,-1,-1,-1,-1],"loss_changes":[3.5147387E4,0E0,2.862192E4,3.0034582E4,1.3729684E4,0E0,0E0,0E0,0E0],"parents":[2147483647,0,0,2,2,3,3,4,4],"right_children":[2,-1,4,6,8,-1,-1,-1,-1],"split_conditions":[2.81E3,-3.3574846E0,4.37E3,2.86E3,4.58E3,3.6610475E0,-2.6761165E-1,2.6760936E0,-2.754604E-1],"split_indices":[0,0,5,2,3,0,0,0,0],"split_type":[0,0,0,0,0,0,0,0,0],"sum_hessian":[2.09E2,6E0,2.03E2,1.86E2,1.7E1,3E0,1.83E2,1.2E1,5E0],"tree_param":{"num_deleted":"0","num_feature":"7","num_nodes":"9","size_leaf_vector":"1"}},{"base_weights":[5.3295034E-1,-1.8725714E1,1.1342159E1,-1.2862001E1,-5.194104E0,8.458069E0,2.9489105E0,-2.7502124E0,-3.282082E-1,7.140556E-1,-1.0438365E0],"categories":[],"categories_nodes":[],"categories_segments":[],"categories_sizes":[],"default_left":[0,0,0,0,0,0,0,0,0,0,0],"id":79,"left_children":[1,3,5,7,-1,9,-1,-1,-1,-1,-1],"loss_changes":[4.747141E4,3.8272992E4,1.9060773E4,2.024488E4,0E0,2.4510777E4,0E0,0E0,0E0,0E0,0E0],"parents":[2147483647,0,0,1,1,2,2,3,3,5,5],"right_children":[2,4,6,8,-1,10,-1,-1,-1,-1,-1],"split_conditions":[3.722E3,3.71E3,4.562E3,2.858E3,-5.194104E0,4.3E3,2.9489105E0,-2.7502124E0,-3.282082E-1,7.140556E-1,-1.0438365E0],"split_indices":[6,1,6,6,0,4,0,0,0,0,0],"split_type":[0,0,0,0,0,0,0,0,0,0,0],"sum_hessian":[2.24E2,8E1,1.44E2,7.7E1,3E0,1.38E2,6E0,8E0,6.9E1,1.16E2,2.2E1],"tree_param":{"num_deleted":"0","num_feature":"7","num_nodes":"11","size_leaf_vector":"1"}},{"base_weights":[-2.2015908E0,-2.8145147E1,3.3713796E0,1.0022802E0,-3.313605E1,5.5321754E1,1.2308253E-1,-2.145879E0,-2.80247E-1,4.2672887E0,9.265747E-2,-1.6026295E0,2.899767E-1],"categories":[],"categories_nodes":[],"categories_segments":[],"categories_sizes":[],"default_left":[0,0,0,0,0,0,0,0,0,0,0,0,0],"id":80,"left_children":[1,3,5,-1,7,9,11,-1,-1,-1,-1,-1,-1],"loss_changes":[3.2720877E4,1.0949084E4,3.154268E4,0E0,9.482863E3,1.734245E4,3.2882344E4,0E0,0E0,0E0,0E0,0E0,0E0],"parents":[2147483647,0,0,1,1,2,2,4,4,5,5,6,6],"right_children":[2,4,6,-1,8,10,12,-1,-1,-1,-1,-1,-1],"split_conditions":[3.228E3,2.69E3,3.23E3,1.0022802E0,3.17E3,3.31E3,3.49E3,-2.145879E0,-2.80247E-1,4.2672887E0,9.265747E-2,-1.6026295E0,2.899767E-1],"split_indices":[6,3,3,0,1,0,0,0,0,0,0,0,0],"split_type":[0,0,0,0,0,0,0,0,0,0,0,0,0],"sum_hessian":[2.23E2,3.8E1,1.85E2,3E0,3.5E1,9E0,1.76E2,2.5E1,1E1,5E0,4E0,2.5E1,1.51E2],"tree_param":{"num_deleted":"0","num_feature":"7","num_nodes":"13","size_leaf_vector":"1"}},{"base_weights":[-7.068769E-1,-2.1264124E1,9.788188E0,-7.614108E0,-7.149992E1,3.8769543E1,3.882551E0,-3.0203602E0,1.8151371E-1,-5.2155747E0,-1.139974E0,2.6110444E0,-5.369943E-1,-5.781461E-1,1.0907143E0],"categories":[],"categories_nodes":[],"categories_segments":[],"categories_sizes":[],"default_left":[0,0,0,0,0,0,0,0,0,0,0,0,0,0,0],"id":81,"left_children":[1,3,5,7,9,11,13,-1,-1,-1,-1,-1,-1,-1,-1],"loss_changes":[4.8528445E4,5.102587E4,2.5200797E4,3.7243383E4,2.0810508E4,1.7770902E4,3.5401957E4,0E0,0E0,0E0,0E0,0E0,0E0,0E0,0E0],"parents":[2147483647,0,0,1,1,2,2,3,3,4,4,5,5,6,6],"right_children":[2,4,6,8,10,12,14,-1,-1,-1,-1,-1,-1,-1,-1],"split_conditions":[3.6066667E3,3.47E3,3.78E3,2.9066667E3,3.3566667E3,3.81E3,4.1066665E3,-3.0203602E0,1.8151371E-1,-5.2155747E0,-1.139974E0,2.6110444E0,-5.369943E-1,-5.781461E-1,1.0907143E0],"split_indices":[5,2,2,5,5,3,5,0,0,0,0,0,0,0,0],"split_type":[0,0,0,0,0,0,0,0,0,0,0,0,0,0,0],"sum_hessian":[2.21E2,7.4E1,1.47E2,6E1,1.4E1,2.3E1,1.24E2,9E0,5.1E1,7E0,7E0,1.8E1,5E0,6.7E1,5.7E1],"tree_param":{"num_deleted":"0","num_feature":"7","num_nodes":"15","size_leaf_vector":"1"}},{"base_weights":[-2.748863E0,-1.719589E1,1.1239476E1,-7.1400757E0,-7.538129E1,2.9400644E0,5.535431E0,-1.2756531E0,3.4473333E-1,-2.3246539E0,-4.961977E0,-1.9654278E0,5.842452E-1],"categories":[],"categories_nodes":[],"categories_segments":[],"categories_sizes":[],"default_left":[0,0,0,0,0,0,0,0,0,0,0,0,0],"id":82,"left_children":[1,3,5,7,9,-1,11,-1,-1,-1,-1,-1,-1],"loss_changes":[4.5250504E4,6.3284715E4,3.0276621E4,2.5106379E4,1.7996484E3,0E0,2.9598387E4,0E0,0E0,0E0,0E0,0E0,0E0],"parents":[2147483647,0,0,1,1,2,2,3,3,4,4,6,6],"right_children":[2,4,6,8,10,-1,12,-1,-1,-1,-1,-1,-1],"split_conditions":[3.7866667E3,3.75E3,3.81E3,3.2133333E3,3.76E3,2.9400644E0,3.9E3,-1.2756531E0,3.4473333E-1,-2.3246539E0,-4.961977E0,-1.9654278E0,5.842452E-1],"split_indices":[5,1,1,5,0,0,5,0,0,0,0,0,0],"split_type":[0,0,0,0,0,0,0,0,0,0,0,0,0],"sum_hessian":[2.2E2,1.08E2,1.12E2,9.4E1,1.4E1,1E1,1.02E2,4E1,5.4E1,9E0,5E0,1.1E1,9.1E1],"tree_param":{"num_deleted":"0","num_feature":"7","num_nodes":"13","size_leaf_vector":"1"}},{"base_weights":[-1.9053395E0,-2.4776512E1,8.220643E0,-1.5514918E1,-5.31721E0,4.6882915E0,2.5944011E0,1.4959298E0,-1.0072014E0,1.1965579E0,-3.4572086E-1],"categories":[],"categories_nodes":[],"categories_segments":[],"categories_sizes":[],"default_left":[0,0,0,0,0,0,0,0,0,0,0],"id":83,"left_children":[1,3,5,7,-1,9,-1,-1,-1,-1,-1],"loss_changes":[5.436855E4,5.1092332E4,2.4655979E4,1.5296582E4,0E0,3.449115E4,0E0,0E0,0E0,0E0,0E0],"parents":[2147483647,0,0,1,1,2,2,3,3,5,5],"right_children":[2,4,6,8,-1,10,-1,-1,-1,-1,-1],"split_conditions":[3.5566667E3,3.6E3,4.51E3,2.81E3,-5.31721E0,3.92E3,2.5944011E0,1.4959298E0,-1.0072014E0,1.1965579E0,-3.4572086E-1],"split_indices":[5,4,5,3,0,4,0,0,0,0,0],"split_type":[0,0,0,0,0,0,0,0,0,0,0],"sum_hessian":[2.31E2,7E1,1.61E2,6.5E1,5E0,1.51E2,1E1,5E0,6E1,5.6E1,9.5E1],"tree_param":{"num_deleted":"0","num_feature":"7","num_nodes":"11","size_leaf_vector":"1"}},{"base_weights":[-3.8642762E0,-5.377657E1,1.9372153E-1,-3.3288639E0,-2.2731445E1,3.3229177E0,-1.4010409E0,-1.940747E-1,-1.624441E0,-1.0018024E0,2.2199562E-1],"categories":[],"categories_nodes":[],"categories_segments":[],"categories_sizes":[],"default_left":[0,0,0,0,0,0,0,0,0,0,0],"id":84,"left_children":[1,3,5,-1,7,-1,9,-1,-1,-1,-1],"loss_changes":[4.5795773E4,3.729E3,2.248393E4,0E0,1.2191973E3,0E0,2.2817928E4,0E0,0E0,0E0,0E0],"parents":[2147483647,0,0,1,1,2,2,4,4,6,6],"right_children":[2,4,6,-1,8,-1,10,-1,-1,-1,-1],"split_conditions":[3.0133333E3,3E3,3E3,-3.3288639E0,2.99E3,3.3229177E0,3.4E3,-1.940747E-1,-1.624441E0,-1.0018024E0,2.2199562E-1],"split_indices":[5,3,1,0,1,0,5,0,0,0,0],"split_type":[0,0,0,0,0,0,0,0,0,0,0],"sum_hessian":[2.24E2,1.5E1,2.09E2,9E0,6E0,3E0,2.06E2,3E0,3E0,4.8E1,1.58E2],"tree_param":{"num_deleted":"0","num_feature":"7","num_nodes":"11","size_leaf_vector":"1"}},{"base_weights":[1.6957476E0,-2.8557152E1,8.68432E0,-3.0243828E0,-1.8425127E1,5.7038673E1,4.1557603E0,2.0527685E0,-1.341502E0,4.30524E0,-7.631063E-1,-2.2248867E0,3.6106476E-1],"categories":[],"categories_nodes":[],"categories_segments":[],"categories_sizes":[],"default_left":[0,0,0,0,0,0,0,0,0,0,0,0,0],"id":85,"left_children":[1,3,5,-1,7,9,11,-1,-1,-1,-1,-1,-1],"loss_changes":[4.6163715E4,1.1035359E4,3.82846E4,0E0,1.9200596E4,3.415085E4,2.5103092E4,0E0,0E0,0E0,0E0,0E0,0E0],"parents":[2147483647,0,0,1,1,2,2,4,4,5,5,6,6],"right_children":[2,4,6,-1,8,10,12,-1,-1,-1,-1,-1,-1],"split_conditions":[3.2133333E3,2.8133333E3,3.31E3,-3.0243828E0,2.96E3,3.23E3,3.3566667E3,2.0527685E0,-1.341502E0,4.30524E0,-7.631063E-1,-2.2248867E0,3.6106476E-1],"split_indices":[5,5,0,0,3,3,5,0,0,0,0,0,0],"split_type":[0,0,0,0,0,0,0,0,0,0,0,0,0],"sum_hessian":[2.14E2,3.9E1,1.75E2,7E0,3.2E1,1.3E1,1.62E2,3E0,2.9E1,9E0,4E0,8E0,1.54E2],"tree_param":{"num_deleted":"0","num_feature":"7","num_nodes":"13","size_leaf_vector":"1"}},{"base_weights":[-1.4437519E0,-1.943979E1,7.0631065E0,-7.4804025E0,-5.6480034E1,-1.8858255E0,8.705375E0,-1.2628086E0,4.5482063E-1,-4.1168303E0,-6.1632216E-1,2.97875E0,2.5632077E-1],"categories":[],"categories_nodes":[],"categories_segments":[],"categories_sizes":[],"default_left":[0,0,0,0,0,0,0,0,0,0,0,0,0],"id":86,"left_children":[1,3,5,7,9,-1,11,-1,-1,-1,-1,-1,-1],"loss_changes":[3.5791438E4,3.2378414E4,1.2349552E4,1.7844754E4,1.8520047E4,0E0,2.7608535E4,0E0,0E0,0E0,0E0,0E0,0E0],"parents":[2147483647,0,0,1,1,2,2,3,3,4,4,6,6],"right_children":[2,4,6,8,10,-1,12,-1,-1,-1,-1,-1,-1],"split_conditions":[3.51E3,3.43E3,3.5E3,3.16E3,3.44E3,-1.8858255E0,3.64E3,-1.2628086E0,4.5482063E-1,-4.1168303E0,-6.1632216E-1,2.97875E0,2.5632077E-1],"split_indices":[0,1,1,1,0,0,1,0,0,0,0,0,0],"split_type":[0,0,0,0,0,0,0,0,0,0,0,0,0],"sum_hessian":[2.3E2,7.3E1,1.57E2,5.7E1,1.6E1,4E0,1.53E2,2.7E1,3E1,9E0,7E0,8E0,1.45E2],"tree_param":{"num_deleted":"0","num_feature":"7","num_nodes":"13","size_leaf_vector":"1"}},{"base_weights":[2.2264414E0,-2.9286683E0,4.3402376E0,5.1407005E1,2.1613824E0,3.8552368E0,4.2868042E-1,-1.096775E0,3.5572097E-1],"categories":[],"categories_nodes":[],"categories_segments":[],"categories_sizes":[],"default_left":[0,0,0,0,0,0,0,0,0],"id":87,"left_children":[1,-1,3,5,7,-1,-1,-1,-1],"loss_changes":[3.0581752E4,0E0,2.3159562E4,9.685076E3,2.6569727E4,0E0,0E0,0E0,0E0],"parents":[2147483647,0,0,2,2,3,3,4,4],"right_children":[2,-1,4,6,8,-1,-1,-1,-1],"split_conditions":[2.8133333E3,-2.9286683E0,3E3,3E3,3.2733333E3,3.8552368E0,4.2868042E-1,-1.096775E0,3.5572097E-1],"split_indices":[5,0,4,1,5,0,0,0,0],"split_type":[0,0,0,0,0,0,0,0,0],"sum_hessian":[2.32E2,6E0,2.26E2,8E0,2.18E2,4E0,4E0,3.6E1,1.82E2],"tree_param":{"num_deleted":"0","num_feature":"7","num_nodes":"9","size_leaf_vector":"1"}},{"base_weights":[-2.5452673E0,-1.3991688E1,1.2689885E1,-6.401309E0,-5.6063683E1,2.52884E1,-5.136862E0,-6.454145E-1,1.1922791E0,-6.156616E-1,-3.3044355E0,5.3334755E-1,1.9082911E0,-2.0220864E0,1.6169207E0],"categories":[],"categories_nodes":[],"categories_segments":[],"categories_sizes":[],"default_left":[0,0,0,0,0,0,0,0,0,0,0,0,0,0,0],"id":88,"left_children":[1,3,5,7,9,11,13,-1,-1,-1,-1,-1,-1,-1,-1],"loss_changes":[3.8546066E4,3.9519375E4,2.1595906E4,2.2068545E4,6.7058516E3,9.72982E3,5.6861086E4,0E0,0E0,0E0,0E0,0E0,0E0,0E0,0E0],"parents":[2147483647,0,0,1,1,2,2,3,3,4,4,5,5,6,6],"right_children":[2,4,6,8,10,12,14,-1,-1,-1,-1,-1,-1,-1,-1],"split_conditions":[3.92E3,3.82E3,4.19E3,3.742E3,3.74E3,4.064E3,4.38E3,-6.454145E-1,1.1922791E0,-6.156616E-1,-3.3044355E0,5.3334755E-1,1.9082911E0,-2.0220864E0,1.6169207E0],"split_indices":[6,1,4,6,4,6,3,0,0,0,0,0,0,0,0],"split_type":[0,0,0,0,0,0,0,0,0,0,0,0,0,0,0],"sum_hessian":[2.17E2,1.24E2,9.3E1,1.07E2,1.7E1,5.4E1,3.9E1,8.9E1,1.8E1,4E0,1.3E1,2.7E1,2.7E1,2E1,1.9E1],"tree_param":{"num_deleted":"0","num_feature":"7","num_nodes":"15","size_leaf_vector":"1"}},{"base_weights":[2.635385E0,-7.063344E0,1.783259E1,-9.1868454E-1,-4.338009E0,2.7514307E1,-2.6452267E-1,-5.758133E-1,8.7511855E-1,9.317034E-1,3.3206322E0,-7.659845E-1,2.5306396E0],"categories":[],"categories_nodes":[],"categories_segments":[],"categories_sizes":[],"default_left":[0,0,0,0,0,0,0,0,0,0,0,0,0],"id":89,"left_children":[1,3,5,7,-1,9,11,-1,-1,-1,-1,-1,-1],"loss_changes":[3.3710258E4,6.839998E4,1.5608346E4,2.6171982E4,0E0,1.7559668E4,2.6827637E4,0E0,0E0,0E0,0E0,0E0,0E0],"parents":[2147483647,0,0,1,1,2,2,3,3,5,5,6,6],"right_children":[2,4,6,8,-1,10,12,-1,-1,-1,-1,-1,-1],"split_conditions":[3.95E3,3.93E3,4.25E3,3.6433333E3,-4.338009E0,4.3066665E3,4.5466665E3,-5.758133E-1,8.7511855E-1,9.317034E-1,3.3206322E0,-7.659845E-1,2.5306396E0],"split_indices":[5,1,4,5,0,5,5,0,0,0,0,0,0],"split_type":[0,0,0,0,0,0,0,0,0,0,0,0,0],"sum_hessian":[2.25E2,1.38E2,8.7E1,1.3E2,8E0,5.6E1,3.1E1,8.3E1,4.7E1,4.8E1,8E0,2.5E1,6E0],"tree_param":{"num_deleted":"0","num_feature":"7","num_nodes":"13","size_leaf_vector":"1"}},{"base_weights":[-5.958735E-1,-1.2011535E1,8.815274E0,-6.8129964E0,-3.882298E0,1.9111315E1,-1.027128E1,-6.801879E-1,1.1496685E0,4.4033638E-1,2.624071E0,-1.4799856E0,8.6296713E-1],"categories":[],"categories_nodes":[],"categories_segments":[],"categories_sizes":[],"default_left":[0,0,0,0,0,0,0,0,0,0,0,0,0],"id":90,"left_children":[1,3,5,7,-1,9,11,-1,-1,-1,-1,-1,-1],"loss_changes":[2.331018E4,3.2379902E4,2.3777994E4,1.9449523E4,0E0,2.5897105E4,2.3903066E4,0E0,0E0,0E0,0E0,0E0,0E0],"parents":[2147483647,0,0,1,1,2,2,3,3,5,5,6,6],"right_children":[2,4,6,8,-1,10,12,-1,-1,-1,-1,-1,-1],"split_conditions":[3.7866667E3,3.79E3,4.18E3,3.6433333E3,-3.882298E0,4.1233335E3,4.36E3,-6.801879E-1,1.1496685E0,4.4033638E-1,2.624071E0,-1.4799856E0,8.6296713E-1],"split_indices":[5,0,4,5,0,5,3,0,0,0,0,0,0],"split_type":[0,0,0,0,0,0,0,0,0,0,0,0,0],"sum_hessian":[2.13E2,9.6E1,1.17E2,9.1E1,5E0,7.6E1,4.1E1,7.5E1,1.6E1,6E1,1.6E1,2.4E1,1.7E1],"tree_param":{"num_deleted":"0","num_feature":"7","num_nodes":"13","size_leaf_vector":"1"}},{"base_weights":[-1.0044109E0,-4.855725E1,1.6714906E0,-5.23938E-1,-3.2488403E0,2.5970858E1,-2.7286303E0,-4.288559E-2,2.2914782E0,-1.7340708E0,2.514066E-1],"categories":[],"categories_nodes":[],"categories_segments":[],"categories_sizes":[],"default_left":[0,0,0,0,0,0,0,0,0,0,0],"id":91,"left_children":[1,3,5,-1,-1,7,9,-1,-1,-1,-1],"loss_changes":[2.866559E4,6.1410312E3,2.3022643E4,0E0,0E0,1.766038E4,4.5705348E4,0E0,0E0,0E0,0E0],"parents":[2147483647,0,0,1,1,2,2,5,5,6,6],"right_children":[2,4,6,-1,-1,8,10,-1,-1,-1,-1],"split_conditions":[2.9066667E3,2.83E3,3.23E3,-5.23938E-1,-3.2488403E0,3.16E3,3.46E3,-4.288559E-2,2.2914782E0,-1.7340708E0,2.514066E-1],"split_indices":[5,4,3,0,0,5,5,0,0,0,0],"split_type":[0,0,0,0,0,0,0,0,0,0,0],"sum_hessian":[2.22E2,1E1,2.12E2,4E0,6E0,3.1E1,1.81E2,1.4E1,1.7E1,3.4E1,1.47E2],"tree_param":{"num_deleted":"0","num_feature":"7","num_nodes":"11","size_leaf_vector":"1"}},{"base_weights":[3.766699E-1,-4.675822E1,3.0039506E0,1.0161866E0,-3.6817627E0,3.0781052E0,7.337442E-1,-5.6256336E-1,4.9050742E-1],"categories":[],"categories_nodes":[],"categories_segments":[],"categories_sizes":[],"default_left":[0,0,0,0,0,0,0,0,0],"id":92,"left_children":[1,3,5,-1,-1,-1,7,-1,-1],"loss_changes":[2.814415E4,2.462865E4,2.8491562E4,0E0,0E0,0E0,2.295594E4,0E0,0E0],"parents":[2147483647,0,0,1,1,2,2,6,6],"right_children":[2,4,6,-1,-1,-1,8,-1,-1],"split_conditions":[2.9066667E3,2.69E3,3E3,1.0161866E0,-3.6817627E0,3.0781052E0,3.7866667E3,-5.6256336E-1,4.9050742E-1],"split_indices":[5,1,1,0,0,0,5,0,0],"split_type":[0,0,0,0,0,0,0,0,0],"sum_hessian":[2.23E2,1E1,2.13E2,3E0,7E0,6E0,2.07E2,8.9E1,1.18E2],"tree_param":{"num_deleted":"0","num_feature":"7","num_nodes":"9","size_leaf_vector":"1"}},{"base_weights":[2.4424627E0,-3.1958508E0,2.9088758E1,6.528997E-1,-2.5724785E1,3.1732528E0,6.611857E0,-2.349876E-1,1.8744649E0,-3.9317465E-1,-2.188197E0,-1.1274512E0,1.2005463E0],"categories":[],"categories_nodes":[],"categories_segments":[],"categories_sizes":[],"default_left":[0,0,0,0,0,0,0,0,0,0,0,0,0],"id":93,"left_children":[1,3,5,7,9,-1,11,-1,-1,-1,-1,-1,-1],"loss_changes":[3.098516E4,1.4860701E4,2.6976967E4,2.9533895E4,7.366789E3,0E0,1.3259777E4,0E0,0E0,0E0,0E0,0E0,0E0],"parents":[2147483647,0,0,1,1,2,2,3,3,4,4,6,6],"right_children":[2,4,6,8,10,-1,12,-1,-1,-1,-1,-1,-1],"split_conditions":[4.224E3,4.08E3,4.28E3,3.964E3,4.15E3,3.1732528E0,4.382E3,-2.349876E-1,1.8744649E0,-3.9317465E-1,-2.188197E0,-1.1274512E0,1.2005463E0],"split_indices":[6,1,1,6,2,0,6,0,0,0,0,0,0],"split_type":[0,0,0,0,0,0,0,0,0,0,0,0,0],"sum_hessian":[2.03E2,1.69E2,3.4E1,1.46E2,2.3E1,1.2E1,2.2E1,1.29E2,1.7E1,1.3E1,1E1,8E0,1.4E1],"tree_param":{"num_deleted":"0","num_feature":"7","num_nodes":"13","size_leaf_vector":"1"}},{"base_weights":[1.3508686E-1,-1.1916068E0,2.4809978E0,1.722254E0,-3.928708E1,-1.0244363E-1,2.7405362E0,-9.9523926E-1,-2.4969456E0],"categories":[],"categories_nodes":[],"categories_segments":[],"categories_sizes":[],"default_left":[0,0,0,0,0,0,0,0,0],"id":94,"left_children":[1,3,-1,5,7,-1,-1,-1,-1],"loss_changes":[1.5086742E4,2.5000422E4,0E0,4.2267297E4,1.3152656E3,0E0,0E0,0E0,0E0],"parents":[2147483647,0,0,1,1,3,3,4,4],"right_children":[2,4,-1,6,8,-1,-1,-1,-1],"split_conditions":[4.562E3,4.36E3,2.4809978E0,4.254E3,4.46E3,-1.0244363E-1,2.7405362E0,-9.9523926E-1,-2.4969456E0],"split_indices":[6,1,0,6,4,0,0,0,0],"split_type":[0,0,0,0,0,0,0,0,0],"sum_hessian":[2.26E2,2.22E2,4E0,2.08E2,1.4E1,1.96E2,1.2E1,7E0,7E0],"tree_param":{"num_deleted":"0","num_feature":"7","num_nodes":"9","size_leaf_vector":"1"}},{"base_weights":[-2.2664595E0,-1.0571885E1,9.302711E0,1.7748352E0,-3.813208E1,1.488431E1,-3.5011806E1,-4.1533455E-1,1.919746E0,-3.5187256E0,-8.69751E-1,2.8272015E-1,2.2932553E0,-2.3740022E0,-5.2895512E-2],"categories":[],"categories_nodes":[],"categories_segments":[],"categories_sizes":[],"default_left":[0,0,0,0,0,0,0,0,0,0,0,0,0,0,0],"id":95,"left_children":[1,3,5,7,9,11,13,-1,-1,-1,-1,-1,-1,-1,-1],"loss_changes":[2.1335809E4,4.403122E4,2.4045418E4,3.423383E4,2.4296203E4,2.3501107E4,4.556336E3,0E0,0E0,0E0,0E0,0E0,0E0,0E0,0E0],"parents":[2147483647,0,0,1,1,2,2,3,3,4,4,5,5,6,6],"right_children":[2,4,6,8,10,12,14,-1,-1,-1,-1,-1,-1,-1,-1],"split_conditions":[3.95E3,3.75E3,4.55E3,3.5733333E3,3.7866667E3,4.3066665E3,4.62E3,-4.1533455E-1,1.919746E0,-3.5187256E0,-8.69751E-1,2.8272015E-1,2.2932553E0,-2.3740022E0,-5.2895512E-2],"split_indices":[5,1,4,5,5,5,4,0,0,0,0,0,0,0,0],"split_type":[0,0,0,0,0,0,0,0,0,0,0,0,0,0,0],"sum_hessian":[2.18E2,1.27E2,9.1E1,8.9E1,3.8E1,8.2E1,9E0,7.1E1,1.8E1,1.3E1,2.5E1,6.5E1,1.7E1,6E0,3E0],"tree_param":{"num_deleted":"0","num_feature":"7","num_nodes":"15","size_leaf_vector":"1"}},{"base_weights":[4.476123E-2,-1.7562609E1,6.569319E0,-4.990554E0,-8.319639E1,2.4153381E1,1.1412797E0,-9.601378E-1,9.036727E-1,-1.6910257E0,-5.2420063E0,1.3535224E-1,1.9112676E0,-2.476208E0,5.268391E-1],"categories":[],"categories_nodes":[],"categories_segments":[],"categories_sizes":[],"default_left":[0,0,0,0,0,0,0,0,0,0,0,0,0,0,0],"id":96,"left_children":[1,3,5,7,9,11,13,-1,-1,-1,-1,-1,-1,-1,-1],"loss_changes":[2.6768098E4,5.1154156E4,1.6170854E4,1.8722586E4,3.5952812E3,1.1864734E4,6.387924E4,0E0,0E0,0E0,0E0,0E0,0E0,0E0,0E0],"parents":[2147483647,0,0,1,1,2,2,3,3,4,4,5,5,6,6],"right_children":[2,4,6,8,10,12,14,-1,-1,-1,-1,-1,-1,-1,-1],"split_conditions":[3.4E3,3.4E3,3.78E3,3.174E3,3.372E3,3.6433333E3,3.84E3,-9.601378E-1,9.036727E-1,-1.6910257E0,-5.2420063E0,1.3535224E-1,1.9112676E0,-2.476208E0,5.268391E-1],"split_indices":[5,1,1,6,6,5,5,0,0,0,0,0,0,0,0],"split_type":[0,0,0,0,0,0,0,0,0,0,0,0,0,0,0],"sum_hessian":[2.29E2,6.1E1,1.68E2,5.3E1,8E0,3.8E1,1.3E2,