{"learner":{"attributes":{"scikit_learn":"{\"_estimator_type\": \"regressor\"}"},"feature_names":["BBCA_lag1","BBCA_lag2","BBCA_lag3","BBCA_lag4","BBCA_lag5","BBCA_MA3","BBCA_MA5"],"feature_types":["float","float","float","float","float","float","float"],"gradient_booster":{"model":{"cats":{"enc":[],"feature_segments":[],"sorted_idx":[]},"gbtree_model_param":{"num_parallel_tree":"1","num_trees":"300"},"iteration_indptr":[0,1,2,3,4,5,6,7,8,9,10,11,12,13,14,15,16,17,18,19,20,21,22,23,24,25,26,27,28,29,30,31,32,33,34,35,36,37,38,39,40,41,42,43,44,45,46,47,48,49,50,51,52,53,54,55,56,57,58,59,60,61,62,63,64,65,66,67,68,69,70,71,72,73,74,75,76,77,78,79,80,81,82,83,84,85,86,87,88,89,90,91,92,93,94,95,96,97,98,99,100,101,102,103,104,105,106,107,108,109,110,111,112,113,114,115,116,117,118,119,120,121,122,123,124,125,126,127,128,129,130,131,132,133,134,135,136,137,138,139,140,141,142,143,144,145,146,147,148,149,150,151,152,153,154,155,156,157,158,159,160,161,162,163,164,165,166,167,168,169,170,171,172,173,174,175,176,177,178,179,180,181,182,183,184,185,186,187,188,189,190,191,192,193,194,195,196,197,198,199,200,201,202,203,204,205,206,207,208,209,210,211,212,213,214,215,216,217,218,219,220,221,222,223,224,225,226,227,228,229,230,231,232,233,234,235,236,237,238,239,240,241,242,243,244,245,246,247,248,249,250,251,252,253,254,255,256,257,258,259,260,261,262,263,264,265,266,267,268,269,270,271,272,273,274,275,276,277,278,279,280,281,282,283,284,285,286,287,288,289,290,291,292,293,294,295,296,297,298,299,300],"tree_info":[0,0,0,0,0,0,0,0,0,0,0,0,0,0,0,0,0,0,0,0,0,0,0,0,0,0,0,0,0,0,0,0,0,0,0,0,0,0,0,0,0,0,0,0,0,0,0,0,0,0,0,0,0,0,0,0,0,0,0,0,0,0,0,0,0,0,0,0,0,0,0,0,0,0,0,0,0,0,0,0,0,0,0,0,0,0,0,0,0,0,0,0,0,0,0,0,0,0,0,0,0,0,0,0,0,0,0,0,0,0,0,0,0,0,0,0,0,0,0,0,0,0,0,0,0,0,0,0,0,0,0,0,0,0,0,0,0,0,0,0,0,0,0,0,0,0,0,0,0,0,0,0,0,0,0,0,0,0,0,0,0,0,0,0,0,0,0,0,0,0,0,0,0,0,0,0,0,0,0,0,0,0,0,0,0,0,0,0,0,0,0,0,0,0,0,0,0,0,0,0,0,0,0,0,0,0,0,0,0,0,0,0,0,0,0,0,0,0,0,0,0,0,0,0,0,0,0,0,0,0,0,0,0,0,0,0,0,0,0,0,0,0,0,0,0,0,0,0,0,0,0,0,0,0,0,0,0,0,0,0,0,0,0,0,0,0,0,0,0,0,0,0,0,0,0,0,0,0,0,0,0,0,0,0,0,0,0,0,0,0,0,0,0,0,0,0,0,0,0,0],"trees":[{"base_weights":[5.4746957E0,-1.0572472E3,1.3901229E3,-1.5031271E3,-5.269213E2,5.786856E2,1.7261483E3,-8.925323E1,-5.9735523E1,-3.544212E1,1.9013815E0,1.4506469E1,3.7278946E1,6.5066635E1,9.686379E1],"categories":[],"categories_nodes":[],"categories_segments":[],"categories_sizes":[],"default_left":[0,0,0,0,0,0,0,0,0,0,0,0,0,0,0],"id":0,"left_children":[1,3,5,7,9,11,13,-1,-1,-1,-1,-1,-1,-1,-1],"loss_changes":[3.3549747E8,2.8919504E7,2.4995904E7,1.734576E6,6.42603E6,1.108431E6,1.146544E6,0E0,0E0,0E0,0E0,0E0,0E0,0E0,0E0],"parents":[2147483647,0,0,1,1,2,2,3,3,4,4,5,5,6,6],"right_children":[2,4,6,8,10,12,14,-1,-1,-1,-1,-1,-1,-1,-1],"split_conditions":[7.5166665E3,6.39E3,8.55E3,5.8916665E3,7.1583335E3,7.9166665E3,8.975E3,-8.925323E1,-5.9735523E1,-3.544212E1,1.9013815E0,1.4506469E1,3.7278946E1,6.5066635E1,9.686379E1],"split_indices":[5,5,5,5,5,5,5,0,0,0,0,0,0,0,0],"split_type":[0,0,0,0,0,0,0,0,0,0,0,0,0,0,0],"sum_hessian":[2.24E2,1.27E2,9.7E1,6.7E1,6E1,3E1,6.7E1,3E1,3.7E1,4.5E1,1.5E1,1.3E1,1.7E1,2.7E1,4E1],"tree_param":{"num_deleted":"0","num_feature":"7","num_nodes":"15","size_leaf_vector":"1"}},{"base_weights":[1.2378011E1,-1.1029032E3,1.2561075E3,-1.4704751E3,-6.565592E2,4.7217056E2,1.6400706E3,-8.498948E1,-5.8296944E1,-3.9713486E1,-8.712393E0,9.129959E0,3.0690256E1,6.022784E1,9.163845E1],"categories":[],"categories_nodes":[],"categories_segments":[],"categories_sizes":[],"default_left":[0,0,0,0,0,0,0,0,0,0,0,0,0,0,0],"id":1,"left_children":[1,3,5,7,9,11,13,-1,-1,-1,-1,-1,-1,-1,-1],"loss_changes":[3.051603E8,1.7100464E7,2.9755504E7,3.66032E5,3.442684E6,1.293332E6,1.375344E6,0E0,0E0,0E0,0E0,0E0,0E0,0E0,0E0],"parents":[2147483647,0,0,1,1,2,2,3,3,4,4,5,5,6,6],"right_children":[2,4,6,8,10,12,14,-1,-1,-1,-1,-1,-1,-1,-1],"split_conditions":[7.4166665E3,6.2683335E3,8.458333E3,5.8333335E3,6.8483335E3,7.8083335E3,8.975E3,-8.498948E1,-5.8296944E1,-3.9713486E1,-8.712393E0,9.129959E0,3.0690256E1,6.022784E1,9.163845E1],"split_indices":[5,5,5,5,5,5,5,0,0,0,0,0,0,0,0],"split_type":[0,0,0,0,0,0,0,0,0,0,0,0,0,0,0],"sum_hessian":[2.16E2,1.14E2,1.02E2,6E1,5.4E1,3.5E1,6.7E1,2.9E1,3.1E1,4.1E1,1.3E1,1.3E1,2.2E1,2.5E1,4.2E1],"tree_param":{"num_deleted":"0","num_feature":"7","num_nodes":"15","size_leaf_vector":"1"}},{"base_weights":[3.1608418E1,-9.622127E2,1.2525217E3,-1.2825703E3,-3.8551828E2,5.4506024E2,7.865777E1,-8.02009E1,-5.2326813E1,-2.8928745E1,2.6249427E-2,1.7980259E1,3.8752594E1],"categories":[],"categories_nodes":[],"categories_segments":[],"categories_sizes":[],"default_left":[0,0,0,0,0,0,0,0,0,0,0,0,0],"id":2,"left_children":[1,3,5,7,9,11,-1,-1,-1,-1,-1,-1,-1],"loss_changes":[2.5964469E8,2.0811416E7,2.0061328E7,2.333112E6,3.3543765E6,8.50128E5,0E0,0E0,0E0,0E0,0E0,0E0,0E0],"parents":[2147483647,0,0,1,1,2,2,3,3,4,4,5,5],"right_children":[2,4,6,8,10,12,-1,-1,-1,-1,-1,-1,-1],"split_conditions":[7.5166665E3,6.4716665E3,8.55E3,5.8916665E3,7.0283335E3,8.0416665E3,7.865777E1,-8.02009E1,-5.2326813E1,-2.8928745E1,2.6249427E-2,1.7980259E1,3.8752594E1],"split_indices":[5,5,5,5,5,5,0,0,0,0,0,0,0],"split_type":[0,0,0,0,0,0,0,0,0,0,0,0,0],"sum_hessian":[2.1E2,1.16E2,9.4E1,7.3E1,4.3E1,3.1E1,6.3E1,2.6E1,4.7E1,2.8E1,1.5E1,2E1,1.1E1],"tree_param":{"num_deleted":"0","num_feature":"7","num_nodes":"13","size_leaf_vector":"1"}},{"base_weights":[-2.9000216E1,-9.6214197E2,1.2125801E3,-1.2349387E3,-3.382562E2,5.919808E2,7.7971306E1,-7.2653275E1,-4.670048E1,-2.4563803E1,1.3415039E-1,1.8032288E1,4.1765934E1],"categories":[],"categories_nodes":[],"categories_segments":[],"categories_sizes":[],"default_left":[0,0,0,0,0,0,0,0,0,0,0,0,0],"id":3,"left_children":[1,3,5,7,9,11,-1,-1,-1,-1,-1,-1,-1],"loss_changes":[2.618531E8,2.1119584E7,1.9033184E7,3.127664E6,2.193796E6,1.53661E6,0E0,0E0,0E0,0E0,0E0,0E0,0E0],"parents":[2147483647,0,0,1,1,2,2,3,3,4,4,5,5],"right_children":[2,4,6,8,10,12,-1,-1,-1,-1,-1,-1,-1],"split_conditions":[7.5166665E3,6.4716665E3,8.725E3,6.0516665E3,7.1583335E3,8.0416665E3,7.7971306E1,-7.2653275E1,-4.670048E1,-2.4563803E1,1.3415039E-1,1.8032288E1,4.1765934E1],"split_indices":[5,5,5,5,5,5,0,0,0,0,0,0,0],"split_type":[0,0,0,0,0,0,0,0,0,0,0,0,0],"sum_hessian":[2.22E2,1.27E2,9.5E1,8.7E1,4E1,3.6E1,5.9E1,4.6E1,4.1E1,2.7E1,1.3E1,2.1E1,1.5E1],"tree_param":{"num_deleted":"0","num_feature":"7","num_nodes":"13","size_leaf_vector":"1"}},{"base_weights":[1.13058E1,-8.666647E2,1.1759141E3,-1.1225331E3,-2.3152245E2,6.052108E2,1.46022E3,-6.969818E1,-4.2741745E1,-2.15205E1,2.2037354E0,1.7986961E1,3.889439E1,5.8961315E1,8.7866905E1],"categories":[],"categories_nodes":[],"categories_segments":[],"categories_sizes":[],"default_left":[0,0,0,0,0,0,0,0,0,0,0,0,0,0,0],"id":4,"left_children":[1,3,5,7,9,11,13,-1,-1,-1,-1,-1,-1,-1,-1],"loss_changes":[2.402788E8,2.1256944E7,1.4620208E7,4.519624E6,2.285267E6,1.008656E6,1.365632E6,0E0,0E0,0E0,0E0,0E0,0E0,0E0,0E0],"parents":[2147483647,0,0,1,1,2,2,3,3,4,4,5,5,6,6],"right_children":[2,4,6,8,10,12,14,-1,-1,-1,-1,-1,-1,-1,-1],"split_conditions":[7.65E3,6.57E3,8.7E3,6.06E3,7.1583335E3,8.0416665E3,9.225E3,-6.969818E1,-4.2741745E1,-2.15205E1,2.2037354E0,1.7986961E1,3.889439E1,5.8961315E1,8.7866905E1],"split_indices":[0,5,0,5,5,5,5,0,0,0,0,0,0,0,0],"split_type":[0,0,0,0,0,0,0,0,0,0,0,0,0,0,0],"sum_hessian":[2.31E2,1.32E2,9.9E1,9.3E1,3.9E1,3.5E1,6.4E1,4.2E1,5.1E1,2.2E1,1.7E1,1.7E1,1.8E1,3.8E1,2.6E1],"tree_param":{"num_deleted":"0","num_feature":"7","num_nodes":"15","size_leaf_vector":"1"}},{"base_weights":[-1.9064182E1,-8.2960986E2,1.0998701E3,-1.0689404E3,-1.8980307E2,5.0746152E2,1.4032451E3,-7.090402E1,-4.354883E1,-1.8212534E1,2.0674806E0,1.5434337E1,3.5249905E1,5.81652E1,8.581014E1],"categories":[],"categories_nodes":[],"categories_segments":[],"categories_sizes":[],"default_left":[0,0,0,0,0,0,0,0,0,0,0,0,0,0,0],"id":5,"left_children":[1,3,5,7,9,11,13,-1,-1,-1,-1,-1,-1,-1,-1],"loss_changes":[2.158645E8,2.0725504E7,1.6548016E7,4.441488E6,1.6430844E6,1.017569E6,8.88008E5,0E0,0E0,0E0,0E0,0E0,0E0,0E0,0E0],"parents":[2147483647,0,0,1,1,2,2,3,3,4,4,5,5,6,6],"right_children":[2,4,6,8,10,12,14,-1,-1,-1,-1,-1,-1,-1,-1],"split_conditions":[7.575E3,6.615E3,8.65E3,5.79E3,7.275E3,7.985E3,9.25E3,-7.090402E1,-4.354883E1,-1.8212534E1,2.0674806E0,1.5434337E1,3.5249905E1,5.81652E1,8.581014E1],"split_indices":[0,0,0,0,0,6,0,0,0,0,0,0,0,0,0],"split_type":[0,0,0,0,0,0,0,0,0,0,0,0,0,0,0],"sum_hessian":[2.34E2,1.36E2,9.8E1,9.8E1,3.8E1,3.5E1,6.3E1,3.1E1,6.7E1,2.1E1,1.7E1,2E1,1.5E1,4.1E1,2.2E1],"tree_param":{"num_deleted":"0","num_feature":"7","num_nodes":"15","size_leaf_vector":"1"}},{"base_weights":[-2.9643585E1,-8.004972E2,1.0485312E3,-1.1483986E3,-4.0583652E2,6.218067E2,6.877834E1,-6.689489E1,-4.5281353E1,-2.7776905E1,3.5987484E-1,1.4739052E1,3.9381134E1],"categories":[],"categories_nodes":[],"categories_segments":[],"categories_sizes":[],"default_left":[0,0,0,0,0,0,0,0,0,0,0,0,0],"id":6,"left_children":[1,3,5,7,9,11,-1,-1,-1,-1,-1,-1,-1],"loss_changes":[1.8535509E8,1.6917256E7,1.1267864E7,7.05072E5,3.965235E6,1.921596E6,0E0,0E0,0E0,0E0,0E0,0E0,0E0],"parents":[2147483647,0,0,1,1,2,2,3,3,4,4,5,5],"right_children":[2,4,6,8,10,12,-1,-1,-1,-1,-1,-1,-1],"split_conditions":[7.5166665E3,6.2883335E3,8.833333E3,5.8333335E3,7.1583335E3,7.9666665E3,6.877834E1,-6.689489E1,-4.5281353E1,-2.7776905E1,3.5987484E-1,1.4739052E1,3.9381134E1],"split_indices":[5,5,5,5,5,5,0,0,0,0,0,0,0],"split_type":[0,0,0,0,0,0,0,0,0,0,0,0,0],"sum_hessian":[2.19E2,1.28E2,9.1E1,6.6E1,6.2E1,4.2E1,4.9E1,3.2E1,3.4E1,4.5E1,1.7E1,1.6E1,2.6E1],"tree_param":{"num_deleted":"0","num_feature":"7","num_nodes":"13","size_leaf_vector":"1"}},{"base_weights":[5.1740993E1,-7.150463E2,1.01685815E3,-1.01167523E3,-2.5400995E2,5.971475E2,6.761365E1,-6.4224724E1,-4.0445896E1,-2.0914167E1,1.4162714E0,1.4640265E1,3.8011623E1],"categories":[],"categories_nodes":[],"categories_segments":[],"categories_sizes":[],"default_left":[0,0,0,0,0,0,0,0,0,0,0,0,0],"id":7,"left_children":[1,3,5,7,9,11,-1,-1,-1,-1,-1,-1,-1],"loss_changes":[1.6722307E8,1.6717396E7,1.2462704E7,2.125928E6,2.4354662E6,1.937214E6,0E0,0E0,0E0,0E0,0E0,0E0,0E0],"parents":[2147483647,0,0,1,1,2,2,3,3,4,4,5,5],"right_children":[2,4,6,8,10,12,-1,-1,-1,-1,-1,-1,-1],"split_conditions":[7.65E3,6.4716665E3,8.833333E3,5.8916665E3,7.1583335E3,7.9666665E3,6.761365E1,-6.4224724E1,-4.0445896E1,-2.0914167E1,1.4162714E0,1.4640265E1,3.8011623E1],"split_indices":[0,5,5,5,5,5,0,0,0,0,0,0,0],"split_type":[0,0,0,0,0,0,0,0,0,0,0,0,0],"sum_hessian":[2.22E2,1.24E2,9.8E1,7.4E1,5E1,4.6E1,5.2E1,2.7E1,4.7E1,3.1E1,1.9E1,1.8E1,2.8E1],"tree_param":{"num_deleted":"0","num_feature":"7","num_nodes":"13","size_leaf_vector":"1"}},{"base_weights":[2.7935875E1,-6.558073E2,1.0529298E3,-9.09576E2,-1.4196062E2,7.062181E2,6.451838E1,-5.369703E1,-3.1978195E1,-1.5850693E1,3.4135022E0,1.9454416E1,3.9827988E1],"categories":[],"categories_nodes":[],"categories_segments":[],"categories_sizes":[],"default_left":[0,0,0,0,0,0,0,0,0,0,0,0,0],"id":8,"left_children":[1,3,5,7,9,11,-1,-1,-1,-1,-1,-1,-1],"loss_changes":[1.5766672E8,1.7345508E7,5.586464E6,2.620528E6,1.7729581E6,5.5479E5,0E0,0E0,0E0,0E0,0E0,0E0,0E0],"parents":[2147483647,0,0,1,1,2,2,3,3,4,4,5,5],"right_children":[2,4,6,8,10,12,-1,-1,-1,-1,-1,-1,-1],"split_conditions":[7.8083335E3,6.5716665E3,8.933333E3,6.1533335E3,7.275E3,8.333333E3,6.451838E1,-5.369703E1,-3.1978195E1,-1.5850693E1,3.4135022E0,1.9454416E1,3.9827988E1],"split_indices":[5,5,5,5,0,5,0,0,0,0,0,0,0],"split_type":[0,0,0,0,0,0,0,0,0,0,0,0,0],"sum_hessian":[2.21E2,1.33E2,8.8E1,8.8E1,4.5E1,3.9E1,4.9E1,5.1E1,3.7E1,2.4E1,2.1E1,1.1E1,2.8E1],"tree_param":{"num_deleted":"0","num_feature":"7","num_nodes":"13","size_leaf_vector":"1"}},{"base_weights":[-4.337109E1,-7.501319E2,7.921059E2,-1.0601367E3,-4.8069577E2,2.260488E2,1.0452697E3,-6.1169716E1,-4.1188313E1,-2.9191889E1,-8.222848E0,5.127908E0,1.6564177E1,4.179486E1,6.572882E1],"categories":[],"categories_nodes":[],"categories_segments":[],"categories_sizes":[],"default_left":[0,0,0,0,0,0,0,0,0,0,0,0,0,0,0],"id":9,"left_children":[1,3,5,7,9,11,13,-1,-1,-1,-1,-1,-1,-1,-1],"loss_changes":[1.3522789E8,9.33808E6,1.4574472E7,1.4542E5,2.091193E6,3.8689062E5,1.862048E6,0E0,0E0,0E0,0E0,0E0,0E0,0E0,0E0],"parents":[2147483647,0,0,1,1,2,2,3,3,4,4,5,5,6,6],"right_children":[2,4,6,8,10,12,14,-1,-1,-1,-1,-1,-1,-1,-1],"split_conditions":[7.4166665E3,6.1533335E3,8.333333E3,5.68E3,6.7783335E3,7.8083335E3,9.083333E3,-6.1169716E1,-4.1188313E1,-2.9191889E1,-8.222848E0,5.127908E0,1.6564177E1,4.179486E1,6.572882E1],"split_indices":[5,5,5,5,5,5,5,0,0,0,0,0,0,0,0],"split_type":[0,0,0,0,0,0,0,0,0,0,0,0,0,0,0],"sum_hessian":[2.25E2,1.22E2,1.03E2,5.4E1,6.8E1,3.3E1,7E1,2.7E1,2.7E1,5E1,1.8E1,1.7E1,1.6E1,4.4E1,2.6E1],"tree_param":{"num_deleted":"0","num_feature":"7","num_nodes":"15","size_leaf_vector":"1"}},{"base_weights":[-2.038004E1,-6.8726154E2,8.605582E2,-9.314468E2,-3.1614706E2,3.5059256E2,1.0509342E3,-5.898066E1,-3.7791317E1,-2.2448233E1,-4.8054585E0,4.469064E0,1.96975E1,4.3131264E1,6.8567955E1],"categories":[],"categories_nodes":[],"categories_segments":[],"categories_sizes":[],"default_left":[0,0,0,0,0,0,0,0,0,0,0,0,0,0,0],"id":10,"left_children":[1,3,5,7,9,11,13,-1,-1,-1,-1,-1,-1,-1,-1],"loss_changes":[1.4041597E8,1.1735464E7,9.262872E6,1.747064E6,1.57952E6,2.8066575E5,2.099136E6,0E0,0E0,0E0,0E0,0E0,0E0,0E0,0E0],"parents":[2147483647,0,0,1,1,2,2,3,3,4,4,5,5,6,6],"right_children":[2,4,6,8,10,12,14,-1,-1,-1,-1,-1,-1,-1,-1],"split_conditions":[7.485E3,6.39E3,8.405E3,5.6566665E3,6.8483335E3,7.7166665E3,9.316667E3,-5.898066E1,-3.7791317E1,-2.2448233E1,-4.8054585E0,4.469064E0,1.96975E1,4.3131264E1,6.8567955E1],"split_indices":[6,5,6,5,5,5,5,0,0,0,0,0,0,0,0],"split_type":[0,0,0,0,0,0,0,0,0,0,0,0,0,0,0],"sum_hessian":[2.35E2,1.34E2,1.01E2,7.9E1,5.5E1,2.9E1,7.2E1,2.8E1,5.1E1,3.3E1,2.2E1,5E0,2.4E1,5E1,2.2E1],"tree_param":{"num_deleted":"0","num_feature":"7","num_nodes":"15","size_leaf_vector":"1"}},{"base_weights":[1.6006917E0,-6.125188E2,8.653819E2,-8.090055E2,-1.2263847E2,5.618314E2,5.628246E1,-5.1755043E1,-3.2564472E1,-1.3098865E1,1.0872512E0,1.3028734E1,3.3867268E1],"categories":[],"categories_nodes":[],"categories_segments":[],"categories_sizes":[],"default_left":[0,0,0,0,0,0,0,0,0,0,0,0,0],"id":11,"left_children":[1,3,5,7,9,11,-1,-1,-1,-1,-1,-1,-1],"loss_changes":[1.16171E8,1.2122208E7,5.924536E6,1.896656E6,7.960043E5,1.247771E6,0E0,0E0,0E0,0E0,0E0,0E0,0E0],"parents":[2147483647,0,0,1,1,2,2,3,3,4,4,5,5],"right_children":[2,4,6,8,10,12,-1,-1,-1,-1,-1,-1,-1],"split_conditions":[7.65E3,6.57E3,8.958333E3,5.8916665E3,7.1583335E3,8.0416665E3,5.628246E1,-5.1755043E1,-3.2564472E1,-1.3098865E1,1.0872512E0,1.3028734E1,3.3867268E1],"split_indices":[0,5,5,5,5,5,0,0,0,0,0,0,0],"split_type":[0,0,0,0,0,0,0,0,0,0,0,0,0],"sum_hessian":[2.15E2,1.26E2,8.9E1,8.9E1,3.7E1,4.4E1,4.5E1,3.2E1,5.7E1,1.8E1,1.9E1,1.4E1,3E1],"tree_param":{"num_deleted":"0","num_feature":"7","num_nodes":"13","size_leaf_vector":"1"}},{"base_weights":[-3.424463E1,-6.057038E2,7.507205E2,-8.470784E2,-3.1753836E2,2.7428128E2,9.4453467E2,-5.1297985E1,-3.2357555E1,-2.1125967E1,-6.985772E-1,5.3959613E0,1.7333517E1,3.789197E1,5.950439E1],"categories":[],"categories_nodes":[],"categories_segments":[],"categories_sizes":[],"default_left":[0,0,0,0,0,0,0,0,0,0,0,0,0,0,0],"id":12,"left_children":[1,3,5,7,9,11,13,-1,-1,-1,-1,-1,-1,-1,-1],"loss_changes":[1.00044616E8,8.43474E6,8.161888E6,1.139764E6,1.964055E6,2.86459E5,1.221888E6,0E0,0E0,0E0,0E0,0E0,0E0,0E0,0E0],"parents":[2147483647,0,0,1,1,2,2,3,3,4,4,5,5,6,6],"right_children":[2,4,6,8,10,12,14,-1,-1,-1,-1,-1,-1,-1,-1],"split_conditions":[7.52E3,6.3E3,8.405E3,5.931E3,6.961E3,7.81E3,9.205E3,-5.1297985E1,-3.2357555E1,-2.1125967E1,-6.985772E-1,5.3959613E0,1.7333517E1,3.789197E1,5.950439E1],"split_indices":[6,1,6,6,6,6,6,0,0,0,0,0,0,0,0],"split_type":[0,0,0,0,0,0,0,0,0,0,0,0,0,0,0],"sum_hessian":[2.19E2,1.27E2,9.2E1,6.7E1,6E1,2.8E1,6.4E1,3.1E1,3.6E1,4.4E1,1.6E1,1E1,1.8E1,4.1E1,2.3E1],"tree_param":{"num_deleted":"0","num_feature":"7","num_nodes":"15","size_leaf_vector":"1"}},{"base_weights":[-8.76475E0,-6.354067E2,6.644574E2,-8.662736E2,-3.9884552E2,1.7396294E2,9.048723E2,-4.981291E1,-3.360319E1,-2.4473263E1,-1.1459796E1,4.337291E0,1.4152163E1,3.4010265E1,5.790642E1],"categories":[],"categories_nodes":[],"categories_segments":[],"categories_sizes":[],"default_left":[0,0,0,0,0,0,0,0,0,0,0,0,0,0,0],"id":13,"left_children":[1,3,5,7,9,11,13,-1,-1,-1,-1,-1,-1,-1,-1],"loss_changes":[9.449938E7,5.644216E6,1.2420764E7,9.9828E4,7.13423E5,3.1241388E5,2.521148E6,0E0,0E0,0E0,0E0,0E0,0E0,0E0,0E0],"parents":[2147483647,0,0,1,1,2,2,3,3,4,4,5,5,6,6],"right_children":[2,4,6,8,10,12,14,-1,-1,-1,-1,-1,-1,-1,-1],"split_conditions":[7.275E3,6.2E3,8.225E3,5.76E3,6.68E3,7.81E3,9.15E3,-4.981291E1,-3.360319E1,-2.4473263E1,-1.1459796E1,4.337291E0,1.4152163E1,3.4010265E1,5.790642E1],"split_indices":[0,0,0,0,0,6,0,0,0,0,0,0,0,0,0],"split_type":[0,0,0,0,0,0,0,0,0,0,0,0,0,0,0],"sum_hessian":[2.2E2,1.14E2,1.06E2,5.5E1,5.9E1,3.6E1,7E1,2.8E1,2.7E1,3.6E1,2.3E1,2.2E1,1.4E1,4.1E1,2.9E1],"tree_param":{"num_deleted":"0","num_feature":"7","num_nodes":"15","size_leaf_vector":"1"}},{"base_weights":[-1.38034315E1,-5.4586774E2,7.668643E2,-7.816068E2,-2.5449759E2,4.012687E2,9.0284784E2,-4.8054638E1,-3.079281E1,-1.7952644E1,9.9613106E-1,1.0695835E1,2.4079231E1,3.6508793E1,5.6489326E1],"categories":[],"categories_nodes":[],"categories_segments":[],"categories_sizes":[],"default_left":[0,0,0,0,0,0,0,0,0,0,0,0,0,0,0],"id":14,"left_children":[1,3,5,7,9,11,13,-1,-1,-1,-1,-1,-1,-1,-1],"loss_changes":[9.221761E7,8.668892E6,3.74978E6,9.58204E5,1.7932165E6,2.152875E5,8.58016E5,0E0,0E0,0E0,0E0,0E0,0E0,0E0,0E0],"parents":[2147483647,0,0,1,1,2,2,3,3,4,4,5,5,6,6],"right_children":[2,4,6,8,10,12,14,-1,-1,-1,-1,-1,-1,-1,-1],"split_conditions":[7.6E3,6.33E3,8.65E3,5.76E3,6.961E3,7.95E3,9.255E3,-4.8054638E1,-3.079281E1,-1.7952644E1,9.9613106E-1,1.0695835E1,2.4079231E1,3.6508793E1,5.6489326E1],"split_indices":[0,0,0,0,6,6,6,0,0,0,0,0,0,0,0],"split_type":[0,0,0,0,0,0,0,0,0,0,0,0,0,0,0],"sum_hessian":[2.18E2,1.3E2,8.8E1,7E1,6E1,2.6E1,6.2E1,2.9E1,4.1E1,4.3E1,1.7E1,1E1,1.6E1,4E1,2.2E1],"tree_param":{"num_deleted":"0","num_feature":"7","num_nodes":"15","size_leaf_vector":"1"}},{"base_weights":[-4.6617126E1,-5.802452E2,6.0114655E2,-7.829974E2,-3.1215634E2,1.8724106E2,7.8433167E2,-4.9336147E1,-3.2354565E1,-1.962229E1,-3.3697526E0,3.5041096E0,1.2819305E1,3.333238E1,5.4173714E1],"categories":[],"categories_nodes":[],"categories_segments":[],"categories_sizes":[],"default_left":[0,0,0,0,0,0,0,0,0,0,0,0,0,0,0],"id":15,"left_children":[1,3,5,7,9,11,13,-1,-1,-1,-1,-1,-1,-1,-1],"loss_changes":[7.5706904E7,6.03384E6,7.212588E6,5.78064E5,1.027949E6,2.313955E5,9.49304E5,0E0,0E0,0E0,0E0,0E0,0E0,0E0,0E0],"parents":[2147483647,0,0,1,1,2,2,3,3,4,4,5,5,6,6],"right_children":[2,4,6,8,10,12,14,-1,-1,-1,-1,-1,-1,-1,-1],"split_conditions":[7.4166665E3,6.2683335E3,8.35E3,5.5366665E3,6.8483335E3,7.8083335E3,9.375E3,-4.9336147E1,-3.2354565E1,-1.962229E1,-3.3697526E0,3.5041096E0,1.2819305E1,3.333238E1,5.4173714E1],"split_indices":[5,5,5,5,5,5,5,0,0,0,0,0,0,0,0],"split_type":[0,0,0,0,0,0,0,0,0,0,0,0,0,0,0],"sum_hessian":[2.15E2,1.18E2,9.7E1,6.5E1,5.3E1,3.1E1,6.6E1,2.1E1,4.4E1,3.9E1,1.4E1,1.3E1,1.8E1,5.2E1,1.4E1],"tree_param":{"num_deleted":"0","num_feature":"7","num_nodes":"15","size_leaf_vector":"1"}},{"base_weights":[1.098249E1,-4.6821884E2,6.3058026E2,-6.0240515E2,-9.731747E1,3.1703278E2,8.119854E2,-3.54127E1,-2.1790447E1,-1.0758107E1,3.3450076E-1,1.02425E1,2.193332E1,3.3028416E1,5.1302517E1],"categories":[],"categories_nodes":[],"categories_segments":[],"categories_sizes":[],"default_left":[0,0,0,0,0,0,0,0,0,0,0,0,0,0,0],"id":16,"left_children":[1,3,5,7,9,11,13,-1,-1,-1,-1,-1,-1,-1,-1],"loss_changes":[6.264512E7,5.805366E6,4.718028E6,9.16832E5,4.1960762E5,3.2515025E5,4.91992E5,0E0,0E0,0E0,0E0,0E0,0E0,0E0,0E0],"parents":[2147483647,0,0,1,1,2,2,3,3,4,4,5,5,6,6],"right_children":[2,4,6,8,10,12,14,-1,-1,-1,-1,-1,-1,-1,-1],"split_conditions":[7.5166665E3,6.5716665E3,8.7E3,6.1533335E3,6.8783335E3,8.333333E3,9.308333E3,-3.54127E1,-2.1790447E1,-1.0758107E1,3.3450076E-1,1.02425E1,2.193332E1,3.3028416E1,5.1302517E1],"split_indices":[5,5,0,5,5,5,5,0,0,0,0,0,0,0,0],"split_type":[0,0,0,0,0,0,0,0,0,0,0,0,0,0,0],"sum_hessian":[2.07E2,1.17E2,9E1,8.5E1,3.2E1,3.5E1,5.5E1,4.8E1,3.7E1,1.4E1,1.8E1,2.1E1,1.4E1,3.7E1,1.8E1],"tree_param":{"num_deleted":"0","num_feature":"7","num_nodes":"15","size_leaf_vector":"1"}},{"base_weights":[-1.5678214E0,-4.4747446E2,6.571935E2,-6.390172E2,-1.9531223E2,3.361792E2,8.375774E2,-4.252912E1,-2.5383698E1,-1.4294715E1,-2.0869024E-1,9.006408E0,2.243149E1,3.3541336E1,5.3115417E1],"categories":[],"categories_nodes":[],"categories_segments":[],"categories_sizes":[],"default_left":[0,0,0,0,0,0,0,0,0,0,0,0,0,0,0],"id":17,"left_children":[1,3,5,7,9,11,13,-1,-1,-1,-1,-1,-1,-1,-1],"loss_changes":[6.40373E7,6.029364E6,4.532556E6,1.164864E6,1.01912225E6,4.5255925E5,6.35824E5,0E0,0E0,0E0,0E0,0E0,0E0,0E0,0E0],"parents":[2147483647,0,0,1,1,2,2,3,3,4,4,5,5,6,6],"right_children":[2,4,6,8,10,12,14,-1,-1,-1,-1,-1,-1,-1,-1],"split_conditions":[7.65E3,6.39E3,8.725E3,5.725E3,7.15E3,7.95E3,9.35E3,-4.252912E1,-2.5383698E1,-1.4294715E1,-2.0869024E-1,9.006408E0,2.243149E1,3.3541336E1,5.3115417E1],"split_indices":[0,0,6,0,2,6,0,0,0,0,0,0,0,0,0],"split_type":[0,0,0,0,0,0,0,0,0,0,0,0,0,0,0],"sum_hessian":[2.14E2,1.28E2,8.6E1,7.1E1,5.7E1,3.3E1,5.3E1,2.3E1,4.8E1,3.8E1,1.9E1,1.6E1,1.7E1,3.5E1,1.8E1],"tree_param":{"num_deleted":"0","num_feature":"7","num_nodes":"15","size_leaf_vector":"1"}},{"base_weights":[5.584002E0,-4.8028397E2,5.4129663E2,-6.7849335E2,-2.728262E2,2.6839258E2,8.196223E2,-4.3139565E1,-2.7774734E1,-1.7160648E1,-1.5980927E0,6.5575786E0,2.1096876E1,3.0829453E1,5.2021618E1],"categories":[],"categories_nodes":[],"categories_segments":[],"categories_sizes":[],"default_left":[0,0,0,0,0,0,0,0,0,0,0,0,0,0,0],"id":18,"left_children":[1,3,5,7,9,11,13,-1,-1,-1,-1,-1,-1,-1,-1],"loss_changes":[5.856364E7,4.481946E6,7.687354E6,3.78884E5,1.0122335E6,1.0904665E6,1.048216E6,0E0,0E0,0E0,0E0,0E0,0E0,0E0,0E0],"parents":[2147483647,0,0,1,1,2,2,3,3,4,4,5,5,6,6],"right_children":[2,4,6,8,10,12,14,-1,-1,-1,-1,-1,-1,-1,-1],"split_conditions":[7.4166665E3,6.2683335E3,8.833333E3,5.5333335E3,6.8483335E3,8.0416665E3,9.375E3,-4.3139565E1,-2.7774734E1,-1.7160648E1,-1.5980927E0,6.5575786E0,2.1096876E1,3.0829453E1,5.2021618E1],"split_indices":[5,5,5,5,5,5,5,0,0,0,0,0,0,0,0],"split_type":[0,0,0,0,0,0,0,0,0,0,0,0,0,0,0],"sum_hessian":[2.21E2,1.16E2,1.05E2,5.7E1,5.9E1,5.5E1,5E1,1.8E1,3.9E1,4.5E1,1.4E1,3.1E1,2.4E1,3E1,2E1],"tree_param":{"num_deleted":"0","num_feature":"7","num_nodes":"15","size_leaf_vector":"1"}},{"base_weights":[7.937548E0,-4.7338007E2,5.1560406E2,-6.782901E2,-2.8889584E2,1.853912E2,6.871154E2,-4.1992672E1,-2.6473637E1,-1.71771E1,-3.2289796E0,4.2975936E0,1.4868899E1,2.808734E1,4.576389E1],"categories":[],"categories_nodes":[],"categories_segments":[],"categories_sizes":[],"default_left":[0,0,0,0,0,0,0,0,0,0,0,0,0,0,0],"id":19,"left_children":[1,3,5,7,9,11,13,-1,-1,-1,-1,-1,-1,-1,-1],"loss_changes":[5.4733596E7,3.955396E6,5.918472E6,3.84944E5,7.40141E5,3.9431538E5,1.002602E6,0E0,0E0,0E0,0E0,0E0,0E0,0E0,0E0],"parents":[2147483647,0,0,1,1,2,2,3,3,4,4,5,5,6,6],"right_children":[2,4,6,8,10,12,14,-1,-1,-1,-1,-1,-1,-1,-1],"split_conditions":[7.4083335E3,6.1533335E3,8.458333E3,5.5333335E3,6.8483335E3,7.9E3,9.316667E3,-4.1992672E1,-2.6473637E1,-1.71771E1,-3.2289796E0,4.2975936E0,1.4868899E1,2.808734E1,4.576389E1],"split_indices":[5,5,5,5,5,5,5,0,0,0,0,0,0,0,0],"split_type":[0,0,0,0,0,0,0,0,0,0,0,0,0,0,0],"sum_hessian":[2.2E2,1.13E2,1.07E2,5.1E1,6.2E1,3.8E1,6.9E1,2E1,3.1E1,4.9E1,1.3E1,2.2E1,1.6E1,4.9E1,2E1],"tree_param":{"num_deleted":"0","num_feature":"7","num_nodes":"15","size_leaf_vector":"1"}},{"base_weights":[-7.1488805E0,-4.513603E2,4.8655173E2,-6.0301996E2,-2.6257785E2,1.6630573E2,6.5564795E2,-3.9740746E1,-2.4787233E1,-1.512751E1,-7.0988286E-1,4.3550315E0,1.3160922E1,2.6624521E1,4.379736E1],"categories":[],"categories_nodes":[],"categories_segments":[],"categories_sizes":[],"default_left":[0,0,0,0,0,0,0,0,0,0,0,0,0,0,0],"id":20,"left_children":[1,3,5,7,9,11,13,-1,-1,-1,-1,-1,-1,-1,-1],"loss_changes":[5.0002696E7,3.119004E6,5.630384E6,5.49314E5,5.573245E5,2.6118625E5,9.66338E5,0E0,0E0,0E0,0E0,0E0,0E0,0E0,0E0],"parents":[2147483647,0,0,1,1,2,2,3,3,4,4,5,5,6,6],"right_children":[2,4,6,8,10,12,14,-1,-1,-1,-1,-1,-1,-1,-1],"split_conditions":[7.4166665E3,6.2683335E3,8.45E3,5.5333335E3,7.1583335E3,7.9E3,9.308333E3,-3.9740746E1,-2.4787233E1,-1.512751E1,-7.0988286E-1,4.3550315E0,1.3160922E1,2.6624521E1,4.379736E1],"split_indices":[5,5,5,5,5,5,5,0,0,0,0,0,0,0,0],"split_type":[0,0,0,0,0,0,0,0,0,0,0,0,0,0,0],"sum_hessian":[2.24E2,1.18E2,1.06E2,6.3E1,5.5E1,3.8E1,6.8E1,1.8E1,4.5E1,4.7E1,8E0,2.3E1,1.5E1,4.8E1,2E1],"tree_param":{"num_deleted":"0","num_feature":"7","num_nodes":"15","size_leaf_vector":"1"}},{"base_weights":[2.4745226E0,-3.5923132E2,5.4918164E2,-5.048765E2,-1.2134526E2,3.5115186E2,7.14002E2,-3.3288433E1,-2.0137592E1,-1.1652371E1,-3.2728408E-2,9.1312E0,2.0995768E1,2.777924E1,4.2823257E1],"categories":[],"categories_nodes":[],"categories_segments":[],"categories_sizes":[],"default_left":[0,0,0,0,0,0,0,0,0,0,0,0,0,0,0],"id":21,"left_children":[1,3,5,7,9,11,13,-1,-1,-1,-1,-1,-1,-1,-1],"loss_changes":[4.2712456E7,4.381575E6,2.305538E6,7.78206E5,7.007284E5,3.44935E5,6.3912E4,0E0,0E0,0E0,0E0,0E0,0E0,0E0,0E0],"parents":[2147483647,0,0,1,1,2,2,3,3,4,4,5,5,6,6],"right_children":[2,4,6,8,10,12,14,-1,-1,-1,-1,-1,-1,-1,-1],"split_conditions":[7.825E3,6.4716665E3,8.958333E3,5.7733335E3,6.8733335E3,8.35E3,9.375E3,-3.3288433E1,-2.0137592E1,-1.1652371E1,-3.2728408E-2,9.1312E0,2.0995768E1,2.777924E1,4.2823257E1],"split_indices":[5,5,5,5,5,5,5,0,0,0,0,0,0,0,0],"split_type":[0,0,0,0,0,0,0,0,0,0,0,0,0,0,0],"sum_hessian":[2.12E2,1.28E2,8.4E1,7.8E1,5E1,4.1E1,4.3E1,2.6E1,5.2E1,2.5E1,2.5E1,1.4E1,2.7E1,2.5E1,1.8E1],"tree_param":{"num_deleted":"0","num_feature":"7","num_nodes":"15","size_leaf_vector":"1"}},{"base_weights":[-5.792651E0,-4.000635E2,4.5617783E2,-5.8877216E2,-2.3011467E2,2.4838179E2,6.6645667E2,-3.7059826E1,-2.3677483E1,-1.5082138E1,-4.147747E0,5.813667E0,1.7756212E1,2.6731415E1,4.5578045E1],"categories":[],"categories_nodes":[],"categories_segments":[],"categories_sizes":[],"default_left":[0,0,0,0,0,0,0,0,0,0,0,0,0,0,0],"id":22,"left_children":[1,3,5,7,9,11,13,-1,-1,-1,-1,-1,-1,-1,-1],"loss_changes":[4.1528976E7,3.67374E6,4.256912E6,2.99088E5,6.6572625E5,7.0710575E5,6.73204E5,0E0,0E0,0E0,0E0,0E0,0E0,0E0,0E0],"parents":[2147483647,0,0,1,1,2,2,3,3,4,4,5,5,6,6],"right_children":[2,4,6,8,10,12,14,-1,-1,-1,-1,-1,-1,-1,-1],"split_conditions":[7.4166665E3,6.1533335E3,8.833333E3,5.5333335E3,6.7583335E3,8.0416665E3,9.575E3,-3.7059826E1,-2.3677483E1,-1.5082138E1,-4.147747E0,5.813667E0,1.7756212E1,2.6731415E1,4.5578045E1],"split_indices":[5,5,5,5,5,5,5,0,0,0,0,0,0,0,0],"split_type":[0,0,0,0,0,0,0,0,0,0,0,0,0,0,0],"sum_hessian":[2.24E2,1.21E2,1.03E2,5.5E1,6.6E1,5.4E1,4.9E1,1.9E1,3.6E1,4.3E1,2.3E1,2.6E1,2.8E1,3.6E1,1.3E1],"tree_param":{"num_deleted":"0","num_feature":"7","num_nodes":"15","size_leaf_vector":"1"}},{"base_weights":[-8.129638E0,-3.2865387E2,5.0047498E2,-4.6271167E2,-4.9405262E1,3.581144E2,3.5066223E1,-2.8548063E1,-1.711017E1,-6.6221247E0,1.3925575E0,8.55273E0,2.1304243E1],"categories":[],"categories_nodes":[],"categories_segments":[],"categories_sizes":[],"default_left":[0,0,0,0,0,0,0,0,0,0,0,0,0],"id":23,"left_children":[1,3,5,7,9,11,-1,-1,-1,-1,-1,-1,-1],"loss_changes":[3.6682444E7,5.120373E6,1.985288E6,8.22412E5,3.088898E5,5.535325E5,0E0,0E0,0E0,0E0,0E0,0E0,0E0],"parents":[2147483647,0,0,1,1,2,2,3,3,4,4,5,5],"right_children":[2,4,6,8,10,12,-1,-1,-1,-1,-1,-1,-1],"split_conditions":[7.8083335E3,6.5466665E3,9.083333E3,6.055E3,7.1583335E3,8.35E3,3.5066223E1,-2.8548063E1,-1.711017E1,-6.6221247E0,1.3925575E0,8.55273E0,2.1304243E1],"split_indices":[5,5,5,5,5,5,0,0,0,0,0,0,0],"split_type":[0,0,0,0,0,0,0,0,0,0,0,0,0],"sum_hessian":[2.21E2,1.36E2,8.5E1,9.1E1,4.5E1,5.3E1,3.2E1,4.4E1,4.7E1,2.1E1,2.4E1,1.6E1,3.7E1],"tree_param":{"num_deleted":"0","num_feature":"7","num_nodes":"13","size_leaf_vector":"1"}},{"base_weights":[2.3410425E1,-2.9825357E2,4.853147E2,-4.2148114E2,-3.3473186E1,3.606514E2,3.6171886E1,-3.0230398E1,-1.6880299E1,-6.2910857E0,2.0416467E0,8.870482E0,2.011801E1],"categories":[],"categories_nodes":[],"categories_segments":[],"categories_sizes":[],"default_left":[0,0,0,0,0,0,0,0,0,0,0,0,0],"id":24,"left_children":[1,3,5,7,9,11,-1,-1,-1,-1,-1,-1,-1],"loss_changes":[3.4759584E7,4.47448E6,2.327962E6,1.035582E6,3.2593012E5,3.69301E5,0E0,0E0,0E0,0E0,0E0,0E0,0E0],"parents":[2147483647,0,0,1,1,2,2,3,3,4,4,5,5],"right_children":[2,4,6,8,10,12,-1,-1,-1,-1,-1,-1,-1],"split_conditions":[7.81E3,6.695E3,9.2E3,5.725E3,7.25E3,8.225E3,3.6171886E1,-3.0230398E1,-1.6880299E1,-6.2910857E0,2.0416467E0,8.870482E0,2.011801E1],"split_indices":[6,0,0,0,0,0,0,0,0,0,0,0,0],"split_type":[0,0,0,0,0,0,0,0,0,0,0,0,0],"sum_hessian":[2.3E2,1.36E2,9.4E1,9.2E1,4.4E1,6.5E1,2.9E1,2.5E1,6.7E1,1.9E1,2.5E1,1.4E1,5.1E1],"tree_param":{"num_deleted":"0","num_feature":"7","num_nodes":"13","size_leaf_vector":"1"}},{"base_weights":[1.3547576E1,-2.956537E2,4.5877203E2,-4.3542166E2,-9.1566345E1,3.6528616E2,3.7225292E1,-3.0529593E1,-1.8577507E1,-8.798239E0,1.5270411E0,7.4088717E0,2.1003431E1],"categories":[],"categories_nodes":[],"categories_segments":[],"categories_sizes":[],"default_left":[0,0,0,0,0,0,0,0,0,0,0,0,0],"id":25,"left_children":[1,3,5,7,9,11,-1,-1,-1,-1,-1,-1,-1],"loss_changes":[3.1245666E7,3.742594E6,1.94031E6,4.30151E5,5.9817044E5,7.55649E5,0E0,0E0,0E0,0E0,0E0,0E0,0E0],"parents":[2147483647,0,0,1,1,2,2,3,3,4,4,5,5],"right_children":[2,4,6,8,10,12,-1,-1,-1,-1,-1,-1,-1],"split_conditions":[7.8083335E3,6.4266665E3,9.375E3,5.5366665E3,7.1583335E3,8.2E3,3.7225292E1,-3.0529593E1,-1.8577507E1,-8.798239E0,1.5270411E0,7.4088717E0,2.1003431E1],"split_indices":[5,5,5,5,5,5,0,0,0,0,0,0,0],"split_type":[0,0,0,0,0,0,0,0,0,0,0,0,0],"sum_hessian":[2.23E2,1.32E2,9.1E1,7.7E1,5.5E1,7.2E1,1.9E1,1.6E1,6.1E1,3.2E1,2.3E1,1.6E1,5.6E1],"tree_param":{"num_deleted":"0","num_feature":"7","num_nodes":"13","size_leaf_vector":"1"}},{"base_weights":[4.10134E0,-3.5171432E2,3.5022647E2,-2.8130915E1,-2.7111996E2,1.4396124E2,5.145763E2,-1.5278949E1,-5.170722E0,3.901756E0,1.299089E1,2.1278791E1,3.5584656E1],"categories":[],"categories_nodes":[],"categories_segments":[],"categories_sizes":[],"default_left":[0,0,0,0,0,0,0,0,0,0,0,0,0],"id":26,"left_children":[1,3,5,-1,7,9,11,-1,-1,-1,-1,-1,-1],"loss_changes":[2.6971374E7,1.530675E6,3.614703E6,0E0,4.10673E5,3.5662475E5,4.64396E5,0E0,0E0,0E0,0E0,0E0,0E0],"parents":[2147483647,0,0,1,1,2,2,4,4,5,5,6,6],"right_children":[2,4,6,-1,8,10,12,-1,-1,-1,-1,-1,-1],"split_conditions":[7.29E3,5.79E3,8.7E3,-2.8130915E1,6.721E3,7.985E3,9.59E3,-1.5278949E1,-5.170722E0,3.901756E0,1.299089E1,2.1278791E1,3.5584656E1],"split_indices":[0,0,0,0,6,6,6,0,0,0,0,0,0],"split_type":[0,0,0,0,0,0,0,0,0,0,0,0,0],"sum_hessian":[2.15E2,1.06E2,1.09E2,2.6E1,8E1,5E1,5.9E1,6.5E1,1.5E1,3.4E1,1.6E1,4.5E1,1.4E1],"tree_param":{"num_deleted":"0","num_feature":"7","num_nodes":"13","size_leaf_vector":"1"}},{"base_weights":[1.1076265E1,-2.9657507E2,3.99159E2,-4.4567844E2,-1.4751967E2,2.5512056E2,5.474821E2,-2.759969E1,-1.6616121E1,-9.848347E0,3.6777858E-2,7.4819007E0,1.5059937E1,2.136642E1,3.534663E1],"categories":[],"categories_nodes":[],"categories_segments":[],"categories_sizes":[],"default_left":[0,0,0,0,0,0,0,0,0,0,0,0,0,0,0],"id":27,"left_children":[1,3,5,7,9,11,13,-1,-1,-1,-1,-1,-1,-1,-1],"loss_changes":[2.7816812E7,2.757714E6,1.921167E6,4.04415E5,4.9878512E5,1.8204325E5,3.34585E5,0E0,0E0,0E0,0E0,0E0,0E0,0E0,0E0],"parents":[2147483647,0,0,1,1,2,2,3,3,4,4,5,5,6,6],"right_children":[2,4,6,8,10,12,14,-1,-1,-1,-1,-1,-1,-1,-1],"split_conditions":[7.65E3,6.24E3,9E3,5.725E3,6.961E3,8.225E3,9.59E3,-2.759969E1,-1.6616121E1,-9.848347E0,3.6777858E-2,7.4819007E0,1.5059937E1,2.136642E1,3.534663E1],"split_indices":[0,0,0,0,6,0,6,0,0,0,0,0,0,0,0],"split_type":[0,0,0,0,0,0,0,0,0,0,0,0,0,0,0],"sum_hessian":[2.29E2,1.28E2,1.01E2,6.2E1,6.6E1,5.4E1,4.7E1,2.8E1,3.4E1,4.9E1,1.7E1,1.9E1,3.5E1,3.1E1,1.6E1],"tree_param":{"num_deleted":"0","num_feature":"7","num_nodes":"15","size_leaf_vector":"1"}},{"base_weights":[-1.4170074E1,-2.7264496E2,3.429457E2,-4.348436E2,-1.5602654E2,1.9011177E2,4.875139E2,-2.8553358E1,-1.7437468E1,-1.1460116E1,-2.49991E0,3.5956845E0,1.1068226E1,1.9690315E1,3.324007E1],"categories":[],"categories_nodes":[],"categories_segments":[],"categories_sizes":[],"default_left":[0,0,0,0,0,0,0,0,0,0,0,0,0,0,0],"id":28,"left_children":[1,3,5,7,9,11,13,-1,-1,-1,-1,-1,-1,-1,-1],"loss_changes":[2.0217288E7,2.266556E6,1.847368E6,2.1154E5,5.74501E5,1.454745E5,2.406E5,0E0,0E0,0E0,0E0,0E0,0E0,0E0,0E0],"parents":[2147483647,0,0,1,1,2,2,3,3,4,4,5,5,6,6],"right_children":[2,4,6,8,10,12,14,-1,-1,-1,-1,-1,-1,-1,-1],"split_conditions":[7.5166665E3,6.1533335E3,8.833333E3,5.5333335E3,6.7183335E3,7.9E3,9.625E3,-2.8553358E1,-1.7437468E1,-1.1460116E1,-2.49991E0,3.5956845E0,1.1068226E1,1.9690315E1,3.324007E1],"split_indices":[5,5,5,5,5,5,2,0,0,0,0,0,0,0,0],"split_type":[0,0,0,0,0,0,0,0,0,0,0,0,0,0,0],"sum_hessian":[2.15E2,1.25E2,9E1,5E1,7.5E1,4.6E1,4.4E1,1.5E1,3.5E1,4.3E1,3.2E1,1.1E1,3.5E1,3.3E1,1.1E1],"tree_param":{"num_deleted":"0","num_feature":"7","num_nodes":"15","size_leaf_vector":"1"}},{"base_weights":[-4.9942226E0,-2.552404E2,3.612606E2,-3.47743E2,-5.9373898E1,2.2709972E2,5.1293884E2,-2.5152517E1,-1.3330556E1,-5.819273E0,1.1148089E0,5.6469913E0,1.4130927E1,2.0351408E1,3.4736427E1],"categories":[],"categories_nodes":[],"categories_segments":[],"categories_sizes":[],"default_left":[0,0,0,0,0,0,0,0,0,0,0,0,0,0,0],"id":29,"left_children":[1,3,5,7,9,11,13,-1,-1,-1,-1,-1,-1,-1,-1],"loss_changes":[2.1448114E7,2.477131E6,1.700206E6,9.16197E5,2.2402844E5,2.784155E5,2.62352E5,0E0,0E0,0E0,0E0,0E0,0E0,0E0,0E0],"parents":[2147483647,0,0,1,1,2,2,3,3,4,4,5,5,6,6],"right_children":[2,4,6,8,10,12,14,-1,-1,-1,-1,-1,-1,-1,-1],"split_conditions":[7.65E3,6.582E3,9E3,5.725E3,7.275E3,7.985E3,9.665E3,-2.5152517E1,-1.3330556E1,-5.819273E0,1.1148089E0,5.6469913E0,1.4130927E1,2.0351408E1,3.4736427E1],"split_indices":[0,6,6,0,0,6,6,0,0,0,0,0,0,0,0],"split_type":[0,0,0,0,0,0,0,0,0,0,0,0,0,0,0],"sum_hessian":[2.3E2,1.37E2,9.3E1,9.2E1,4.5E1,5.2E1,4.1E1,2.8E1,6.4E1,2.6E1,1.9E1,1.9E1,3.3E1,3E1,1.1E1],"tree_param":{"num_deleted":"0","num_feature":"7","num_nodes":"15","size_leaf_vector":"1"}},{"base_weights":[1.680081E1,-2.217308E2,3.7824088E2,-3.0328003E2,-1.2887403E1,3.007238E2,3.2529453E1,-1.7917974E1,-9.945044E0,-3.509131E0,1.1681265E0,9.618237E0,1.7624067E1],"categories":[],"categories_nodes":[],"categories_segments":[],"categories_sizes":[],"default_left":[0,0,0,0,0,0,0,0,0,0,0,0,0],"id":30,"left_children":[1,3,5,7,9,11,-1,-1,-1,-1,-1,-1,-1],"loss_changes":[1.930744E7,2.2913695E6,1.487641E6,4.15112E5,8.635719E4,2.73803E5,0E0,0E0,0E0,0E0,0E0,0E0,0E0],"parents":[2147483647,0,0,1,1,2,2,3,3,4,4,5,5],"right_children":[2,4,6,8,10,12,-1,-1,-1,-1,-1,-1,-1],"split_conditions":[7.8583335E3,6.74E3,9.558333E3,6.2866665E3,7.1583335E3,8.7E3,3.2529453E1,-1.7917974E1,-9.945044E0,-3.509131E0,1.1681265E0,9.618237E0,1.7624067E1],"split_indices":[5,5,5,5,5,0,0,0,0,0,0,0,0],"split_type":[0,0,0,0,0,0,0,0,0,0,0,0,0],"sum_hessian":[2.2E2,1.33E2,8.7E1,9.5E1,3.8E1,7.1E1,1.6E1,5.9E1,3.6E1,1.4E1,2.4E1,2.6E1,4.5E1],"tree_param":{"num_deleted":"0","num_feature":"7","num_nodes":"13","size_leaf_vector":"1"}},{"base_weights":[-1.2490038E1,-2.5856454E2,2.811467E2,-3.7739645E2,-1.6807285E2,1.6602266E2,2.1837011E1,-2.5091938E1,-1.4710442E1,-1.0035305E1,-1.752147E0,2.5816927E0,1.1037916E1],"categories":[],"categories_nodes":[],"categories_segments":[],"categories_sizes":[],"default_left":[0,0,0,0,0,0,0,0,0,0,0,0,0],"id":31,"left_children":[1,3,5,7,9,11,-1,-1,-1,-1,-1,-1,-1],"loss_changes":[1.6475362E7,1.20655E6,1.7178885E6,2.43016E5,3.0718225E5,3.7165488E5,0E0,0E0,0E0,0E0,0E0,0E0,0E0],"parents":[2147483647,0,0,1,1,2,2,3,3,4,4,5,5],"right_children":[2,4,6,8,10,12,-1,-1,-1,-1,-1,-1,-1],"split_conditions":[7.4166665E3,6.11E3,8.933333E3,5.5333335E3,6.8483335E3,7.9E3,2.1837011E1,-2.5091938E1,-1.4710442E1,-1.0035305E1,-1.752147E0,2.5816927E0,1.1037916E1],"split_indices":[5,0,5,5,5,5,0,0,0,0,0,0,0],"split_type":[0,0,0,0,0,0,0,0,0,0,0,0,0],"sum_hessian":[2.24E2,1.22E2,1.02E2,5E1,7.2E1,6.1E1,4.1E1,1.6E1,3.4E1,5.7E1,1.5E1,2.1E1,4E1],"tree_param":{"num_deleted":"0","num_feature":"7","num_nodes":"13","size_leaf_vector":"1"}},{"base_weights":[-3.4119525E0,-2.3009567E2,3.092448E2,-2.8355743E2,-3.1203955E1,1.3051306E2,3.9173944E2,-2.6815382E1,-1.2697733E1,-4.3686357E0,5.2559626E-1,4.2413745E0,8.422528E0,1.5789535E1,2.5858917E1],"categories":[],"categories_nodes":[],"categories_segments":[],"categories_sizes":[],"default_left":[0,0,0,0,0,0,0,0,0,0,0,0,0,0,0],"id":32,"left_children":[1,3,5,7,9,11,13,-1,-1,-1,-1,-1,-1,-1,-1],"loss_changes":[1.6018132E7,1.375239E6,1.298465E6,4.982615E5,7.213078E4,2.8617E4,2.83083E5,0E0,0E0,0E0,0E0,0E0,0E0,0E0,0E0],"parents":[2147483647,0,0,1,1,2,2,3,3,4,4,5,5,6,6],"right_children":[2,4,6,8,10,12,14,-1,-1,-1,-1,-1,-1,-1,-1],"split_conditions":[7.65E3,6.751E3,8.65E3,5.44E3,7.275E3,7.95E3,9.35E3,-2.6815382E1,-1.2697733E1,-4.3686357E0,5.2559626E-1,4.2413745E0,8.422528E0,1.5789535E1,2.5858917E1],"split_indices":[0,6,0,0,0,6,0,0,0,0,0,0,0,0,0],"split_type":[0,0,0,0,0,0,0,0,0,0,0,0,0,0,0],"sum_hessian":[2.22E2,1.29E2,9.3E1,1.01E2,2.8E1,3.1E1,6.2E1,7E0,9.4E1,1.1E1,1.7E1,1.7E1,1.4E1,4.3E1,1.9E1],"tree_param":{"num_deleted":"0","num_feature":"7","num_nodes":"15","size_leaf_vector":"1"}},{"base_weights":[-6.4208636E0,-2.4489326E2,2.6851248E2,-3.6617728E2,-1.4287698E2,1.091988E2,3.631917E2,-2.3886187E1,-1.3916251E1,-9.205512E0,-1.5547619E0,3.3750672E0,6.7423396E0,1.4578414E1,2.6556028E1],"categories":[],"categories_nodes":[],"categories_segments":[],"categories_sizes":[],"default_left":[0,0,0,0,0,0,0,0,0,0,0,0,0,0,0],"id":33,"left_children":[1,3,5,7,9,11,13,-1,-1,-1,-1,-1,-1,-1,-1],"loss_changes":[1.4817853E7,1.39249E6,1.5044685E6,2.632535E5,3.0657988E5,2.6712531E4,4.72081E5,0E0,0E0,0E0,0E0,0E0,0E0,0E0,0E0],"parents":[2147483647,0,0,1,1,2,2,3,3,4,4,5,5,6,6],"right_children":[2,4,6,8,10,12,14,-1,-1,-1,-1,-1,-1,-1,-1],"split_conditions":[7.4166665E3,6.11E3,8.55E3,5.5333335E3,6.7783335E3,7.9E3,9.558333E3,-2.3886187E1,-1.3916251E1,-9.205512E0,-1.5547619E0,3.3750672E0,6.7423396E0,1.4578414E1,2.6556028E1],"split_indices":[5,5,5,5,5,5,5,0,0,0,0,0,0,0,0],"split_type":[0,0,0,0,0,0,0,0,0,0,0,0,0,0,0],"sum_hessian":[2.22E2,1.19E2,1.03E2,5.2E1,6.7E1,4E1,6.3E1,1.9E1,3.3E1,4.8E1,1.9E1,1.8E1,2.2E1,4.8E1,1.5E1],"tree_param":{"num_deleted":"0","num_feature":"7","num_nodes":"15","size_leaf_vector":"1"}},{"base_weights":[-5.321274E0,-2.1735469E2,2.47987E2,-2.4854437E1,-1.7230466E2,1.5156386E2,3.8081284E2,-1.1358513E1,-4.0463634E0,4.194627E0,1.0800285E1,1.5337618E1,2.9210037E1],"categories":[],"categories_nodes":[],"categories_segments":[],"categories_sizes":[],"default_left":[0,0,0,0,0,0,0,0,0,0,0,0,0],"id":34,"left_children":[1,3,5,-1,7,9,11,-1,-1,-1,-1,-1,-1],"loss_changes":[1.2138802E7,1.3787485E6,1.2037355E6,0E0,5.097005E5,2.3849212E5,2.742365E5,0E0,0E0,0E0,0E0,0E0,0E0],"parents":[2147483647,0,0,1,1,2,2,4,4,5,5,6,6],"right_children":[2,4,6,-1,8,10,12,-1,-1,-1,-1,-1,-1],"split_conditions":[7.4166665E3,5.5333335E3,8.933333E3,-2.4854437E1,6.4716665E3,8.35E3,9.65E3,-1.1358513E1,-4.0463634E0,4.194627E0,1.0800285E1,1.5337618E1,2.9210037E1],"split_indices":[5,5,5,0,5,5,5,0,0,0,0,0,0],"split_type":[0,0,0,0,0,0,0,0,0,0,0,0,0],"sum_hessian":[2.22E2,1.21E2,1.01E2,1.4E1,1.07E2,6.1E1,4E1,6.5E1,4.2E1,3.2E1,2.9E1,3.3E1,7E0],"tree_param":{"num_deleted":"0","num_feature":"7","num_nodes":"13","size_leaf_vector":"1"}},{"base_weights":[1.1425652E1,-2.1898273E2,2.6276276E2,-3.2983453E2,-1.2614285E2,1.3497873E2,3.9764224E2,-2.1677488E1,-1.283859E1,-8.574817E0,-3.8150532E0,2.2059886E0,8.796538E0,1.5475385E1,2.6486444E1],"categories":[],"categories_nodes":[],"categories_segments":[],"categories_sizes":[],"default_left":[0,0,0,0,0,0,0,0,0,0,0,0,0,0,0],"id":35,"left_children":[1,3,5,7,9,11,13,-1,-1,-1,-1,-1,-1,-1,-1],"loss_changes":[1.3202782E7,1.141472E6,1.771316E6,1.789725E5,1.2754325E5,2.040065E5,2.77442E5,0E0,0E0,0E0,0E0,0E0,0E0,0E0,0E0],"parents":[2147483647,0,0,1,1,2,2,3,3,4,4,5,5,6,6],"right_children":[2,4,6,8,10,12,14,-1,-1,-1,-1,-1,-1,-1,-1],"split_conditions":[7.4166665E3,6.11E3,8.933333E3,5.5333335E3,6.4716665E3,7.9E3,9.575E3,-2.1677488E1,-1.283859E1,-8.574817E0,-3.8150532E0,2.2059886E0,8.796538E0,1.5475385E1,2.6486444E1],"split_indices":[5,5,5,5,5,5,5,0,0,0,0,0,0,0,0],"split_type":[0,0,0,0,0,0,0,0,0,0,0,0,0,0,0],"sum_hessian":[2.24E2,1.17E2,1.07E2,5.1E1,6.6E1,5.7E1,5E1,1.7E1,3.4E1,3.2E1,3.4E1,1.9E1,3.8E1,3.4E1,1.6E1],"tree_param":{"num_deleted":"0","num_feature":"7","num_nodes":"15","size_leaf_vector":"1"}},{"base_weights":[1.4489109E1,-1.5449472E2,2.685749E2,-2.5619897E2,-5.8310207E1,2.031844E2,4.442351E2,-1.1224326E1,-1.8074532E1,-5.424715E0,6.3845295E-1,6.668617E0,1.2040828E1,2.3763252E1,7.1210647E0],"categories":[],"categories_nodes":[],"categories_segments":[],"categories_sizes":[],"default_left":[0,0,0,0,0,0,0,0,0,0,0,0,0,0,0],"id":36,"left_children":[1,3,5,7,9,11,13,-1,-1,-1,-1,-1,-1,-1,-1],"loss_changes":[9.786611E6,1.3103075E6,8.64749E5,5.8078E4,2.631653E5,1.1966575E5,8.0025E4,0E0,0E0,0E0,0E0,0E0,0E0,0E0,0E0],"parents":[2147483647,0,0,1,1,2,2,3,3,4,4,5,5,6,6],"right_children":[2,4,6,8,10,12,14,-1,-1,-1,-1,-1,-1,-1,-1],"split_conditions":[7.81E3,6.33E3,9.35E3,6.29E3,6.955E3,8.7E3,1.0075E4,-1.1224326E1,-1.8074532E1,-5.424715E0,6.3845295E-1,6.668617E0,1.2040828E1,2.3763252E1,7.1210647E0],"split_indices":[6,0,0,2,0,0,4,0,0,0,0,0,0,0,0],"split_type":[0,0,0,0,0,0,0,0,0,0,0,0,0,0,0],"sum_hessian":[2.24E2,1.35E2,8.9E1,6.4E1,7.1E1,6.8E1,2.1E1,5.4E1,1E1,4.1E1,3E1,2.7E1,4.1E1,1.8E1,3E0],"tree_param":{"num_deleted":"0","num_feature":"7","num_nodes":"15","size_leaf_vector":"1"}},{"base_weights":[1.2584737E1,-1.7064545E2,2.579234E2,-2.574275E2,-8.654106E1,1.8646088E2,2.3115555E1,-1.975752E1,-1.108639E1,-5.573633E0,-3.1429172E-1,4.312021E0,1.0926478E1],"categories":[],"categories_nodes":[],"categories_segments":[],"categories_sizes":[],"default_left":[0,0,0,0,0,0,0,0,0,0,0,0,0],"id":37,"left_children":[1,3,5,7,9,11,-1,-1,-1,-1,-1,-1,-1],"loss_changes":[9.887879E6,8.7508675E5,1.200564E6,1.2468475E5,1.3265831E5,1.9692525E5,0E0,0E0,0E0,0E0,0E0,0E0,0E0],"parents":[2147483647,0,0,1,1,2,2,3,3,4,4,5,5],"right_children":[2,4,6,8,10,12,-1,-1,-1,-1,-1,-1,-1],"split_conditions":[7.65E3,6.24E3,9.35E3,5.425E3,7.275E3,8.225E3,2.3115555E1,-1.975752E1,-1.108639E1,-5.573633E0,-3.1429172E-1,4.312021E0,1.0926478E1],"split_indices":[0,0,0,0,0,0,0,0,0,0,0,0,0],"split_type":[0,0,0,0,0,0,0,0,0,0,0,0,0],"sum_hessian":[2.16E2,1.24E2,9.2E1,5.9E1,6.5E1,7.1E1,2.1E1,8E0,5.1E1,4.9E1,1.6E1,1.9E1,5.2E1],"tree_param":{"num_deleted":"0","num_feature":"7","num_nodes":"13","size_leaf_vector":"1"}},{"base_weights":[-4.6017947E0,-1.5823082E2,2.337129E2,-2.1259166E2,-1.9250702E1,1.428363E2,1.6656872E1,-1.4644104E1,-8.717357E0,6.0149803E0,-1.8299696E0,4.5363784E0,8.576347E0],"categories":[],"categories_nodes":[],"categories_segments":[],"categories_sizes":[],"default_left":[0,0,0,0,0,0,0,0,0,0,0,0,0],"id":38,"left_children":[1,3,5,7,9,11,-1,-1,-1,-1,-1,-1,-1],"loss_changes":[8.3116735E6,1.03441525E6,7.089795E5,2.0187E5,1.080674E5,4.362725E4,0E0,0E0,0E0,0E0,0E0,0E0,0E0],"parents":[2147483647,0,0,1,1,2,2,3,3,4,4,5,5],"right_children":[2,4,6,8,10,12,-1,-1,-1,-1,-1,-1,-1],"split_conditions":[7.81E3,6.73E3,8.985E3,5.79E3,6.71E3,8.405E3,1.6656872E1,-1.4644104E1,-8.717357E0,6.0149803E0,-1.8299696E0,4.5363784E0,8.576347E0],"split_indices":[6,6,6,0,2,6,0,0,0,0,0,0,0],"split_type":[0,0,0,0,0,0,0,0,0,0,0,0,0],"sum_hessian":[2.23E2,1.36E2,8.7E1,9.7E1,3.9E1,4.8E1,3.9E1,2.7E1,7E1,3E0,3.6E1,2E1,2.8E1],"tree_param":{"num_deleted":"0","num_feature":"7","num_nodes":"13","size_leaf_vector":"1"}},{"base_weights":[4.1059995E0,-1.5172273E2,2.4244379E2,-2.1368222E2,-6.2841858E1,1.6978595E2,2.2039368E1,-1.2063457E1,-8.351738E0,-4.72932E0,1.0848633E-1,4.515687E0,9.966347E0],"categories":[],"categories_nodes":[],"categories_segments":[],"categories_sizes":[],"default_left":[0,0,0,0,0,0,0,0,0,0,0,0,0],"id":39,"left_children":[1,3,5,7,9,11,-1,-1,-1,-1,-1,-1,-1],"loss_changes":[7.798663E6,6.7253425E5,1.0464515E6,1.4627E4,1.1391742E5,1.14248125E5,0E0,0E0,0E0,0E0,0E0,0E0,0E0],"parents":[2147483647,0,0,1,1,2,2,3,3,4,4,5,5],"right_children":[2,4,6,8,10,12,-1,-1,-1,-1,-1,-1,-1],"split_conditions":[7.5166665E3,6.4266665E3,9.375E3,6.055E3,7.0283335E3,8.35E3,2.2039368E1,-1.2063457E1,-8.351738E0,-4.72932E0,1.0848633E-1,4.515687E0,9.966347E0],"split_indices":[5,5,5,5,5,5,0,0,0,0,0,0,0],"split_type":[0,0,0,0,0,0,0,0,0,0,0,0,0],"sum_hessian":[2.06E2,1.25E2,8.1E1,7.2E1,5.3E1,6.2E1,1.9E1,4E1,3.2E1,3.5E1,1.8E1,1.9E1,4.3E1],"tree_param":{"num_deleted":"0","num_feature":"7","num_nodes":"13","size_leaf_vector":"1"}},{"base_weights":[-4.9318705E0,-1.5404347E2,2.1968407E2,-2.3200189E2,-5.016136E1,1.605735E2,2.1750046E1,-2.3802612E1,-1.0070266E1,-4.351808E0,-9.009313E-2,4.2372813E0,1.0334945E1],"categories":[],"categories_nodes":[],"categories_segments":[],"categories_sizes":[],"default_left":[0,0,0,0,0,0,0,0,0,0,0,0,0],"id":40,"left_children":[1,3,5,7,9,11,-1,-1,-1,-1,-1,-1,-1],"loss_changes":[7.4696E6,1.0619215E6,9.930485E5,3.75741E5,1.0668114E5,2.2029038E5,0E0,0E0,0E0,0E0,0E0,0E0,0E0],"parents":[2147483647,0,0,1,1,2,2,3,3,4,4,5,5],"right_children":[2,4,6,8,10,12,-1,-1,-1,-1,-1,-1,-1],"split_conditions":[7.8083335E3,6.41E3,9.558333E3,5.2266665E3,6.8783335E3,8.65E3,2.1750046E1,-2.3802612E1,-1.0070266E1,-4.351808E0,-9.009313E-2,4.2372813E0,1.0334945E1],"split_indices":[5,5,5,5,5,5,0,0,0,0,0,0,0],"split_type":[0,0,0,0,0,0,0,0,0,0,0,0,0],"sum_hessian":[2.19E2,1.32E2,8.7E1,7.4E1,5.8E1,7.1E1,1.6E1,5E0,6.9E1,3.2E1,2.6E1,2.9E1,4.2E1],"tree_param":{"num_deleted":"0","num_feature":"7","num_nodes":"13","size_leaf_vector":"1"}},{"base_weights":[-8.0378065E0,-1.7190022E2,1.6799869E2,-3.4654086E2,-1.3314656E2,8.782412E1,2.5573354E2,-2.3130919E1,-1.1535253E1,-7.7848315E0,-1.7280447E0,2.678647E0,6.9132667E0,9.916432E0,1.8353073E1],"categories":[],"categories_nodes":[],"categories_segments":[],"categories_sizes":[],"default_left":[0,0,0,0,0,0,0,0,0,0,0,0,0,0,0],"id":41,"left_children":[1,3,5,7,9,11,13,-1,-1,-1,-1,-1,-1,-1,-1],"loss_changes":[6.5192095E6,6.9957075E5,7.21798E5,5.546175E4,2.0932638E5,8.884569E4,1.803315E5,0E0,0E0,0E0,0E0,0E0,0E0,0E0,0E0],"parents":[2147483647,0,0,1,1,2,2,3,3,4,4,5,5,6,6],"right_children":[2,4,6,8,10,12,14,-1,-1,-1,-1,-1,-1,-1,-1],"split_conditions":[7.275E3,5.585E3,8.833333E3,5.4633335E3,6.74E3,8.35E3,9.558333E3,-2.3130919E1,-1.1535253E1,-7.7848315E0,-1.7280447E0,2.678647E0,6.9132667E0,9.916432E0,1.8353073E1],"split_indices":[0,5,5,5,5,5,5,0,0,0,0,0,0,0,0],"split_type":[0,0,0,0,0,0,0,0,0,0,0,0,0,0,0],"sum_hessian":[2.22E2,1.15E2,1.07E2,1.8E1,9.7E1,5.8E1,4.9E1,6E0,1.2E1,7.8E1,1.9E1,3.7E1,2.1E1,3.6E1,1.3E1],"tree_param":{"num_deleted":"0","num_feature":"7","num_nodes":"15","size_leaf_vector":"1"}},{"base_weights":[9.2445755E0,-1.4578246E2,1.998693E2,-3.168942E2,-1.0428956E2,1.5839046E2,3.6875983E2,-2.2126413E1,-1.1862534E1,-7.6548495E0,-2.175068E0,4.3729854E0,9.823946E0,2.0511106E1,7.1092043E0],"categories":[],"categories_nodes":[],"categories_segments":[],"categories_sizes":[],"default_left":[0,0,0,0,0,0,0,0,0,0,0,0,0,0,0],"id":42,"left_children":[1,3,5,7,9,11,13,-1,-1,-1,-1,-1,-1,-1,-1],"loss_changes":[6.8552305E6,8.426925E5,6.1174375E5,3.016225E4,3.0117325E5,2.00675E5,6.183875E4,0E0,0E0,0E0,0E0,0E0,0E0,0E0,0E0],"parents":[2147483647,0,0,1,1,2,2,3,3,4,4,5,5,6,6],"right_children":[2,4,6,8,10,12,14,-1,-1,-1,-1,-1,-1,-1,-1],"split_conditions":[7.5166665E3,5.5366665E3,9.558333E3,5.2266665E3,6.4716665E3,8.458333E3,1.0075E4,-2.2126413E1,-1.1862534E1,-7.6548495E0,-2.175068E0,4.3729854E0,9.823946E0,2.0511106E1,7.1092043E0],"split_indices":[5,5,5,5,5,5,4,0,0,0,0,0,0,0,0],"split_type":[0,0,0,0,0,0,0,0,0,0,0,0,0,0,0],"sum_hessian":[2.28E2,1.26E2,1.02E2,2.2E1,1.04E2,8.5E1,1.7E1,5E0,1.7E1,5.6E1,4.8E1,3.2E1,5.3E1,1.3E1,4E0],"tree_param":{"num_deleted":"0","num_feature":"7","num_nodes":"15","size_leaf_vector":"1"}},{"base_weights":[-1.0216197E0,-1.6034189E2,1.4826984E2,-3.0480298E2,-1.25106895E2,5.0123363E1,2.2422032E2,-5.4602103E0,-1.6391363E1,-6.621998E0,-2.1077173E0,4.764515E0,1.4828118E0,9.560174E0,1.6496162E1],"categories":[],"categories_nodes":[],"categories_segments":[],"categories_sizes":[],"default_left":[0,0,0,0,0,0,0,0,0,0,0,0,0,0,0],"id":43,"left_children":[1,3,5,7,9,11,13,-1,-1,-1,-1,-1,-1,-1,-1],"loss_changes":[5.1137855E6,4.5310325E5,8.04947E5,1.3966625E4,4.1755875E4,4.1494383E4,9.021375E4,0E0,0E0,0E0,0E0,0E0,0E0,0E0,0E0],"parents":[2147483647,0,0,1,1,2,2,3,3,4,4,5,5,6,6],"right_children":[2,4,6,8,10,12,14,-1,-1,-1,-1,-1,-1,-1,-1],"split_conditions":[6.8783335E3,5.5333335E3,8.7E3,4.92E3,6.74E3,7.375E3,9.575E3,-5.4602103E0,-1.6391363E1,-6.621998E0,-2.1077173E0,4.764515E0,1.4828118E0,9.560174E0,1.6496162E1],"split_indices":[5,5,0,1,5,2,5,0,0,0,0,0,0,0,0],"split_type":[0,0,0,0,0,0,0,0,0,0,0,0,0,0,0],"sum_hessian":[2.11E2,1.02E2,1.09E2,1.7E1,8.5E1,4.9E1,6E1,3E0,1.4E1,7.7E1,8E0,1.3E1,3.6E1,5E1,1E1],"tree_param":{"num_deleted":"0","num_feature":"7","num_nodes":"15","size_leaf_vector":"1"}},{"base_weights":[-2.2394228E0,-1.3374779E2,1.5189642E2,-1.6976854E2,-4.7661938E1,6.177633E1,1.9925035E2,-1.5082056E1,-7.3526306E0,7.486084E-1,-3.946204E0,5.929485E0,6.1295277E-1,8.828495E0,1.7981901E1],"categories":[],"categories_nodes":[],"categories_segments":[],"categories_sizes":[],"default_left":[0,0,0,0,0,0,0,0,0,0,0,0,0,0,0],"id":44,"left_children":[1,3,5,7,9,11,13,-1,-1,-1,-1,-1,-1,-1,-1],"loss_changes":[4.3581745E6,3.4351888E5,3.9786875E5,1.5393E5,7.4812164E4,1.0118241E5,1.05808E5,0E0,0E0,0E0,0E0,0E0,0E0,0E0,0E0],"parents":[2147483647,0,0,1,1,2,2,3,3,4,4,5,5,6,6],"right_children":[2,4,6,8,10,12,14,-1,-1,-1,-1,-1,-1,-1,-1],"split_conditions":[7.4166665E3,6.5416665E3,8.55E3,5.4633335E3,6.68E3,7.85E3,9.825E3,-1.5082056E1,-7.3526306E0,7.486084E-1,-3.946204E0,5.929485E0,6.1295277E-1,8.828495E0,1.7981901E1],"split_indices":[5,5,5,5,3,1,5,0,0,0,0,0,0,0,0],"split_type":[0,0,0,0,0,0,0,0,0,0,0,0,0,0,0],"sum_hessian":[2.11E2,1.14E2,9.7E1,7.9E1,3.5E1,3.5E1,6.2E1,8E0,7.1E1,1.2E1,2.3E1,1.5E1,2E1,5.8E1,4E0],"tree_param":{"num_deleted":"0","num_feature":"7","num_nodes":"15","size_leaf_vector":"1"}},{"base_weights":[-2.9401517E0,-1.3246243E2,1.6798158E2,-2.5519955E2,-8.786122E1,1.3567078E2,3.6616025E2,-1.8018522E1,-9.135459E0,-5.3310494E0,1.5967204E-1,2.1264894E0,8.268381E0,2.0762386E1,6.5669336E0],"categories":[],"categories_nodes":[],"categories_segments":[],"categories_sizes":[],"default_left":[0,0,0,0,0,0,0,0,0,0,0,0,0,0,0],"id":45,"left_children":[1,3,5,7,9,11,13,-1,-1,-1,-1,-1,-1,-1,-1],"loss_changes":[4.8263475E6,6.339595E5,5.02557E5,1.12278E5,1.6124844E5,2.1827738E5,2.9245375E4,0E0,0E0,0E0,0E0,0E0,0E0,0E0,0E0],"parents":[2147483647,0,0,1,1,2,2,3,3,4,4,5,5,6,6],"right_children":[2,4,6,8,10,12,14,-1,-1,-1,-1,-1,-1,-1,-1],"split_conditions":[7.6E3,5.79E3,9.665E3,5.399E3,7.275E3,8.405E3,1.0075E4,-1.8018522E1,-9.135459E0,-5.3310494E0,1.5967204E-1,2.1264894E0,8.268381E0,2.0762386E1,6.5669336E0],"split_indices":[0,0,6,6,0,6,2,0,0,0,0,0,0,0,0],"split_type":[0,0,0,0,0,0,0,0,0,0,0,0,0,0,0],"sum_hessian":[2.14E2,1.22E2,9.2E1,3E1,9.2E1,8.2E1,1E1,9E0,2.1E1,7.6E1,1.6E1,2.1E1,6.1E1,7E0,3E0],"tree_param":{"num_deleted":"0","num_feature":"7","num_nodes":"15","size_leaf_vector":"1"}},{"base_weights":[5.989209E0,-1.22882675E2,1.6297609E2,-3.53247E2,-1.01637596E2,1.3573065E2,3.5150644E2,-2.1665737E1,-4.992671E0,-7.1479506E0,-2.5475225E0,2.5231054E0,7.7176433E0,1.9894922E1,6.369912E0],"categories":[],"categories_nodes":[],"categories_segments":[],"categories_sizes":[],"default_left":[0,0,0,0,0,0,0,0,0,0,0,0,0,0,0],"id":46,"left_children":[1,3,5,7,9,11,13,-1,-1,-1,-1,-1,-1,-1,-1],"loss_changes":[4.71346E6,5.546394E5,4.439215E5,1.163505E5,2.3676812E5,1.352715E5,2.3378875E4,0E0,0E0,0E0,0E0,0E0,0E0,0E0,0E0],"parents":[2147483647,0,0,1,1,2,2,3,3,4,4,5,5,6,6],"right_children":[2,4,6,8,10,12,14,-1,-1,-1,-1,-1,-1,-1,-1],"split_conditions":[7.485E3,5.399E3,9.665E3,5.44E3,6.39E3,7.925E3,1.01E4,-2.1665737E1,-4.992671E0,-7.1479506E0,-2.5475225E0,2.5231054E0,7.7176433E0,1.9894922E1,6.369912E0],"split_indices":[6,6,6,0,0,3,3,0,0,0,0,0,0,0,0],"split_type":[0,0,0,0,0,0,0,0,0,0,0,0,0,0,0],"sum_hessian":[2.29E2,1.26E2,1.03E2,8E0,1.18E2,9.3E1,1E1,5E0,3E0,6.3E1,5.5E1,1.8E1,7.5E1,7E0,3E0],"tree_param":{"num_deleted":"0","num_feature":"7","num_nodes":"15","size_leaf_vector":"1"}},{"base_weights":[-1.5126598E0,-1.3679048E2,1.2667182E2,-2.8194913E2,-1.05416176E2,5.5977505E1,2.2154411E2,-3.8874218E0,-1.5621141E1,-7.0413003E0,-2.384253E0,6.765525E-1,4.647798E0,8.700026E0,1.7491354E1],"categories":[],"categories_nodes":[],"categories_segments":[],"categories_sizes":[],"default_left":[0,0,0,0,0,0,0,0,0,0,0,0,0,0,0],"id":47,"left_children":[1,3,5,7,9,11,13,-1,-1,-1,-1,-1,-1,-1,-1],"loss_changes":[3.849569E6,4.3241512E5,7.3978725E5,6.342875E4,1.7464031E5,1.042175E5,1.710135E5,0E0,0E0,0E0,0E0,0E0,0E0,0E0,0E0],"parents":[2147483647,0,0,1,1,2,2,3,3,4,4,5,5,6,6],"right_children":[2,4,6,8,10,12,14,-1,-1,-1,-1,-1,-1,-1,-1],"split_conditions":[6.8783335E3,5.5333335E3,8.883333E3,4.92E3,6.39E3,7.9E3,9.641667E3,-3.8874218E0,-1.5621141E1,-7.0413003E0,-2.384253E0,6.765525E-1,4.647798E0,8.700026E0,1.7491354E1],"split_indices":[5,5,5,1,5,5,5,0,0,0,0,0,0,0,0],"split_type":[0,0,0,0,0,0,0,0,0,0,0,0,0,0,0],"sum_hessian":[2.18E2,1.06E2,1.12E2,1.6E1,9E1,6.6E1,4.6E1,3E0,1.3E1,5.4E1,3.6E1,3.2E1,3.4E1,3.7E1,9E0],"tree_param":{"num_deleted":"0","num_feature":"7","num_nodes":"15","size_leaf_vector":"1"}},{"base_weights":[8.310214E0,-1.266918E2,1.2629848E2,-2.241678E2,-8.893597E1,9.970729E1,1.7450066E1,-1.907568E1,-8.738261E0,-3.2977226E0,-6.3042064E0,1.4858329E0,6.9426446E0],"categories":[],"categories_nodes":[],"categories_segments":[],"categories_sizes":[],"default_left":[0,0,0,0,0,0,0,0,0,0,0,0,0],"id":48,"left_children":[1,3,5,7,9,11,-1,-1,-1,-1,-1,-1,-1],"loss_changes":[3.5840918E6,3.46557E5,6.410359E5,8.4301375E4,5.0812375E4,2.9312825E5,0E0,0E0,0E0,0E0,0E0,0E0,0E0],"parents":[2147483647,0,0,1,1,2,2,3,3,4,4,5,5],"right_children":[2,4,6,8,10,12,-1,-1,-1,-1,-1,-1,-1],"split_conditions":[7.1583335E3,5.725E3,9.65E3,5.1116665E3,6.4E3,8.0416665E3,1.7450066E1,-1.907568E1,-8.738261E0,-3.2977226E0,-6.3042064E0,1.4858329E0,6.9426446E0],"split_indices":[5,0,5,5,3,5,0,0,0,0,0,0,0],"split_type":[0,0,0,0,0,0,0,0,0,0,0,0,0],"sum_hessian":[2.21E2,1.03E2,1.18E2,2.6E1,7.7E1,1.08E2,1E1,3E0,2.3E1,5.1E1,2.6E1,4E1,6.8E1],"tree_param":{"num_deleted":"0","num_feature":"7","num_nodes":"13","size_leaf_vector":"1"}},{"base_weights":[5.1534224E0,-9.032142E1,1.5297371E2,-2.1098653E2,-6.322591E1,1.2250572E2,3.030468E2,-1.7756836E-1,-1.1947515E1,-4.531017E0,-3.6786693E-1,2.882396E0,6.795264E0,1.7722439E1,3.4371877E0],"categories":[],"categories_nodes":[],"categories_segments":[],"categories_sizes":[],"default_left":[0,0,0,0,0,0,0,0,0,0,0,0,0,0,0],"id":49,"left_children":[1,3,5,7,9,11,13,-1,-1,-1,-1,-1,-1,-1,-1],"loss_changes":[3.273651E6,4.3431738E5,3.418405E5,1.433195E5,1.792641E5,5.2986875E4,1.19878625E5,0E0,0E0,0E0,0E0,0E0,0E0,0E0,0E0],"parents":[2147483647,0,0,1,1,2,2,3,3,4,4,5,5,6,6],"right_children":[2,4,6,8,10,12,14,-1,-1,-1,-1,-1,-1,-1,-1],"split_conditions":[7.8583335E3,5.63E3,9.575E3,4.92E3,6.7583335E3,8.35E3,1.0075E4,-1.7756836E-1,-1.1947515E1,-4.531017E0,-3.6786693E-1,2.882396E0,6.795264E0,1.7722439E1,3.4371877E0],"split_indices":[5,5,5,2,5,5,4,0,0,0,0,0,0,0,0],"split_type":[0,0,0,0,0,0,0,0,0,0,0,0,0,0,0],"sum_hessian":[2.28E2,1.39E2,8.9E1,2.3E1,1.16E2,7.7E1,1.2E1,3E0,2E1,7.7E1,3.9E1,1.5E1,6.2E1,9E0,3E0],"tree_param":{"num_deleted":"0","num_feature":"7","num_nodes":"15","size_leaf_vector":"1"}},{"base_weights":[-3.9605768E0,-1.2755653E2,1.0895679E2,-1.8045382E1,-1.1116822E2,7.168349E1,2.3103204E2,-6.8510895E0,-3.152046E0,2.1782814E-1,4.716385E0,1.2987353E1,2.4366455E0],"categories":[],"categories_nodes":[],"categories_segments":[],"categories_sizes":[],"default_left":[0,0,0,0,0,0,0,0,0,0,0,0,0],"id":50,"left_children":[1,3,5,-1,7,9,11,-1,-1,-1,-1,-1,-1],"loss_changes":[3.0702325E6,3.213015E5,4.901445E5,0E0,1.083945E5,1.3791347E5,1.10786375E5,0E0,0E0,0E0,0E0,0E0,0E0],"parents":[2147483647,0,0,1,1,2,2,4,4,5,5,6,6],"right_children":[2,4,6,-1,8,10,12,-1,-1,-1,-1,-1,-1],"split_conditions":[6.7783335E3,5.2266665E3,9.208333E3,-1.8045382E1,6.2866665E3,7.5166665E3,9.85E3,-6.8510895E0,-3.152046E0,2.1782814E-1,4.716385E0,1.2987353E1,2.4366455E0],"split_indices":[5,5,5,0,5,5,4,0,0,0,0,0,0],"split_type":[0,0,0,0,0,0,0,0,0,0,0,0,0],"sum_hessian":[2.16E2,1.03E2,1.13E2,4E0,9.9E1,8.9E1,2.4E1,6.2E1,3.7E1,2.3E1,6.6E1,2E1,4E0],"tree_param":{"num_deleted":"0","num_feature":"7","num_nodes":"13","size_leaf_vector":"1"}},{"base_weights":[1.0601898E0,-1.14050385E2,1.1515136E2,-2.4091263E2,-8.52447E1,8.911521E1,1.725543E1,-1.5645246E1,-7.7004166E0,-4.631558E0,-9.050496E-1,1.681514E0,6.0861673E0],"categories":[],"categories_nodes":[],"categories_segments":[],"categories_sizes":[],"default_left":[0,0,0,0,0,0,0,0,0,0,0,0,0],"id":51,"left_children":[1,3,5,7,9,11,-1,-1,-1,-1,-1,-1,-1],"loss_changes":[3.0074798E6,3.7552312E5,6.27019E5,2.8748875E4,4.4258125E4,1.8359438E5,0E0,0E0,0E0,0E0,0E0,0E0,0E0],"parents":[2147483647,0,0,1,1,2,2,3,3,4,4,5,5],"right_children":[2,4,6,8,10,12,-1,-1,-1,-1,-1,-1,-1],"split_conditions":[6.8783335E3,5.5333335E3,9.65E3,5.4633335E3,6.74E3,7.9666665E3,1.725543E1,-1.5645246E1,-7.7004166E0,-4.631558E0,-9.050496E-1,1.681514E0,6.0861673E0],"split_indices":[5,5,5,5,5,5,0,0,0,0,0,0,0],"split_type":[0,0,0,0,0,0,0,0,0,0,0,0,0],"sum_hessian":[2.25E2,1.12E2,1.13E2,1.8E1,9.4E1,1.04E2,9E0,7E0,1.1E1,8.4E1,1E1,4E1,6.4E1],"tree_param":{"num_deleted":"0","num_feature":"7","num_nodes":"13","size_leaf_vector":"1"}},{"base_weights":[7.4126663E0,-1.0018659E2,1.0833349E2,-2.1745583E2,-8.5132706E1,8.34268E1,2.632545E2,-1.2650156E1,-3.6798928E0,-4.712915E0,-8.130912E-1,1.7152464E0,5.7659197E0,1.4617952E1,4.405088E0],"categories":[],"categories_nodes":[],"categories_segments":[],"categories_sizes":[],"default_left":[0,0,0,0,0,0,0,0,0,0,0,0,0,0,0],"id":52,"left_children":[1,3,5,7,9,11,13,-1,-1,-1,-1,-1,-1,-1,-1],"loss_changes":[2.4215472E6,1.5363338E5,3.9981038E5,1.9010406E4,5.9154688E4,1.5187875E5,2.4951438E4,0E0,0E0,0E0,0E0,0E0,0E0,0E0,0E0],"parents":[2147483647,0,0,1,1,2,2,3,3,4,4,5,5,6,6],"right_children":[2,4,6,8,10,12,14,-1,-1,-1,-1,-1,-1,-1,-1],"split_conditions":[6.8783335E3,5.399E3,9.516667E3,5.44E3,6.6833335E3,8.35E3,1.01E4,-1.2650156E1,-3.6798928E0,-4.712915E0,-8.130912E-1,1.7152464E0,5.7659197E0,1.4617952E1,4.405088E0],"split_indices":[5,6,5,0,5,5,3,0,0,0,0,0,0,0,0],"split_type":[0,0,0,0,0,0,0,0,0,0,0,0,0,0,0],"sum_hessian":[2.19E2,1.06E2,1.13E2,9E0,9.7E1,1E2,1.3E1,6E0,3E0,8.5E1,1.2E1,4.1E1,5.9E1,1E1,3E0],"tree_param":{"num_deleted":"0","num_feature":"7","num_nodes":"15","size_leaf_vector":"1"}},{"base_weights":[4.2733806E-1,-9.405512E1,1.1435369E2,-2.039768E2,-6.87504E1,6.683039E1,1.7645169E2,-1.6754751E1,-7.400039E0,1.3105025E0,-3.9200006E0,3.5974445E0,-9.638184E-1,6.878115E0,1.3228658E1],"categories":[],"categories_nodes":[],"categories_segments":[],"categories_sizes":[],"default_left":[0,0,0,0,0,0,0,0,0,0,0,0,0,0,0],"id":53,"left_children":[1,3,5,7,9,11,13,-1,-1,-1,-1,-1,-1,-1,-1],"loss_changes":[2.4218928E6,3.1408212E5,2.7742775E5,6.2279938E4,9.849194E4,2.9658812E4,7.4569875E4,0E0,0E0,0E0,0E0,0E0,0E0,0E0,0E0],"parents":[2147483647,0,0,1,1,2,2,3,3,4,4,5,5,6,6],"right_children":[2,4,6,8,10,12,14,-1,-1,-1,-1,-1,-1,-1,-1],"split_conditions":[7.485E3,5.63E3,9E3,5.142E3,5.8E3,9.05E3,9.665E3,-1.6754751E1,-7.400039E0,1.3105025E0,-3.9200006E0,3.5974445E0,-9.638184E-1,6.878115E0,1.3228658E1],"split_indices":[6,3,6,6,2,1,6,0,0,0,0,0,0,0,0],"split_type":[0,0,0,0,0,0,0,0,0,0,0,0,0,0,0],"sum_hessian":[2.21E2,1.21E2,1E2,2E1,1.01E2,5.9E1,4.1E1,3E0,1.7E1,9E0,9.2E1,5.6E1,3E0,3.2E1,9E0],"tree_param":{"num_deleted":"0","num_feature":"7","num_nodes":"15","size_leaf_vector":"1"}},{"base_weights":[-5.803853E0,-8.2495125E1,1.0725371E2,-1.5473357E2,-4.1217445E1,8.276001E1,1.4455034E1,-6.129506E0,-1.6943718E1,-3.0900435E0,-2.4453914E-1,4.365399E0,9.1478884E-1],"categories":[],"categories_nodes":[],"categories_segments":[],"categories_sizes":[],"default_left":[0,0,0,0,0,0,0,0,0,0,0,0,0],"id":54,"left_children":[1,3,5,7,9,11,-1,-1,-1,-1,-1,-1,-1],"loss_changes":[1.9512235E6,3.8681038E5,3.574717E5,2.0102288E5,6.519547E4,2.1139312E4,0E0,0E0,0E0,0E0,0E0,0E0,0E0],"parents":[2147483647,0,0,1,1,2,2,3,3,4,4,5,5],"right_children":[2,4,6,8,10,12,-1,-1,-1,-1,-1,-1,-1],"split_conditions":[7.8083335E3,6.0516665E3,9.65E3,6.225E3,6.7783335E3,9.53E3,1.4455034E1,-6.129506E0,-1.6943718E1,-3.0900435E0,-2.4453914E-1,4.365399E0,9.1478884E-1],"split_indices":[5,5,5,2,5,6,0,0,0,0,0,0,0],"split_type":[0,0,0,0,0,0,0,0,0,0,0,0,0],"sum_hessian":[2.21E2,1.32E2,8.9E1,4.6E1,8.6E1,8.1E1,8E0,4.2E1,4E0,5.4E1,3.2E1,7.5E1,6E0],"tree_param":{"num_deleted":"0","num_feature":"7","num_nodes":"13","size_leaf_vector":"1"}},{"base_weights":[2.8170323E0,-6.9270905E1,1.1554717E2,-1.1091814E2,-1.800011E1,9.6768364E1,1.1851729E1,-4.0869975E0,-1.064209E1,-4.9914098E-1,-5.270205E0,5.157323E0,-6.5439457E-1],"categories":[],"categories_nodes":[],"categories_segments":[],"categories_sizes":[],"default_left":[0,0,0,0,0,0,0,0,0,0,0,0,0],"id":55,"left_children":[1,3,5,7,9,11,-1,-1,-1,-1,-1,-1,-1],"loss_changes":[1.7713286E6,2.8000006E5,1.48043E5,1.8230281E5,4.134162E4,5.6651812E4,0E0,0E0,0E0,0E0,0E0,0E0,0E0],"parents":[2147483647,0,0,1,1,2,2,3,3,4,4,5,5],"right_children":[2,4,6,8,10,12,-1,-1,-1,-1,-1,-1,-1],"split_conditions":[7.81E3,6.39E3,9.665E3,6.33E3,7.725E3,9.625E3,1.1851729E1,-4.0869975E0,-1.064209E1,-4.9914098E-1,-5.270205E0,5.157323E0,-6.5439457E-1],"split_indices":[6,0,6,3,4,3,0,0,0,0,0,0,0],"split_type":[0,0,0,0,0,0,0,0,0,0,0,0,0],"sum_hessian":[2.14E2,1.31E2,8.3E1,7.1E1,6E1,7.5E1,8E0,5.8E1,1.3E1,5.7E1,3E0,7.1E1,4E0],"tree_param":{"num_deleted":"0","num_feature":"7","num_nodes":"13","size_leaf_vector":"1"}},{"base_weights":[1.2293955E1,-6.0242317E1,1.1039386E2,-1.5054606E1,-4.650913E1,8.236539E1,2.2447455E2,-4.2965655E0,2.3796929E-2,2.8817158E0,5.296144E0,1.2574482E1,3.2222755E0],"categories":[],"categories_nodes":[],"categories_segments":[],"categories_sizes":[],"default_left":[0,0,0,0,0,0,0,0,0,0,0,0,0],"id":56,"left_children":[1,3,5,-1,7,9,11,-1,-1,-1,-1,-1,-1],"loss_changes":[1.4578084E6,3.62294E5,2.4120538E5,0E0,2.1123872E5,3.0320344E4,3.6756375E4,0E0,0E0,0E0,0E0,0E0,0E0],"parents":[2147483647,0,0,1,1,2,2,4,4,5,5,6,6],"right_children":[2,4,6,-1,8,10,12,-1,-1,-1,-1,-1,-1],"split_conditions":[7.8083335E3,5.1716665E3,9.575E3,-1.5054606E1,6.3566665E3,8.933333E3,1.01E4,-4.2965655E0,2.3796929E-2,2.8817158E0,5.296144E0,1.2574482E1,3.2222755E0],"split_indices":[5,5,5,0,5,5,3,0,0,0,0,0,0],"split_type":[0,0,0,0,0,0,0,0,0,0,0,0,0],"sum_hessian":[2.01E2,1.16E2,8.5E1,4E0,1.12E2,7.1E1,1.4E1,6E1,5.2E1,3.8E1,3.3E1,1.1E1,3E0],"tree_param":{"num_deleted":"0","num_feature":"7","num_nodes":"13","size_leaf_vector":"1"}},{"base_weights":[-1.1147915E0,-6.91975E1,9.773892E1,-1.4456548E2,-4.677288E1,5.7640434E1,1.8225694E2,-1.0463878E1,-5.1004295E0,-3.263125E0,-4.882382E-1,1.5479492E0,4.0465636E0,1.0013166E1,2.3239014E0],"categories":[],"categories_nodes":[],"categories_segments":[],"categories_sizes":[],"default_left":[0,0,0,0,0,0,0,0,0,0,0,0,0,0,0],"id":57,"left_children":[1,3,5,7,9,11,13,-1,-1,-1,-1,-1,-1,-1,-1],"loss_changes":[1.5345584E6,2.1463975E5,2.941703E5,3.9922125E4,7.1941875E4,3.6003484E4,5.2286062E4,0E0,0E0,0E0,0E0,0E0,0E0,0E0,0E0],"parents":[2147483647,0,0,1,1,2,2,3,3,4,4,5,5,6,6],"right_children":[2,4,6,8,10,12,14,-1,-1,-1,-1,-1,-1,-1,-1],"split_conditions":[7.65E3,5.725E3,9.15E3,5.399E3,6.721E3,8.65E3,9.85E3,-1.0463878E1,-5.1004295E0,-3.263125E0,-4.882382E-1,1.5479492E0,4.0465636E0,1.0013166E1,2.3239014E0],"split_indices":[0,0,0,6,6,0,4,0,0,0,0,0,0,0,0],"split_type":[0,0,0,0,0,0,0,0,0,0,0,0,0,0,0],"sum_hessian":[2.24E2,1.33E2,9.1E1,2.8E1,1.05E2,6.4E1,2.7E1,8E0,2E1,6.9E1,3.6E1,3.2E1,3.2E1,2.3E1,4E0],"tree_param":{"num_deleted":"0","num_feature":"7","num_nodes":"15","size_leaf_vector":"1"}},{"base_weights":[-8.494862E-1,-7.447479E1,9.1199844E1,-1.080182E2,-2.7994703E1,5.3650066E1,1.3692337E2,-3.9779758E0,-1.52562895E1,1.5005635E-1,-2.6926699E0,3.05357E0,6.6140406E-2,5.3506556E0,1.0087949E1],"categories":[],"categories_nodes":[],"categories_segments":[],"categories_sizes":[],"default_left":[0,0,0,0,0,0,0,0,0,0,0,0,0,0,0],"id":58,"left_children":[1,3,5,7,9,11,13,-1,-1,-1,-1,-1,-1,-1,-1],"loss_changes":[1.4638964E6,1.8104425E5,1.5013125E5,3.384988E5,4.280337E4,2.1585344E4,3.826675E4,0E0,0E0,0E0,0E0,0E0,0E0,0E0,0E0],"parents":[2147483647,0,0,1,1,2,2,3,3,4,4,5,5,6,6],"right_children":[2,4,6,8,10,12,14,-1,-1,-1,-1,-1,-1,-1,-1],"split_conditions":[7.45E3,6.307E3,9E3,6.33E3,6.615E3,8.9E3,9.665E3,-3.9779758E0,-1.52562895E1,1.5005635E-1,-2.6926699E0,3.05357E0,6.6140406E-2,5.3506556E0,1.0087949E1],"split_indices":[6,6,6,3,3,4,6,0,0,0,0,0,0,0,0],"split_type":[0,0,0,0,0,0,0,0,0,0,0,0,0,0,0],"sum_hessian":[2.12E2,1.18E2,9.4E1,6.7E1,5.1E1,5.4E1,4E1,6.1E1,6E0,2.4E1,2.7E1,4.7E1,7E0,3.1E1,9E0],"tree_param":{"num_deleted":"0","num_feature":"7","num_nodes":"15","size_leaf_vector":"1"}},{"base_weights":[-4.188054E0,-7.30954E1,7.638946E1,-1.3977282E1,-5.983421E1,5.5812805E1,1.0829394E1,-4.960738E0,-1.6780075E0,1.0537627E0,3.626149E0],"categories":[],"categories_nodes":[],"categories_segments":[],"categories_sizes":[],"default_left":[0,0,0,0,0,0,0,0,0,0,0],"id":59,"left_children":[1,3,5,-1,7,9,-1,-1,-1,-1,-1],"loss_changes":[1.2882154E6,3.087692E5,2.8449838E5,0E0,1.1750309E5,5.266828E4,0E0,0E0,0E0,0E0,0E0],"parents":[2147483647,0,0,1,1,2,2,4,4,5,5],"right_children":[2,4,6,-1,8,10,-1,-1,-1,-1,-1],"split_conditions":[7.4166665E3,5.2266665E3,9.575E3,-1.3977282E1,6.11E3,8.35E3,1.0829394E1,-4.960738E0,-1.6780075E0,1.0537627E0,3.626149E0],"split_indices":[5,5,5,0,5,5,0,0,0,0,0],"split_type":[0,0,0,0,0,0,0,0,0,0,0],"sum_hessian":[2.28E2,1.23E2,1.05E2,5E0,1.18E2,9.4E1,1.1E1,4.5E1,7.3E1,3.2E1,6.2E1],"tree_param":{"num_deleted":"0","num_feature":"7","num_nodes":"11","size_leaf_vector":"1"}},{"base_weights":[1.4209744E0,-8.0215744E1,7.419003E1,-1.3478101E1,-6.564854E1,2.851285E1,1.3921155E2,-2.4167287E0,-7.9812455E0,7.2830567E0,9.665231E-1,5.4720206E0,1.4328488E1],"categories":[],"categories_nodes":[],"categories_segments":[],"categories_sizes":[],"default_left":[0,0,0,0,0,0,0,0,0,0,0,0,0],"id":60,"left_children":[1,3,5,-1,7,9,11,-1,-1,-1,-1,-1,-1],"loss_changes":[1.3485435E6,2.5973969E5,3.4846144E5,0E0,1.5053369E5,7.289477E4,1.522395E5,0E0,0E0,0E0,0E0,0E0,0E0],"parents":[2147483647,0,0,1,1,2,2,4,4,5,5,6,6],"right_children":[2,4,6,-1,8,10,12,-1,-1,-1,-1,-1,-1],"split_conditions":[6.8483335E3,5.2266665E3,8.883333E3,-1.3478101E1,6.66E3,6.765E3,9.866667E3,-2.4167287E0,-7.9812455E0,7.2830567E0,9.665231E-1,5.4720206E0,1.4328488E1],"split_indices":[5,5,5,0,4,1,5,0,0,0,0,0,0],"split_type":[0,0,0,0,0,0,0,0,0,0,0,0,0],"sum_hessian":[2.23E2,1.05E2,1.18E2,5E0,1E2,7.1E1,4.7E1,8.7E1,1.3E1,3E0,6.8E1,4.2E1,5E0],"tree_param":{"num_deleted":"0","num_feature":"7","num_nodes":"13","size_leaf_vector":"1"}},{"base_weights":[-8.270348E0,-6.805621E1,5.009972E1,-1.4237065E1,-5.6867794E1,2.1231256E1,8.082054E1,-2.0788343E0,-5.8492575E0,4.639012E0,1.0803415E-1,3.276163E0,6.2357626E0],"categories":[],"categories_nodes":[],"categories_segments":[],"categories_sizes":[],"default_left":[0,0,0,0,0,0,0,0,0,0,0,0,0],"id":61,"left_children":[1,3,5,-1,7,9,11,-1,-1,-1,-1,-1,-1],"loss_changes":[7.920028E5,2.3914353E5,9.855741E4,0E0,9.047178E4,8.419683E4,2.0587344E4,0E0,0E0,0E0,0E0,0E0,0E0],"parents":[2147483647,0,0,1,1,2,2,4,4,5,5,6,6],"right_children":[2,4,6,-1,8,10,12,-1,-1,-1,-1,-1,-1],"split_conditions":[6.961E3,5.142E3,8.74E3,-1.4237065E1,6.68E3,7.375E3,9.625E3,-2.0788343E0,-5.8492575E0,4.639012E0,1.0803415E-1,3.276163E0,6.2357626E0],"split_indices":[6,6,6,0,4,1,2,0,0,0,0,0,0],"split_type":[0,0,0,0,0,0,0,0,0,0,0,0,0],"sum_hessian":[2.23E2,1.1E2,1.13E2,3E0,1.07E2,6E1,5.3E1,8.8E1,1.9E1,1.1E1,4.9E1,4.3E1,1E1],"tree_param":{"num_deleted":"0","num_feature":"7","num_nodes":"13","size_leaf_vector":"1"}},{"base_weights":[-6.6052613E0,-5.20134E1,9.457419E1,-1.1217271E2,-1.6463516E1,6.1597313E1,1.1772599E1,-4.1599517E0,-1.3079666E1,-1.8089182E0,1.5606396E-1,3.482884E0,-7.939453E-1],"categories":[],"categories_nodes":[],"categories_segments":[],"categories_sizes":[],"default_left":[0,0,0,0,0,0,0,0,0,0,0,0,0],"id":62,"left_children":[1,3,5,7,9,11,-1,-1,-1,-1,-1,-1,-1],"loss_changes":[9.9303356E5,3.149663E5,2.822562E5,1.9458094E5,3.729253E4,3.780792E4,0E0,0E0,0E0,0E0,0E0,0E0,0E0],"parents":[2147483647,0,0,1,1,2,2,3,3,4,4,5,5],"right_children":[2,4,6,8,10,12,-1,-1,-1,-1,-1,-1,-1],"split_conditions":[8.458333E3,6.18E3,9.65E3,6.3E3,6.8483335E3,9.625E3,1.1772599E1,-4.1599517E0,-1.3079666E1,-1.8089182E0,1.5606396E-1,3.482884E0,-7.939453E-1],"split_indices":[5,5,5,3,5,3,0,0,0,0,0,0,0],"split_type":[0,0,0,0,0,0,0,0,0,0,0,0,0],"sum_hessian":[2.12E2,1.47E2,6.5E1,5.3E1,9.4E1,5.5E1,1E1,4.7E1,6E0,4.6E1,4.8E1,5E1,5E0],"tree_param":{"num_deleted":"0","num_feature":"7","num_nodes":"13","size_leaf_vector":"1"}},{"base_weights":[3.061773E0,-5.207156E1,8.296811E1,-1.01794014E2,-2.5760847E1,6.196184E1,1.9947311E2,-3.788139E0,-1.3986938E1,-9.293563E-1,-5.94008E0,3.4097688E0,-1.8825114E0,1.2123657E1,1.6841894E0],"categories":[],"categories_nodes":[],"categories_segments":[],"categories_sizes":[],"default_left":[0,0,0,0,0,0,0,0,0,0,0,0,0,0,0],"id":63,"left_children":[1,3,5,7,9,11,13,-1,-1,-1,-1,-1,-1,-1,-1],"loss_changes":[9.822566E5,1.6744222E5,1.9798806E5,1.6605788E5,5.4986535E4,5.481E4,7.634147E4,0E0,0E0,0E0,0E0,0E0,0E0,0E0,0E0],"parents":[2147483647,0,0,1,1,2,2,3,3,4,4,5,5,6,6],"right_children":[2,4,6,8,10,12,14,-1,-1,-1,-1,-1,-1,-1,-1],"split_conditions":[7.79E3,6.07E3,9.665E3,6.12E3,7.725E3,9.625E3,1.01E4,-3.788139E0,-1.3986938E1,-9.293563E-1,-5.94008E0,3.4097688E0,-1.8825114E0,1.2123657E1,1.6841894E0],"split_indices":[6,0,6,1,4,1,3,0,0,0,0,0,0,0,0],"split_type":[0,0,0,0,0,0,0,0,0,0,0,0,0,0,0],"sum_hessian":[2.19E2,1.3E2,8.9E1,4.3E1,8.7E1,7.8E1,1.1E1,4E1,3E0,8.3E1,4E0,7.4E1,4E0,8E0,3E0],"tree_param":{"num_deleted":"0","num_feature":"7","num_nodes":"15","size_leaf_vector":"1"}},{"base_weights":[-3.171897E0,-6.838761E1,6.2682743E1,-1.3592369E2,-4.5079735E1,4.591322E1,1.650039E2,-5.078113E0,-1.2668067E1,-6.576312E-1,-3.4651349E0,4.6592942E-1,3.0776913E0,9.632056E0,1.6336523E0],"categories":[],"categories_nodes":[],"categories_segments":[],"categories_sizes":[],"default_left":[0,0,0,0,0,0,0,0,0,0,0,0,0,0,0],"id":64,"left_children":[1,3,5,7,9,11,13,-1,-1,-1,-1,-1,-1,-1,-1],"loss_changes":[9.6630444E5,1.6562106E5,1.7702653E5,6.1525156E4,6.546008E4,5.5516688E4,4.2270438E4,0E0,0E0,0E0,0E0,0E0,0E0,0E0,0E0],"parents":[2147483647,0,0,1,1,2,2,3,3,4,4,5,5,6,6],"right_children":[2,4,6,8,10,12,14,-1,-1,-1,-1,-1,-1,-1,-1],"split_conditions":[7.275E3,5.725E3,9.625E3,5.67E3,6.28E3,7.925E3,1.01E4,-5.078113E0,-1.2668067E1,-6.576312E-1,-3.4651349E0,4.6592942E-1,3.0776913E0,9.632056E0,1.6336523E0],"split_indices":[0,0,2,1,2,3,3,0,0,0,0,0,0,0,0],"split_type":[0,0,0,0,0,0,0,0,0,0,0,0,0,0,0],"sum_hessian":[2.21E2,1.11E2,1.1E2,2.6E1,8.5E1,9.7E1,1.3E1,2.3E1,3E0,3.8E1,4.7E1,3E1,6.7E1,1E1,3E0],"tree_param":{"num_deleted":"0","num_feature":"7","num_nodes":"15","size_leaf_vector":"1"}},{"base_weights":[6.9720325E0,-4.353572E1,9.303474E1,-2.0484059E2,-2.932637E1,7.629716E1,1.2528335E1,-1.2196735E1,-4.54753E0,-2.257139E0,3.1695092E-1,2.8530655E0,5.4819846E0],"categories":[],"categories_nodes":[],"categories_segments":[],"categories_sizes":[],"default_left":[0,0,0,0,0,0,0,0,0,0,0,0,0],"id":65,"left_children":[1,3,5,7,9,11,-1,-1,-1,-1,-1,-1,-1],"loss_changes":[9.6440406E5,3.088708E5,1.7797456E5,4.6046875E3,7.446921E4,3.687322E4,0E0,0E0,0E0,0E0,0E0,0E0,0E0],"parents":[2147483647,0,0,1,1,2,2,3,3,4,4,5,5],"right_children":[2,4,6,8,10,12,-1,-1,-1,-1,-1,-1,-1],"split_conditions":[7.875E3,5.399E3,9.933333E3,5.2266665E3,6.74E3,9.083333E3,1.2528335E1,-1.2196735E1,-4.54753E0,-2.257139E0,3.1695092E-1,2.8530655E0,5.4819846E0],"split_indices":[0,6,5,5,5,5,0,0,0,0,0,0,0],"split_type":[0,0,0,0,0,0,0,0,0,0,0,0,0],"sum_hessian":[2.18E2,1.38E2,8E1,9E0,1.29E2,7.5E1,5E0,5E0,4E0,8.9E1,4E1,5.1E1,2.4E1],"tree_param":{"num_deleted":"0","num_feature":"7","num_nodes":"13","size_leaf_vector":"1"}},{"base_weights":[-3.9998856E0,-4.843847E1,7.227578E1,-1.3053252E1,-4.021145E1,5.5644485E1,1.6278947E2,-3.4379709E0,-5.867502E-1,6.015447E0,2.373572E0,1.0102794E1,1.349707E0],"categories":[],"categories_nodes":[],"categories_segments":[],"categories_sizes":[],"default_left":[0,0,0,0,0,0,0,0,0,0,0,0,0],"id":66,"left_children":[1,3,5,-1,7,9,11,-1,-1,-1,-1,-1,-1],"loss_changes":[7.7304756E5,2.3090116E5,1.083335E5,0E0,1.1301141E5,2.7686938E4,5.3077688E4,0E0,0E0,0E0,0E0,0E0,0E0],"parents":[2147483647,0,0,1,1,2,2,4,4,5,5,6,6],"right_children":[2,4,6,-1,8,10,12,-1,-1,-1,-1,-1,-1],"split_conditions":[7.985E3,5.142E3,9.7E3,-1.3053252E1,6.39E3,8.3E3,9.85E3,-3.4379709E0,-5.867502E-1,6.015447E0,2.373572E0,1.0102794E1,1.349707E0],"split_indices":[6,6,4,0,6,1,3,0,0,0,0,0,0],"split_type":[0,0,0,0,0,0,0,0,0,0,0,0,0],"sum_hessian":[2.24E2,1.42E2,8.2E1,3E0,1.39E2,7.2E1,1E1,6.8E1,7.1E1,5E0,6.7E1,7E0,3E0],"tree_param":{"num_deleted":"0","num_feature":"7","num_nodes":"13","size_leaf_vector":"1"}},{"base_weights":[-4.2499595E0,-7.0473724E1,4.7665546E1,-1.3157251E1,-5.920532E1,3.862611E1,1.1004931E1,-2.1001728E0,-7.439426E0,6.583344E-1,3.1631713E0],"categories":[],"categories_nodes":[],"categories_segments":[],"categories_sizes":[],"default_left":[0,0,0,0,0,0,0,0,0,0,0],"id":67,"left_children":[1,3,5,-1,7,9,-1,-1,-1,-1,-1],"loss_changes":[7.9059156E5,1.8812172E5,1.8406894E5,0E0,1.3851853E5,7.6740516E4,0E0,0E0,0E0,0E0,0E0],"parents":[2147483647,0,0,1,1,2,2,4,4,5,5],"right_children":[2,4,6,-1,8,10,-1,-1,-1,-1,-1],"split_conditions":[6.7583335E3,5.2266665E3,9.866667E3,-1.3157251E1,6.495E3,8.65E3,1.1004931E1,-2.1001728E0,-7.439426E0,6.583344E-1,3.1631713E0],"split_indices":[5,5,5,0,2,0,0,0,0,0,0],"split_type":[0,0,0,0,0,0,0,0,0,0,0],"sum_hessian":[2.26E2,9.9E1,1.27E2,3E0,9.6E1,1.23E2,4E0,8.3E1,1.3E1,6.2E1,6.1E1],"tree_param":{"num_deleted":"0","num_feature":"7","num_nodes":"11","size_leaf_vector":"1"}},{"base_weights":[-4.602865E0,-3.8377785E1,7.649298E1,-1.2266939E1,-3.143053E1,5.0246357E1,1.01285065E2,-3.3581123E0,-7.22347E-1,4.183989E0,2.8288847E-1,5.722397E0,1.951416E-1],"categories":[],"categories_nodes":[],"categories_segments":[],"categories_sizes":[],"default_left":[0,0,0,0,0,0,0,0,0,0,0,0,0],"id":68,"left_children":[1,3,5,-1,7,9,11,-1,-1,-1,-1,-1,-1],"loss_changes":[6.331035E5,2.1894083E5,3.406978E4,0E0,9.5155875E4,5.4210836E4,4.1407062E4,0E0,0E0,0E0,0E0,0E0,0E0],"parents":[2147483647,0,0,1,1,2,2,4,4,5,5,6,6],"right_children":[2,4,6,-1,8,10,12,-1,-1,-1,-1,-1,-1],"split_conditions":[8.7E3,5.142E3,9.15E3,-1.2266939E1,6.125E3,8.975E3,9.85E3,-3.3581123E0,-7.22347E-1,4.183989E0,2.8288847E-1,5.722397E0,1.951416E-1],"split_indices":[0,6,0,0,0,1,3,0,0,0,0,0,0],"split_type":[0,0,0,0,0,0,0,0,0,0,0,0,0],"sum_hessian":[2.27E2,1.61E2,6.6E1,3E0,1.58E2,3.5E1,3.1E1,4.9E1,1.09E2,1.9E1,1.6E1,2.7E1,4E0],"tree_param":{"num_deleted":"0","num_feature":"7","num_nodes":"13","size_leaf_vector":"1"}},{"base_weights":[-7.49417E0,-6.1346035E1,5.9281216E1,-9.802012E0,-4.953241E1,5.178027E1,8.829326E0,-1.1738876E0,-4.0143E0,2.8055727E0,-9.0410155E-1],"categories":[],"categories_nodes":[],"categories_segments":[],"categories_sizes":[],"default_left":[0,0,0,0,0,0,0,0,0,0,0],"id":69,"left_children":[1,3,5,-1,7,9,-1,-1,-1,-1,-1],"loss_changes":[7.804089E5,1.715266E5,6.706297E4,0E0,8.6774125E4,3.047236E4,0E0,0E0,0E0,0E0,0E0],"parents":[2147483647,0,0,1,1,2,2,4,4,5,5],"right_children":[2,4,6,-1,8,10,-1,-1,-1,-1,-1],"split_conditions":[7.4166665E3,5.44E3,1.0075E4,-9.802012E0,6.33E3,9.75E3,8.829326E0,-1.1738876E0,-4.0143E0,2.8055727E0,-9.0410155E-1],"split_indices":[5,0,0,0,3,0,0,0,0,0,0],"split_type":[0,0,0,0,0,0,0,0,0,0,0],"sum_hessian":[2.13E2,1.18E2,9.5E1,7E0,1.11E2,9.2E1,3E0,6.2E1,4.9E1,8.7E1,5E0],"tree_param":{"num_deleted":"0","num_feature":"7","num_nodes":"11","size_leaf_vector":"1"}},{"base_weights":[9.6387415E0,-3.9211235E1,5.3771538E1,-2.702093E1,-1.1037565E2,3.957061E1,1.6238356E2,-2.1000633E0,1.6303223E0,-1.1737491E1,-2.0078573E0,2.2115061E0,-2.6803956E0,1.0043559E1,1.0227442E0],"categories":[],"categories_nodes":[],"categories_segments":[],"categories_sizes":[],"default_left":[0,0,0,0,0,0,0,0,0,0,0,0,0,0,0],"id":70,"left_children":[1,3,5,7,9,11,13,-1,-1,-1,-1,-1,-1,-1,-1],"loss_changes":[4.8497947E5,8.68593E4,1.69151E5,8.6703414E4,1.12146734E5,5.119797E4,6.2794844E4,0E0,0E0,0E0,0E0,0E0,0E0,0E0,0E0],"parents":[2147483647,0,0,1,1,2,2,3,3,4,4,5,5,6,6],"right_children":[2,4,6,8,10,12,14,-1,-1,-1,-1,-1,-1,-1,-1],"split_conditions":[6.916E3,6.68E3,9.665E3,6.432E3,6.725E3,9.625E3,1.01E4,-2.1000633E0,1.6303223E0,-1.1737491E1,-2.0078573E0,2.2115061E0,-2.6803956E0,1.0043559E1,1.0227442E0],"split_indices":[6,4,6,6,4,1,3,0,0,0,0,0,0,0,0],"split_type":[0,0,0,0,0,0,0,0,0,0,0,0,0,0,0],"sum_hessian":[2.21E2,1.05E2,1.16E2,9.2E1,1.3E1,1.05E2,1.1E1,7.4E1,1.8E1,3E0,1E1,1.01E2,4E0,8E0,3E0],"tree_param":{"num_deleted":"0","num_feature":"7","num_nodes":"15","size_leaf_vector":"1"}},{"base_weights":[-2.5356126E0,-6.167683E1,3.2290627E1,-3.7168865E1,-1.5506259E2,2.5109205E1,1.052001E1,-4.127339E0,3.0603027E-2,-1.1331595E1,-4.6717086E0,6.577342E-2,2.2615623E0],"categories":[],"categories_nodes":[],"categories_segments":[],"categories_sizes":[],"default_left":[0,0,0,0,0,0,0,0,0,0,0,0,0],"id":71,"left_children":[1,3,5,7,9,11,-1,-1,-1,-1,-1,-1,-1],"loss_changes":[4.4475178E5,1.7156862E5,1.6338888E5,1.1325273E5,2.8220938E4,6.3558555E4,0E0,0E0,0E0,0E0,0E0,0E0,0E0],"parents":[2147483647,0,0,1,1,2,2,3,3,4,4,5,5],"right_children":[2,4,6,8,10,12,-1,-1,-1,-1,-1,-1,-1],"split_conditions":[6.4716665E3,6.33E3,9.933333E3,5.67E3,5.96E3,7.9666665E3,1.052001E1,-4.127339E0,3.0603027E-2,-1.1331595E1,-4.6717086E0,6.577342E-2,2.2615623E0],"split_indices":[5,3,5,3,0,5,0,0,0,0,0,0,0],"split_type":[0,0,0,0,0,0,0,0,0,0,0,0,0],"sum_hessian":[2.12E2,7.8E1,1.34E2,6.4E1,1.4E1,1.31E2,3E0,2.8E1,3.6E1,4E0,1E1,6.1E1,7E1],"tree_param":{"num_deleted":"0","num_feature":"7","num_nodes":"13","size_leaf_vector":"1"}},{"base_weights":[-9.724603E0,-4.882817E1,4.3285877E1,-1.1429114E1,-3.6542656E1,1.7709671E1,6.661912E1,-2.8845875E0,-8.852974E-1,4.4059987E0,-1.6372904E-2,3.7794476E0,-2.217246E0],"categories":[],"categories_nodes":[],"categories_segments":[],"categories_sizes":[],"default_left":[0,0,0,0,0,0,0,0,0,0,0,0,0],"id":72,"left_children":[1,3,5,-1,7,9,11,-1,-1,-1,-1,-1,-1],"loss_changes":[4.7270228E5,2.7259066E5,5.5527625E4,0E0,4.7754453E4,6.2287703E4,5.647042E4,0E0,0E0,0E0,0E0,0E0,0E0],"parents":[2147483647,0,0,1,1,2,2,4,4,5,5,6,6],"right_children":[2,4,6,-1,8,10,12,-1,-1,-1,-1,-1,-1],"split_conditions":[7.65E3,5.399E3,8.835E3,-1.1429114E1,6.307E3,7.85E3,9.85E3,-2.8845875E0,-8.852974E-1,4.4059987E0,-1.6372904E-2,3.7794476E0,-2.217246E0],"split_indices":[0,6,6,0,6,1,4,0,0,0,0,0,0],"split_type":[0,0,0,0,0,0,0,0,0,0,0,0,0],"sum_hessian":[2.24E2,1.29E2,9.5E1,6E0,1.23E2,4.7E1,4.8E1,5.6E1,6.7E1,8E0,3.9E1,4.5E1,3E0],"tree_param":{"num_deleted":"0","num_feature":"7","num_nodes":"13","size_leaf_vector":"1"}},{"base_weights":[9.364775E-1,-4.433585E1,4.4224155E1,-2.722535E1,-1.2342031E2,2.6965431E1,8.774512E0,-7.413967E0,-6.171553E-1,-8.94181E0,-1.105287E0,6.1477337E0,1.0333384E0],"categories":[],"categories_nodes":[],"categories_segments":[],"categories_sizes":[],"default_left":[0,0,0,0,0,0,0,0,0,0,0,0,0],"id":73,"left_children":[1,3,5,7,9,11,-1,-1,-1,-1,-1,-1,-1],"loss_changes":[4.4094206E5,1.4212889E5,2.5106647E5,1.6388416E5,9.8767625E4,5.779664E4,0E0,0E0,0E0,0E0,0E0,0E0,0E0],"parents":[2147483647,0,0,1,1,2,2,3,3,4,4,5,5],"right_children":[2,4,6,8,10,12,-1,-1,-1,-1,-1,-1,-1],"split_conditions":[6.952E3,6.68E3,9.7E3,5.399E3,6.81E3,7.25E3,8.774512E0,-7.413967E0,-6.171553E-1,-8.94181E0,-1.105287E0,6.1477337E0,1.0333384E0],"split_indices":[6,4,4,6,2,3,0,0,0,0,0,0,0],"split_type":[0,0,0,0,0,0,0,0,0,0,0,0,0],"sum_hessian":[2.21E2,1.08E2,1.13E2,9.1E1,1.7E1,1.02E2,1.1E1,8E0,8.3E1,1E1,7E0,4E0,9.8E1],"tree_param":{"num_deleted":"0","num_feature":"7","num_nodes":"13","size_leaf_vector":"1"}},{"base_weights":[9.0529996E-1,-3.572113E1,5.3038475E1,-1.2324469E2,-2.2278522E1,4.310088E1,9.055518E0,-3.3484235E0,-1.1576011E1,-8.048852E-1,-6.5113807E0,2.4128587E0,-3.0898244E0],"categories":[],"categories_nodes":[],"categories_segments":[],"categories_sizes":[],"default_left":[0,0,0,0,0,0,0,0,0,0,0,0,0],"id":74,"left_children":[1,3,5,7,9,11,-1,-1,-1,-1,-1,-1,-1],"loss_changes":[4.2577812E5,1.4863597E5,1.014788E5,7.257764E4,7.320406E4,5.3561844E4,0E0,0E0,0E0,0E0,0E0,0E0,0E0],"parents":[2147483647,0,0,1,1,2,2,3,3,4,4,5,5],"right_children":[2,4,6,8,10,12,-1,-1,-1,-1,-1,-1,-1],"split_conditions":[7.9E3,5.585E3,9.825E3,5.55E3,7.875E3,9.75E3,9.055518E0,-3.3484235E0,-1.1576011E1,-8.048852E-1,-6.5113807E0,2.4128587E0,-3.0898244E0],"split_indices":[5,5,5,1,1,0,0,0,0,0,0,0,0],"split_type":[0,0,0,0,0,0,0,0,0,0,0,0,0],"sum_hessian":[2.19E2,1.29E2,9E1,1.5E1,1.14E2,8.6E1,4E0,1.2E1,3E0,1.1E2,4E0,8.3E1,3E0],"tree_param":{"num_deleted":"0","num_feature":"7","num_nodes":"13","size_leaf_vector":"1"}},{"base_weights":[7.1984153E0,-2.3885618E1,5.746366E1,-9.286513E0,-1.5511975E1,4.4897095E1,9.681975E0,4.8555665E0,-9.683859E-1,2.5121343E0,-2.1117027E0],"categories":[],"categories_nodes":[],"categories_segments":[],"categories_sizes":[],"default_left":[0,0,0,0,0,0,0,0,0,0,0],"id":75,"left_children":[1,3,5,-1,7,9,-1,-1,-1,-1,-1],"loss_changes":[3.683576E5,1.921014E5,1.3662597E5,0E0,6.4990418E4,4.383414E4,0E0,0E0,0E0,0E0,0E0],"parents":[2147483647,0,0,1,1,2,2,4,4,5,5],"right_children":[2,4,6,-1,8,10,-1,-1,-1,-1,-1],"split_conditions":[7.9E3,5.2266665E3,9.933333E3,-9.286513E0,5.245E3,9.75E3,9.681975E0,4.8555665E0,-9.683859E-1,2.5121343E0,-2.1117027E0],"split_indices":[5,5,5,0,0,0,0,0,0,0,0],"split_type":[0,0,0,0,0,0,0,0,0,0,0],"sum_hessian":[2.32E2,1.44E2,8.8E1,5E0,1.39E2,8.3E1,5E0,3E0,1.36E2,7.9E1,4E0],"tree_param":{"num_deleted":"0","num_feature":"7","num_nodes":"11","size_leaf_vector":"1"}},{"base_weights":[-1.8095769E0,-8.3493225E1,2.2016052E1,-5.924197E1,-1.2281515E1,1.7013021E1,9.265694E0,-9.94502E0,-1.8499653E0,2.4496976E-1,2.4510815E0],"categories":[],"categories_nodes":[],"categories_segments":[],"categories_sizes":[],"default_left":[0,0,0,0,0,0,0,0,0,0,0],"id":76,"left_children":[1,3,5,7,-1,9,-1,-1,-1,-1,-1],"loss_changes":[4.396172E5,1.714301E5,1.3666669E5,1.3128128E5,0E0,6.6210984E4,0E0,0E0,0E0,0E0,0E0],"parents":[2147483647,0,0,1,1,2,2,3,3,5,5],"right_children":[2,4,6,8,-1,10,-1,-1,-1,-1,-1],"split_conditions":[6.1533335E3,6.225E3,9.866667E3,5.2266665E3,-1.2281515E1,8.933333E3,9.265694E0,-9.94502E0,-1.8499653E0,2.4496976E-1,2.4510815E0],"split_indices":[5,2,5,5,0,5,0,0,0,0,0],"split_type":[0,0,0,0,0,0,0,0,0,0,0],"sum_hessian":[2.22E2,4.9E1,1.73E2,4.5E1,4E0,1.7E2,3E0,4E0,4.1E1,1.25E2,4.5E1],"tree_param":{"num_deleted":"0","num_feature":"7","num_nodes":"11","size_leaf_vector":"1"}},{"base_weights":[-5.8018184E0,-4.647123E1,2.8401588E1,-1.0175332E1,-3.7776978E1,1.8250738E1,6.4680085E0,-4.462355E-1,-4.468776E0,6.049463E0,6.6691464E-1],"categories":[],"categories_nodes":[],"categories_segments":[],"categories_sizes":[],"default_left":[0,0,0,0,0,0,0,0,0,0,0],"id":77,"left_children":[1,3,5,-1,7,9,-1,-1,-1,-1,-1],"loss_changes":[3.1701303E5,1.2661606E5,1.2235527E5,0E0,1.4876697E5,5.4812637E4,0E0,0E0,0E0,0E0,0E0],"parents":[2147483647,0,0,1,1,2,2,4,4,5,5],"right_children":[2,4,6,-1,8,10,-1,-1,-1,-1,-1],"split_conditions":[6.7583335E3,5.1116665E3,9.558333E3,-1.0175332E1,6.29E3,6.725E3,6.4680085E0,-4.462355E-1,-4.468776E0,6.049463E0,6.6691464E-1],"split_indices":[5,5,5,0,2,2,0,0,0,0,0],"split_type":[0,0,0,0,0,0,0,0,0,0,0],"sum_hessian":[2.24E2,1.02E2,1.22E2,3E0,9.9E1,1.13E2,9E0,6.5E1,3.4E1,3E0,1.1E2],"tree_param":{"num_deleted":"0","num_feature":"7","num_nodes":"11","size_leaf_vector":"1"}},{"base_weights":[-1.1816522E0,-5.332012E1,2.545901E1,-2.7907951E1,-1.5461227E2,1.6532827E1,1.18659996E2,-1.0552051E1,-5.4322106E-1,-1.2300045E1,-3.4428322E0,1.0983118E0,-3.1000707E0,2.5328684E0,7.6379886E0],"categories":[],"categories_nodes":[],"categories_segments":[],"categories_sizes":[],"default_left":[0,0,0,0,0,0,0,0,0,0,0,0,0,0,0],"id":78,"left_children":[1,3,5,7,9,11,13,-1,-1,-1,-1,-1,-1,-1,-1],"loss_changes":[2.9579466E5,1.76702E5,1.1337841E5,1.8268834E5,7.584166E4,5.8622684E4,1.23496875E4,0E0,0E0,0E0,0E0,0E0,0E0,0E0,0E0],"parents":[2147483647,0,0,1,1,2,2,3,3,4,4,5,5,6,6],"right_children":[2,4,6,8,10,12,14,-1,-1,-1,-1,-1,-1,-1,-1],"split_conditions":[6.39E3,6.33E3,9.575E3,5.2266665E3,6.0516665E3,9.275E3,9.75E3,-1.0552051E1,-5.4322106E-1,-1.2300045E1,-3.4428322E0,1.0983118E0,-3.1000707E0,2.5328684E0,7.6379886E0],"split_indices":[5,3,5,5,5,4,2,0,0,0,0,0,0,0,0],"split_type":[0,0,0,0,0,0,0,0,0,0,0,0,0,0,0],"sum_hessian":[2.09E2,7E1,1.39E2,5.8E1,1.2E1,1.29E2,1E1,3E0,5.5E1,4E0,8E0,1.22E2,7E0,5E0,5E0],"tree_param":{"num_deleted":"0","num_feature":"7","num_nodes":"15","size_leaf_vector":"1"}},{"base_weights":[2.9587877E0,-2.099163E1,7.146223E1,-9.553506E0,-1.5615872E1,5.2005585E1,1.4690839E2,-6.12853E0,-6.0717237E-1,3.0637634E0,-1.8198569E0,8.335187E0,2.8236232E0],"categories":[],"categories_nodes":[],"categories_segments":[],"categories_sizes":[],"default_left":[0,0,0,0,0,0,0,0,0,0,0,0,0],"id":79,"left_children":[1,3,5,-1,7,9,11,-1,-1,-1,-1,-1,-1],"loss_changes":[3.7379525E5,1.4854938E5,7.132769E4,0E0,5.8674273E4,4.5433734E4,8.6396875E2,0E0,0E0,0E0,0E0,0E0,0E0],"parents":[2147483647,0,0,1,1,2,2,4,4,5,5,6,6],"right_children":[2,4,6,-1,8,10,12,-1,-1,-1,-1,-1,-1],"split_conditions":[8.7E3,5.142E3,9.7E3,-9.553506E0,4.92E3,9.7E3,9.85E3,-6.12853E0,-6.0717237E-1,3.0637634E0,-1.8198569E0,8.335187E0,2.8236232E0],"split_indices":[1,6,4,0,4,1,4,0,0,0,0,0,0],"split_type":[0,0,0,0,0,0,0,0,0,0,0,0,0],"sum_hessian":[2.24E2,1.67E2,5.7E1,3E0,1.64E2,4.8E1,9E0,3E0,1.61E2,4.4E1,4E0,6E0,3E0],"tree_param":{"num_deleted":"0","num_feature":"7","num_nodes":"13","size_leaf_vector":"1"}},{"base_weights":[1.0919553E0,-1.9927029E1,3.1911291E1,-1.2106874E1,-9.1453575E1,2.3981731E1,8.014648E0,-2.183293E0,4.8380437E-1,-2.2800844E0,-5.8863072E0,1.4198374E0,-1.0786622E0],"categories":[],"categories_nodes":[],"categories_segments":[],"categories_sizes":[],"default_left":[0,0,0,0,0,0,0,0,0,0,0,0,0],"id":80,"left_children":[1,3,5,7,9,11,-1,-1,-1,-1,-1,-1,-1],"loss_changes":[1.4702481E5,7.329764E4,8.596874E4,8.608861E4,4.9233906E3,1.9125422E4,0E0,0E0,0E0,0E0,0E0,0E0,0E0],"parents":[2147483647,0,0,1,1,2,2,3,3,4,4,5,5],"right_children":[2,4,6,8,10,12,-1,-1,-1,-1,-1,-1,-1],"split_conditions":[7.81E3,7.5E3,1.01E4,6.11E3,7.425E3,9.75E3,8.014648E0,-2.183293E0,4.8380437E-1,-2.2800844E0,-5.8863072E0,1.4198374E0,-1.0786622E0],"split_indices":[6,1,0,0,3,3,0,0,0,0,0,0,0],"split_type":[0,0,0,0,0,0,0,0,0,0,0,0,0],"sum_hessian":[2.23E2,1.33E2,9E1,1.22E2,1.1E1,8.7E1,3E0,4.9E1,7.3E1,6E0,5E0,8E1,7E0],"tree_param":{"num_deleted":"0","num_feature":"7","num_nodes":"13","size_leaf_vector":"1"}},{"base_weights":[1.4655882E-1,-1.8257902E1,6.624639E1,-6.9641365E1,-8.01202E0,4.8100185E1,8.0690365E0,-2.5425453E0,-6.9747605E0,-7.205344E-2,-3.326019E0,3.1020136E0,-1.507013E0],"categories":[],"categories_nodes":[],"categories_segments":[],"categories_sizes":[],"default_left":[0,0,0,0,0,0,0,0,0,0,0,0,0],"id":81,"left_children":[1,3,5,7,9,11,-1,-1,-1,-1,-1,-1,-1],"loss_changes":[2.737056E5,9.154258E4,6.906516E4,2.3878078E4,5.7092156E4,5.172967E4,0E0,0E0,0E0,0E0,0E0,0E0,0E0],"parents":[2147483647,0,0,1,1,2,2,3,3,4,4,5,5],"right_children":[2,4,6,8,10,12,-1,-1,-1,-1,-1,-1,-1],"split_conditions":[8.933333E3,5.6966665E3,9.933333E3,5.76E3,8.55E3,9.75E3,8.0690365E0,-2.5425453E0,-6.9747605E0,-7.205344E-2,-3.326019E0,3.1020136E0,-1.507013E0],"split_indices":[5,5,5,2,3,3,0,0,0,0,0,0,0],"split_type":[0,0,0,0,0,0,0,0,0,0,0,0,0],"sum_hessian":[2.21E2,1.74E2,4.7E1,2.7E1,1.47E2,4.2E1,5E0,2.4E1,3E0,1.34E2,1.3E1,3.6E1,6E0],"tree_param":{"num_deleted":"0","num_feature":"7","num_nodes":"13","size_leaf_vector":"1"}},{"base_weights":[-9.952386E0,-7.8380424E1,6.413971E0,-5.1854076E1,-1.2961954E1,-1.0417014E1,4.8568417E1,-9.125127E0,-1.5697979E0,9.284261E-1,-1.0479875E0,1.5169309E0,4.4745054E0],"categories":[],"categories_nodes":[],"categories_segments":[],"categories_sizes":[],"default_left":[0,0,0,0,0,0,0,0,0,0,0,0,0],"id":82,"left_children":[1,3,5,7,-1,9,11,-1,-1,-1,-1,-1,-1],"loss_changes":[2.4962719E5,1.7940812E5,1.2943152E5,9.54532E4,0E0,4.081026E4,3.336168E4,0E0,0E0,0E0,0E0,0E0,0E0],"parents":[2147483647,0,0,1,1,2,2,3,3,5,5,6,6],"right_children":[2,4,6,8,-1,10,12,-1,-1,-1,-1,-1,-1],"split_conditions":[6.055E3,6.12E3,8.933333E3,5.1116665E3,-1.2961954E1,6.41E3,9.575E3,-9.125127E0,-1.5697979E0,9.284261E-1,-1.0479875E0,1.5169309E0,4.4745054E0],"split_indices":[5,1,5,5,0,1,5,0,0,0,0,0,0],"split_type":[0,0,0,0,0,0,0,0,0,0,0,0,0],"sum_hessian":[2.2E2,4.1E1,1.79E2,3.8E1,3E0,1.29E2,5E1,3E0,3.5E1,3.4E1,9.5E1,3.7E1,1.3E1],"tree_param":{"num_deleted":"0","num_feature":"7","num_nodes":"13","size_leaf_vector":"1"}},{"base_weights":[-5.045565E0,-4.161143E1,1.612729E1,-1.8994394E1,-1.3117535E2,9.277924E0,7.621038E0,-8.352234E0,-2.5845823E-1,-9.384139E0,-4.245709E0,4.0120735E0,5.053394E-2],"categories":[],"categories_nodes":[],"categories_segments":[],"categories_sizes":[],"default_left":[0,0,0,0,0,0,0,0,0,0,0,0,0],"id":83,"left_children":[1,3,5,7,9,11,-1,-1,-1,-1,-1,-1,-1],"loss_changes":[1.8173162E5,1.6922445E5,1.3626678E5,1.4359792E5,1.2565844E4,8.431872E4,0E0,0E0,0E0,0E0,0E0,0E0,0E0],"parents":[2147483647,0,0,1,1,2,2,3,3,4,4,5,5],"right_children":[2,4,6,8,10,12,-1,-1,-1,-1,-1,-1,-1],"split_conditions":[6.4716665E3,6.33E3,9.933333E3,5.2266665E3,6.34E3,6.71E3,7.621038E0,-8.352234E0,-2.5845823E-1,-9.384139E0,-4.245709E0,4.0120735E0,5.053394E-2],"split_indices":[5,3,5,5,2,2,0,0,0,0,0,0,0],"split_type":[0,0,0,0,0,0,0,0,0,0,0,0,0],"sum_hessian":[2.31E2,8.4E1,1.47E2,6.9E1,1.5E1,1.42E2,5E0,4E0,6.5E1,4E0,1.1E1,1.3E1,1.29E2],"tree_param":{"num_deleted":"0","num_feature":"7","num_nodes":"13","size_leaf_vector":"1"}},{"base_weights":[-6.6827683E0,-3.879241E1,2.5544117E1,-8.624061E0,-2.817116E1,1.7276968E1,7.3488564E0,-4.5553216E-1,-2.827991E0,5.830166E0,6.1328906E-1],"categories":[],"categories_nodes":[],"categories_segments":[],"categories_sizes":[],"default_left":[0,0,0,0,0,0,0,0,0,0,0],"id":84,"left_children":[1,3,5,-1,7,9,-1,-1,-1,-1,-1],"loss_changes":[2.3584522E5,1.5215544E5,1.09366484E5,0E0,5.740847E4,5.1393508E4,0E0,0E0,0E0,0E0,0E0],"parents":[2147483647,0,0,1,1,2,2,4,4,5,5],"right_children":[2,4,6,-1,8,10,-1,-1,-1,-1,-1],"split_conditions":[6.8783335E3,5.399E3,9.933333E3,-8.624061E0,6.3E3,6.8E3,7.3488564E0,-4.5553216E-1,-2.827991E0,5.830166E0,6.1328906E-1],"split_indices":[5,6,5,0,3,1,0,0,0,0,0],"split_type":[0,0,0,0,0,0,0,0,0,0,0],"sum_hessian":[2.24E2,1.12E2,1.12E2,6E0,1.06E2,1.07E2,5E0,6.5E1,4.1E1,3E0,1.04E2],"tree_param":{"num_deleted":"0","num_feature":"7","num_nodes":"11","size_leaf_vector":"1"}},{"base_weights":[-1.6358304E0,-2.1191034E1,3.5693047E1,-8.342094E0,-1.5686488E1,6.935604E0,2.5981775E1,-5.5710306E0,-5.9817713E-1,-2.7870739E0,1.9821471E0],"categories":[],"categories_nodes":[],"categories_segments":[],"categories_sizes":[],"default_left":[0,0,0,0,0,0,0,0,0,0,0],"id":85,"left_children":[1,3,5,-1,7,-1,9,-1,-1,-1,-1],"loss_changes":[1.591871E5,1.09414766E5,6.782546E4,0E0,4.723184E4,0E0,8.368639E4,0E0,0E0,0E0,0E0],"parents":[2147483647,0,0,1,1,2,2,4,4,6,6],"right_children":[2,4,6,-1,8,-1,10,-1,-1,-1,-1],"split_conditions":[8.35E3,5.1116665E3,8.45E3,-8.342094E0,4.92E3,6.935604E0,8.7E3,-5.5710306E0,-5.9817713E-1,-2.7870739E0,1.9821471E0],"split_indices":[5,5,0,0,4,0,0,0,0,0,0],"split_type":[0,0,0,0,0,0,0,0,0,0,0],"sum_hessian":[2.14E2,1.41E2,7.3E1,3E0,1.38E2,4E0,6.9E1,3E0,1.35E2,9E0,6E1],"tree_param":{"num_deleted":"0","num_feature":"7","num_nodes":"11","size_leaf_vector":"1"}},{"base_weights":[-2.2824075E0,-1.7720493E1,4.157585E1,-3.473321E1,-3.3512676E0,7.219032E1,2.7482248E1,-6.5379184E-1,-5.6090302E0,2.3178742E0,-9.691225E-1,4.187637E0,4.3134767E-1,-1.8308839E0,2.6505282E0],"categories":[],"categories_nodes":[],"categories_segments":[],"categories_sizes":[],"default_left":[0,0,0,0,0,0,0,0,0,0,0,0,0,0,0],"id":86,"left_children":[1,3,5,7,9,11,13,-1,-1,-1,-1,-1,-1,-1,-1],"loss_changes":[1.5855781E5,4.205871E4,2.2351656E4,1.29573586E5,7.829849E4,1.1783961E4,7.751859E4,0E0,0E0,0E0,0E0,0E0,0E0,0E0,0E0],"parents":[2147483647,0,0,1,1,2,2,3,3,4,4,5,5,6,6],"right_children":[2,4,6,8,10,12,14,-1,-1,-1,-1,-1,-1,-1,-1],"split_conditions":[8.75E3,6.39E3,8.975E3,6.29E3,6.615E3,9E3,9.1E3,-6.5379184E-1,-5.6090302E0,2.3178742E0,-9.691225E-1,4.187637E0,4.3134767E-1,-1.8308839E0,2.6505282E0],"split_indices":[0,0,1,2,2,2,1,0,0,0,0,0,0,0,0],"split_type":[0,0,0,0,0,0,0,0,0,0,0,0,0,0,0],"sum_hessian":[2.3E2,1.71E2,5.9E1,7.7E1,9.4E1,1.6E1,4.3E1,6.2E1,1.5E1,2.2E1,7.2E1,1.3E1,3E0,1.2E1,3.1E1],"tree_param":{"num_deleted":"0","num_feature":"7","num_nodes":"15","size_leaf_vector":"1"}},{"base_weights":[2.2474897E0,-5.3455647E1,2.1638327E1,-3.500335E1,-1.0546696E1,1.6609032E1,7.888021E0,-8.072212E0,-1.099972E0,2.937112E-1,2.0818522E0],"categories":[],"categories_nodes":[],"categories_segments":[],"categories_sizes":[],"default_left":[0,0,0,0,0,0,0,0,0,0,0],"id":87,"left_children":[1,3,5,7,-1,9,-1,-1,-1,-1,-1],"loss_changes":[2.5506389E5,1.6248922E5,1.1456414E5,8.661751E4,0E0,4.545356E4,0E0,0E0,0E0,0E0,0E0],"parents":[2147483647,0,0,1,1,2,2,3,3,5,5],"right_children":[2,4,6,8,-1,10,-1,-1,-1,-1,-1],"split_conditions":[6.1533335E3,6.2E3,9.933333E3,5.1116665E3,-1.0546696E1,8.791667E3,7.888021E0,-8.072212E0,-1.099972E0,2.937112E-1,2.0818522E0],"split_indices":[5,1,5,5,0,5,0,0,0,0,0],"split_type":[0,0,0,0,0,0,0,0,0,0,0],"sum_hessian":[2.32E2,5.9E1,1.73E2,5.5E1,4E0,1.69E2,4E0,3E0,5.2E1,1.2E2,4.9E1],"tree_param":{"num_deleted":"0","num_feature":"7","num_nodes":"11","size_leaf_vector":"1"}},{"base_weights":[-2.9893157E0,-5.6072628E1,1.0998176E1,-3.530641E1,-1.061165E1,4.552909E0,4.7584286E1,-6.017476E0,-2.8578097E-1,1.0667164E0,-1.4869063E-1,3.3951194E0,-2.1388428E0],"categories":[],"categories_nodes":[],"categories_segments":[],"categories_sizes":[],"default_left":[0,0,0,0,0,0,0,0,0,0,0,0,0],"id":88,"left_children":[1,3,5,7,-1,9,11,-1,-1,-1,-1,-1,-1],"loss_changes":[1.6384139E5,1.3418519E5,4.083297E4,1.0683345E5,0E0,1.9199557E4,5.354444E4,0E0,0E0,0E0,0E0,0E0,0E0],"parents":[2147483647,0,0,1,1,2,2,3,3,5,5,6,6],"right_children":[2,4,6,8,-1,10,12,-1,-1,-1,-1,-1,-1],"split_conditions":[6.07E3,6.12E3,9.2E3,5.399E3,-1.061165E1,6.58E3,9.85E3,-6.017476E0,-2.8578097E-1,1.0667164E0,-1.4869063E-1,3.3951194E0,-2.1388428E0],"split_indices":[0,1,0,6,0,3,4,0,0,0,0,0,0],"split_type":[0,0,0,0,0,0,0,0,0,0,0,0,0],"sum_hessian":[2.17E2,4.4E1,1.73E2,4.1E1,3E0,1.49E2,2.4E1,9E0,3.2E1,4.5E1,1.04E2,2E1,4E0],"tree_param":{"num_deleted":"0","num_feature":"7","num_nodes":"13","size_leaf_vector":"1"}},{"base_weights":[1.3362128E-2,-2.9314682E1,2.2748074E1,-9.95425E0,-9.326446E1,1.3716198E1,8.482117E1,-7.6495166E0,-1.410137E-2,-8.997779E0,-3.113262E0,4.8549347E0,3.6723542E-1,5.068641E0,3.9291993E-1],"categories":[],"categories_nodes":[],"categories_segments":[],"categories_sizes":[],"default_left":[0,0,0,0,0,0,0,0,0,0,0,0,0,0,0],"id":89,"left_children":[1,3,5,7,9,11,13,-1,-1,-1,-1,-1,-1,-1,-1],"loss_changes":[1.5268927E5,1.21952766E5,6.999524E4,1.09208375E5,3.9399266E4,5.9669805E4,1.8788523E4,0E0,0E0,0E0,0E0,0E0,0E0,0E0,0E0],"parents":[2147483647,0,0,1,1,2,2,3,3,4,4,5,5,6,6],"right_children":[2,4,6,8,10,12,14,-1,-1,-1,-1,-1,-1,-1,-1],"split_conditions":[6.7583335E3,6.405E3,9.575E3,5.1116665E3,6.0516665E3,6.76E3,1.0075E4,-7.6495166E0,-1.410137E-2,-8.997779E0,-3.113262E0,4.8549347E0,3.6723542E-1,5.068641E0,3.9291993E-1],"split_indices":[5,3,5,5,5,3,4,0,0,0,0,0,0,0,0],"split_type":[0,0,0,0,0,0,0,0,0,0,0,0,0,0,0],"sum_hessian":[2.25E2,9.8E1,1.27E2,7.7E1,2.1E1,1.13E2,1.4E1,3E0,7.4E1,3E0,1.8E1,6E0,1.07E2,1.1E1,3E0],"tree_param":{"num_deleted":"0","num_feature":"7","num_nodes":"15","size_leaf_vector":"1"}},{"base_weights":[2.7157044E0,-4.2332325E1,1.4469948E1,-2.4575462E1,-8.727852E0,9.557617E0,6.376493E0,-2.720632E0,5.2219355E-1,6.1654496E-1,-3.448454E0],"categories":[],"categories_nodes":[],"categories_segments":[],"categories_sizes":[],"default_left":[0,0,0,0,0,0,0,0,0,0,0],"id":90,"left_children":[1,3,5,7,-1,9,-1,-1,-1,-1,-1],"loss_changes":[1.1506877E5,9.707567E4,9.308892E4,4.5021438E4,0E0,3.80696E4,0E0,0E0,0E0,0E0,0E0],"parents":[2147483647,0,0,1,1,2,2,3,3,5,5],"right_children":[2,4,6,8,-1,10,-1,-1,-1,-1,-1],"split_conditions":[6.06E3,6.3E3,9.933333E3,5.635E3,-8.727852E0,9.75E3,6.376493E0,-2.720632E0,5.2219355E-1,6.1654496E-1,-3.448454E0],"split_indices":[5,3,5,3,0,3,0,0,0,0,0],"split_type":[0,0,0,0,0,0,0,0,0,0,0],"sum_hessian":[2.13E2,4.3E1,1.7E2,4E1,3E0,1.65E2,5E0,2.1E1,1.9E1,1.61E2,4E0],"tree_param":{"num_deleted":"0","num_feature":"7","num_nodes":"11","size_leaf_vector":"1"}},{"base_weights":[-6.554522E0,-1.5339517E1,6.1526554E1,-7.686542E1,-6.8715353E0,1.1752646E2,1.8052906E1,-2.4183195E0,-6.612919E0,-8.112494E-1,2.6303187E-1,1.8349692E0,7.661391E0,-1.3877267E0,6.954629E0],"categories":[],"categories_nodes":[],"categories_segments":[],"categories_sizes":[],"default_left":[0,0,0,0,0,0,0,0,0,0,0,0,0,0,0],"id":91,"left_children":[1,3,5,7,9,11,13,-1,-1,-1,-1,-1,-1,-1,-1],"loss_changes":[1.3586016E5,1.0314366E5,5.9054117E4,2.5093766E4,2.0369734E4,2.0495281E4,1.01977695E5,0E0,0E0,0E0,0E0,0E0,0E0,0E0,0E0],"parents":[2147483647,0,0,1,1,2,2,3,3,4,4,5,5,6,6],"right_children":[2,4,6,8,10,12,14,-1,-1,-1,-1,-1,-1,-1,-1],"split_conditions":[9.225E3,5.63E3,9.375E3,5.542E3,7.4166665E3,9.2E3,9.866667E3,-2.4183195E0,-6.612919E0,-8.112494E-1,2.6303187E-1,1.8349692E0,7.661391E0,-1.3877267E0,6.954629E0],"split_indices":[5,5,2,6,5,3,5,0,0,0,0,0,0,0,0],"split_type":[0,0,0,0,0,0,0,0,0,0,0,0,0,0,0],"sum_hessian":[2.22E2,1.98E2,2.4E1,2.2E1,1.76E2,9E0,1.5E1,1.7E1,5E0,9.9E1,7.7E1,4E0,5E0,1.2E1,3E0],"tree_param":{"num_deleted":"0","num_feature":"7","num_nodes":"15","size_leaf_vector":"1"}},{"base_weights":[-6.229644E-1,-9.26983E0,5.4087734E1,-3.1306053E1,4.0303326E0,6.5467705E1,-7.5756836E-1,3.9965234E0,-1.9128876E0,2.040545E0,-2.5767884E-1,1.7946237E0,5.4283547E0],"categories":[],"categories_nodes":[],"categories_segments":[],"categories_sizes":[],"default_left":[0,0,0,0,0,0,0,0,0,0,0,0,0],"id":92,"left_children":[1,3,5,7,9,11,-1,-1,-1,-1,-1,-1,-1],"loss_changes":[1.0744488E5,5.7697074E4,2.6409953E4,6.3338836E4,4.2306527E4,2.662271E4,0E0,0E0,0E0,0E0,0E0,0E0,0E0],"parents":[2147483647,0,0,1,1,2,2,3,3,4,4,5,5],"right_children":[2,4,6,8,10,12,-1,-1,-1,-1,-1,-1,-1],"split_conditions":[9.083333E3,6.39E3,1.0075E4,4.92E3,6.58E3,9.425E3,-7.5756836E-1,3.9965234E0,-1.9128876E0,2.040545E0,-2.5767884E-1,1.7946237E0,5.4283547E0],"split_indices":[5,5,4,2,4,4,0,0,0,0,0,0,0],"split_type":[0,0,0,0,0,0,0,0,0,0,0,0,0],"sum_hessian":[2.23E2,1.94E2,2.9E1,7.2E1,1.22E2,2.5E1,4E0,3E0,6.9E1,2.3E1,9.9E1,1.7E1,8E0],"tree_param":{"num_deleted":"0","num_feature":"7","num_nodes":"13","size_leaf_vector":"1"}},{"base_weights":[-1.9354683E0,-1.6286407E1,4.091581E1,-1.0052549E2,-1.0334273E1,2.7624205E1,4.2717333E0,-4.6515137E-1,-6.8481407E0,1.6929842E0,-9.972744E-1,2.0333383E0,-3.3180256E0],"categories":[],"categories_nodes":[],"categories_segments":[],"categories_sizes":[],"default_left":[0,0,0,0,0,0,0,0,0,0,0,0,0],"id":93,"left_children":[1,3,5,7,9,11,-1,-1,-1,-1,-1,-1,-1],"loss_changes":[1.27398734E5,7.5639625E4,2.6049672E4,3.0690703E4,6.379007E4,5.81068E4,0E0,0E0,0E0,0E0,0E0,0E0,0E0],"parents":[2147483647,0,0,1,1,2,2,3,3,4,4,5,5],"right_children":[2,4,6,8,10,12,-1,-1,-1,-1,-1,-1,-1],"split_conditions":[8.75E3,5.466E3,9.665E3,5.18E3,5.99E3,9.625E3,4.2717333E0,-4.6515137E-1,-6.8481407E0,1.6929842E0,-9.972744E-1,2.0333383E0,-3.3180256E0],"split_indices":[0,6,6,1,1,3,0,0,0,0,0,0,0],"split_type":[0,0,0,0,0,0,0,0,0,